tree
version=v4
num_class=3
num_tree_per_iteration=3
label_index=0
max_feature_idx=42
objective=multiclass num_class:3
feature_names=pr_open pr_high pr_low pr_close pr_change trades vol val pr_std disb pr_vwap trades_b vol_b val_b pr_vwap_b trades_s vol_s val_s pr_vwap_s pr_mean ratio_pr_mean_1 ratio_pr_mean_2 ratio_pr_mean_3 ratio_pr_mean_4 ratio_pr_mean_5 ratio_pr_mean_6 ratio_pr_mean_7 ratio_pr_mean_8 ratio_pr_mean_9 ratio_pr_mean_10 ratio_pr_mean_11 hour_min hour_max hour_mean hour_std ytd_min ytd_max ytd_mean ytd_std month_min month_max month_mean month_std
feature_infos=[1815:2867.5999999999999] [1817.4000000000001:2872] [1812:2861] [1814.8:2868.4000000000001] [-1.8834:3.6419999999999999] [5:9420] [18:322588] [35046:729487641] [0:0.0012999999999999999] [-0.98999999999999999:1] [1814.5999999999999:2864.8000000000002] [3:8301] [8:205791] [16488:465149633] [1815.0999999999999:2865] [0:5289] [0:196569] [0:437777750] [0:2864.9000000000001] [1815.9000000000001:2865.4000000000001] [0.98750597141072283:1.0241501868222] [0.97762660069848661:1.0402351225735897] [0.97251854468385723:1.0483915064248612] [0.96664560073028583:1.0533833897994691] [0.96550856896489778:1.0586895106169689] [0.96726906909064769:1.0637304276165187] [0.96506565550172041:1.0665136561854487] [0.95879120879120883:1.0666115778359271] [0.94924055104203464:1.0664647021022675] [0.94350818060529473:1.0657309297738637] [0.94407166695942391:1.0641713682858585] [1815.9000000000001:2853] [1822.5:2865.4000000000001] [1818.9272727272728:2859.3636363636365] [0.082019953234036991:62.950381614845597] [1815.9000000000001:2715.3999999999996] [1877.2:2782.5999999999999] [1847.0067307692309:2751.9836538461536] [2.4440536119840486:62.931298291907915] [1809.4000000000001:2516.8000000000002] [2010.9000000000001:2865.4000000000001] [1920.426923076923:2675.3287179487179] [32.150970014341027:199.65804813232398]
tree_sizes=3409 3315 3317 3426 3348 3355 3447 3372 3346 3451 3378 3365 3441 3377 3371 3418 3384 3380 3444 3384 3380 3437 3369 3399 3438 3397 3392 3441 3389 3376 3440 3385 3395 3409 3392 3382 3429 3380 3373 3425 3395 3380 3419 3396 3378 3405 3394 3362 3415 3405 3377 3412 3379 3378 3373 3375 3381 3402 3369 3376 3367 3377 3367 3407 3370 3386 3405 3380 3361 3393 3386 3388 3391 3402 3393 3399 3379 3359 3367 3383 3376 3386 3381 3393 3371 3371 3379 3407 3389 3363 3395 3379 3369 3372 3390 3394 3397 3380 3384 3365 3381 3378 3389 3392 3393 3386 3389 3366 3400 3370 3375 3392 3379 3398 3391 3382 3397 3383 3375 3397 3389 3401 3398 3397 3386 3387 3374 3397 3385 3390 3422 3384 3386 3380 3385 3391 3364 3383 3412 3374 3406 3393 3367 3384 3389 3405 3375 3396 3385 3383 3401 3406 3367 3406 3396 3377 3379 3410 3366 3417 3376 3383 3388 3374 3385 3374 3382 3401 3374 3369 3372 3415 3373 3399 3377 3397 3396 3391 3396 3381 3420 3384 3394 3403 3394 3399 3396 3384 3392 3399 3388 3389 3387 3368 3382 3377 3377 3390 3386 3408 3392 3391 3386 3392 3376 3374 3393 3401 3387 3403 3369 3391 3403 3413 3373 3388 3389 3397 3388 3407 3379 3387 3394 3393 3375 3376 3384 3387 3380 3393 3403 3386 3393 3391 3395 3412 3374 3376 3398 3400 3395 3382 3412 3394 3424 3403 3383 3375 3417 3393 3393 3391 3345 3402 3390 3392 3377 3420 3410 3381 3396 3383 3384 3413 3383 3377 3406 3411 3385 3413 3407 3394 3415 3397 3401 3394 3383 3403 3414 3408 3396 3403 3390 3414 3419 3391 3420 3413 3366 3411 3405 3412 3386 3396 3409 3410 3407 3399 3424 3386

Tree=0
num_leaves=31
num_cat=0
split_feature=4 21 20 4 20 21 20 4 20 4 6 21 22 22 4 21 20 4 20 4 22 21 21 20 4 25 22 4 25 26
split_gain=56.3833 156.76 108.272 96.0993 90.0298 76.7852 40.4359 34.9938 28.5037 28.4505 26.3307 22.0878 20.4863 20.3411 17.1273 14.8447 37.1578 33.1497 30.0407 100.786 94.3515 63.7641 47.4042 44.7784 62.9806 27.133 26.2558 26.1529 24.7977 24.5046
threshold=-0.13444999999999999 0.99852953520598386 1.000037926195678 0.11365000000000001 0.99996315469500063 1.0013907026908642 0.99996315469500063 0.060750000000000005 1.0000181904172887 0.040250000000000008 7864.5000000000009 0.99995008005382624 1.000636103413554 1.0022670777658396 -0.08044999999999998 0.99926903741940432 0.99996068175935526 -0.059949999999999996 1.0000392441685413 0.032550000000000003 1.0002527273712827 0.99998179236007456 0.99998179236007456 0.99996315469500063 -0.020449999999999999 0.99953498263863705 0.99996252365661276 -0.019949999999999999 1.0004152716944352 1.0003973734640808
decision_type=2 2 2 2 2 2 2 2 2 2 2 2 2 2 2 2 2 2 2 2 2 2 2 2 2 2 2 2 2 2
left_child=2 4 -1 5 7 15 11 10 -7 -10 14 -5 -4 -11 -2 16 17 -3 21 20 25 23 -22 24 -17 -20 -26 -24 -23 -28
right_child=1 3 12 6 -6 8 -8 -9 9 13 -12 -13 -14 -15 -16 18 -18 -19 19 -21 22 28 27 -25 26 -27 29 -29 -30 -31
leaf_value=-0.24640424221906543 -0.2736145427554178 -0.27819267160069938 -0.30117580327852683 -0.39554564635666523 -0.23982433963149599 -0.2483973889656397 -0.24461294059098398 -0.42131421537982811 -0.37021711485323516 -0.27029481618056095 -0.39785601916272129 -0.25023116365851489 -0.41833754495874031 -0.35006401532063125 -0.34763526376276438 -0.26914545232640591 -0.23989683492258021 -0.34907831779356735 -0.31465579567595331 -0.2575917092947535 -0.21914868261428058 -0.21652737637551517 -0.40709179164237635 -0.2119222234359292 -0.36462219495252945 -0.25121453317983489 -0.23258119010869086 -0.34693806193917953 -0.26699132500589612 -0.34810599140564624
leaf_weight=520.81117415428162 41.585683107376099 102.97407245635986 22.065872669219971 28.855371952056885 59.973910331726074 31.967225790023804 560.98237824440002 103.2569682598114 206.23104071617126 63.934451580047607 84.020053625106812 16.407956600189209 46.112015962600708 63.934451580047607 125.88863253593445 237.91537070274353 65.06603479385376 183.59937644004822 121.92809128761292 381.34354305267334 22.631664276123047 192.65204215049744 114.28990459442139 57.427848100662231 161.81639957427979 150.7834632396698 35.361975431442261 196.61258339881897 196.89547920227051 38.190933465957642
leaf_count=1841 147 364 78 102 212 113 1983 365 729 226 297 58 163 226 445 841 230 649 431 1348 80 681 404 203 572 533 125 695 696 135
internal_value=-0.290625 -0.295262 -0.261917 -0.287835 -0.353141 -0.296121 -0.251949 -0.372298 -0.338608 -0.347239 -0.352174 -0.342869 -0.380418 -0.310179 -0.329255 -0.289238 -0.308118 -0.323607 -0.285758 -0.297871 -0.323207 -0.272759 -0.35888 -0.29531 -0.305429 -0.279579 -0.342104 -0.369051 -0.242034 -0.292565
internal_weight=0 3646.53 588.989 3231.8 414.725 2625.56 606.246 354.751 366.067 334.1 251.494 45.2633 68.1779 127.869 167.474 2259.49 351.639 286.573 1907.85 987.589 606.246 920.26 333.534 530.713 473.285 272.712 235.369 310.902 389.548 73.5529
internal_count=14972 12890 2082 11424 1466 9281 2143 1254 1294 1181 889 160 241 452 592 7987 1243 1013 6744 3491 2143 3253 1179 1876 1673 964 832 1099 1377 260
is_linear=0
shrinkage=1


Tree=1
num_leaves=31
num_cat=0
split_feature=20 4 22 21 22 4 25 22 4 20 24 21 23 41 36 11 23 7 4 30 11 23 32 15 4 33 29 27 24 28
split_gain=1435.19 505.439 285.621 95.0365 82.1152 85.3767 60.4279 68.0332 41.9939 32.9185 30.5513 29.6127 27.6939 22.082 18.8162 16.3877 15.7372 15.3289 14.1471 16.2144 13.9306 15.6184 14.4415 13.8785 27.7773 13.6595 12.2384 12.1679 11.9665 14.7768
threshold=1.0000181904172887 0.031750000000000007 1.0003940500346888 0.99998179236007456 1.0008484481774278 0.13795000000000004 0.99953498263863705 0.99996252365661276 -0.05294999999999999 1.0014381499053913 0.99092841739017379 0.99995868878107508 0.99994979286528884 2512.1021314102568 1928.2500000000002 485.50000000000006 1.0000182056510345 20699438.500000004 -0.075049999999999992 0.99425788290356709 94.500000000000014 1.0000969582316679 2007.1500000000001 406.50000000000006 0.38400000000000006 1904.5590909090913 1.0043875834860201 1.001059598164016 0.99964447749739327 1.0029680846785081
decision_type=2 2 2 2 2 2 2 2 2 2 2 2 2 2 2 2 2 2 2 2 2 2 2 2 2 2 2 2 2 2
left_child=-1 2 6 -4 10 9 18 -8 20 13 -3 -9 -13 26 25 16 27 -15 19 -2 21 -5 -22 -7 -25 -10 -6 -16 -24 -30
right_child=1 4 3 8 5 23 7 11 14 -11 -12 12 -14 17 15 -17 -18 -19 -20 -21 22 -23 28 24 -26 -27 -28 -29 29 -31
leaf_value=-2.1497962825387864 -2.0297175660211879 -1.7868527879186176 -2.1274942948676769 -1.9176261299738477 -2.0372261785638046 -2.0815863506660079 -2.1217474395636868 -2.1403077774786081 -1.8297112781720124 -1.8791920004263656 -2.0929082774211358 -2.0988084080676086 -1.9097482178018459 -1.959179634145809 -1.9234642256013132 -2.0562809011261565 -1.8671752535931656 -1.7901347443794631 -1.9685532814990461 -1.819328891967217 -1.6411339210570757 -1.7130274150294842 -1.7001153671676998 -1.8408227386080778 -2.0988084080676086 -1.6277344850238304 -1.9402410688255041 -2.1247516096265411 -1.9161195246506306 -1.8013281720439365
leaf_weight=1255.8428514748812 4.9410210549831417 3.2940140366554251 12.681954041123388 4.2822182476520529 77.24462915956974 148.0659309476614 68.021389856934547 9.2232393026351911 11.199647724628447 31.62253475189209 331.37781208753586 9.5526407063007337 41.010474756360054 44.798590898513794 14.493661761283876 5.2704224586486808 158.11267375946045 6.0939259678125373 89.267780393362045 14.16426035761833 4.1175175458192816 28.987323522567749 5.7645245641469947 7.4115315824747112 9.5526407063007337 4.7763203531503668 15.646566674113272 3.788116142153739 20.422887027263641 24.869805976748466
leaf_count=7625 30 20 77 26 469 899 413 56 68 192 2012 58 249 272 88 32 960 37 542 86 25 176 35 45 58 29 95 23 124 151
internal_value=-2.07491 -1.99719 -1.92459 -1.85962 -2.05472 -2.02014 -2.00677 -2.05335 -1.84774 -1.97157 -2.0899 -1.97552 -1.94547 -1.99188 -1.87337 -1.88252 -1.87733 -1.93894 -1.95184 -1.87374 -1.79047 -1.73936 -1.82129 -2.07177 -1.9861 -1.76933 -2.02089 -1.96517 -1.83582 -1.85309
internal_weight=0 1210.06 534.948 298.767 675.108 340.436 236.181 127.808 286.085 175.406 334.672 59.7864 50.5631 143.784 197.641 181.665 176.394 50.8925 108.373 19.1053 88.4443 33.2695 55.1747 165.03 16.9642 15.976 92.8912 18.2818 51.0572 45.2927
internal_count=14972 7347 3248 1814 4099 2067 1434 776 1737 1065 2032 363 307 873 1200 1103 1071 309 658 116 537 202 335 1002 103 97 564 111 310 275
is_linear=0
shrinkage=1


Tree=2
num_leaves=31
num_cat=0
split_feature=20 4 21 22 22 4 25 6 4 25 25 21 16 21 4 21 4 20 11 29 11 5 5 23 30 17 37 7 25 4
split_gain=1582.4 441.861 274.073 105.499 99.4996 98.0405 67.3951 63.197 61.1797 44.1362 28.3361 26.368 26.3185 22.3714 22.1464 19.1925 19.6325 27.1905 17.6957 16.5807 16.0345 15.8295 16.0879 15.1217 15.2338 15.0476 15.7399 16.2478 15.0713 14.6843
threshold=0.99996315469500063 -0.020449999999999999 0.99995008005382624 0.9999220284960445 0.99996252365661276 -0.10874999999999999 1.0005152381719211 7598.5000000000009 0.052550000000000006 1.0005387309326321 1.0005883733503231 1.0000175125214532 7467.0000000000009 0.99878414833214813 -0.045449999999999997 0.99640882436414346 -0.26324999999999993 0.99766127628611512 118.50000000000001 1.0006224420093837 37.500000000000007 183.50000000000003 288.50000000000006 0.99880700089294161 0.99654805531235058 2962405.5000000005 1899.9302884615388 5191764.5000000009 0.99387284950772525 0.0099500000000000022
decision_type=2 2 2 2 2 2 2 2 2 2 2 2 2 2 2 2 2 2 2 2 2 2 2 2 2 2 2 2 2 2
left_child=1 3 4 5 8 15 -6 11 12 -4 -5 14 25 18 21 -1 -17 -18 -9 -8 -16 -7 23 24 -23 26 -3 29 -27 -28
right_child=-2 2 9 10 6 7 19 13 -10 -11 -12 -13 -14 -15 20 16 17 -19 -20 -21 -22 22 -24 -25 -26 28 27 -29 -30 -31
leaf_value=-1.9929994046175279 -2.1424614671985625 -2.1140650497502418 -2.1061257661282311 -2.123872850569041 -2.084874984803605 -2.029180389780004 -1.7591846237929529 -1.6095447156757821 -1.7721368104622497 -1.9778585155644981 -2.0539878230577457 -2.119283879543731 -1.7043869109613126 -1.9735686582044574 -2.0028387397764957 -2.1105729247697314 -1.8815661824502825 -2.0524213548153569 -1.829162784098223 -1.9209474720719546 -1.8931986793847184 -1.9798564943852337 -2.039261822710225 -1.9788138568221667 -1.784598055830815 -2.0268503749321183 -1.9175810314496939 -1.9996095888417742 -1.8343063709612109 -1.8292039235222708
leaf_weight=54.083212792873383 1302.3104920983315 3.483887940645217 54.580911070108414 105.84383362531662 29.364198356866837 66.02797144651413 9.1244684159755725 4.3133850693702724 100.36915257573128 52.7560173869133 128.40615552663803 12.774255782365797 9.1244684159755689 9.4562672674655897 18.580735683441162 55.908106476068497 9.9539655447006208 144.99609810113907 24.553115010261536 20.737428218126297 47.281336337327957 6.1382787525653866 16.424043148756027 20.737428218126297 11.447060376405714 4.3133850693702689 43.96334782242775 13.271954059600828 70.67315536737442 32.848086297512054
leaf_count=326 7850 21 329 638 177 398 55 26 605 318 774 77 55 57 112 337 60 874 148 125 285 37 99 125 69 26 265 80 426 198
internal_value=-2.06644 -1.98264 -1.90391 -2.03014 -1.85962 -2.00431 -1.9773 -1.95769 -1.83455 -2.04308 -2.08556 -1.98029 -1.8698 -1.84008 -1.97078 -2.04614 -2.05977 -2.04145 -1.79635 -1.87152 -1.92413 -1.99621 -1.95646 -1.92097 -1.85275 -1.87876 -1.90551 -1.89744 -1.84538 -1.87979
internal_weight=0 1181.54 444.61 736.925 337.274 502.675 59.2261 237.734 278.047 107.337 234.25 199.411 177.678 38.3228 186.637 264.941 210.858 154.95 28.8665 29.8619 65.8621 120.775 54.7468 38.3228 17.5853 168.554 93.5673 90.0834 74.9865 76.8114
internal_count=14972 7122 2680 4442 2033 3030 357 1433 1676 647 1412 1202 1071 231 1125 1597 1271 934 174 180 397 728 330 231 106 1016 564 543 452 463
is_linear=0
shrinkage=1


Tree=3
num_leaves=31
num_cat=0
split_feature=4 21 20 4 20 21 13 20 4 20 25 23 20 4 22 4 20 20 22 21 22 21 25 20 4 21 22 4 25 25
split_gain=44.5361 111.869 81.2235 77.8335 64.4221 52.3981 21.5673 21.018 27.8258 16.5145 15.2875 14.999 14.4464 15.9043 14.1781 14.1196 87.1693 55.7603 72.8058 59.0896 39.1407 38.5046 33.7373 31.6445 31.6118 25.198 22.2102 17.9137 17.0627 16.5442
threshold=-0.13444999999999999 0.99852953520598386 1.000037926195678 0.14805000000000004 0.99996315469500063 1.0013907026908642 3893927.5000000005 1.0000181904172887 0.077850000000000016 0.99996315469500063 1.0063418106942372 1.0002206151415352 0.99705920754315913 -0.22509999999999999 0.99899378220282753 0.032550000000000003 0.99996315469500063 1.0000392441685413 1.000101458813291 0.99996194388938819 0.99994980167111736 1.0000175125214532 0.99949234569592915 0.99996315469500063 -0.045449999999999997 0.99998179236007456 1.0008484481774278 -0.019949999999999999 1.0004152716944352 1.0002645922751776
decision_type=2 2 2 2 2 2 2 2 2 2 2 2 2 2 2 2 2 2 2 2 2 2 2 2 2 2 2 2 2 2
left_child=2 4 12 5 6 15 11 -7 -9 14 -10 -2 13 -1 -5 17 25 19 22 20 23 -20 -19 24 -3 -17 -18 -23 -21 -22
right_child=1 3 -4 9 -6 7 -8 8 10 -11 -12 -13 -14 -15 -16 16 26 18 21 28 29 27 -24 -25 -26 -27 -28 -29 -30 -31
leaf_value=0.020538355608909348 -0.047197635753179035 0.0066586677645059864 -0.071541243355664391 -0.14395328457068329 0.047625706024827026 0.041862069209138882 -0.085427835650804432 -0.057708357658970547 0.014093315036204616 0.047838648364474844 -0.10711576999269501 0.058037806265127757 0.048238874069478577 -0.10465092894482009 0.01302040977002825 -0.070645689572598383 0.049339121869579082 -0.018448001249561054 0.048281556251065477 0.070813831874671052 0.070164658299160521 -0.089477564563431311 0.055687010675026176 0.074756868688016551 -0.044357966066258969 0.016064202024202143 0.0033741999857439808 -0.043882252923631765 0.0249719267062825 0.0086107375457365846
leaf_weight=68.223928689956665 139.27614784240723 204.47385415434837 73.79674568772316 7.9861809015274074 57.637458682060242 32.75922629237175 226.83576330542564 290.01422894001007 98.640492230653763 400.0508688390255 11.632718294858931 15.002657890319822 420.94566249847412 11.921228021383284 20.58530929684639 123.53732126951218 355.66312465071678 125.34957447648048 35.565663695335388 159.99929222464561 81.29551374912262 136.26897287368774 120.29505261778831 34.948289930820465 299.1588733792305 45.991103708744049 149.2321720123291 234.3663130402565 164.84894624352455 94.332862734794617
leaf_count=248 467 729 241 26 212 120 736 967 350 1477 40 51 1550 43 71 408 1314 435 131 605 300 442 445 133 1007 168 536 787 598 335
internal_value=0 -0.00353107 0.0264053 0.0029104 -0.0509077 -0.00316771 -0.0658093 -0.0351481 -0.0414505 0.0425929 0.00130697 -0.0369641 0.0408301 0.00191702 -0.0308562 0.00268728 0.014921 -0.00219219 -0.0251194 0.012191 -0.00389183 -0.0511086 0.0178568 -0.01726 -0.0236453 -0.0471223 0.0357532 -0.060646 0.0475507 0.037103
internal_weight=0 3665.75 574.888 3227 438.752 2798.37 381.115 433.047 400.287 428.622 110.273 154.279 501.091 80.1452 28.5715 2365.33 674.424 1690.9 651.846 1039.06 714.209 406.201 245.645 538.581 503.633 169.528 504.895 370.635 324.848 175.628
internal_count=14972 12890 2082 11424 1466 9850 1254 1477 1357 1574 390 518 1841 291 97 8373 2426 5947 2240 3707 2504 1360 880 1869 1736 576 1850 1229 1203 635
is_linear=0
shrinkage=0.1


Tree=4
num_leaves=31
num_cat=0
split_feature=20 4 21 22 4 22 25 21 24 4 4 20 22 25 22 24 23 20 34 9 25 7 15 39 16 24 16 5 6 4
split_gain=1213.55 306.981 146.59 66.632 63.1415 52.5543 33.3439 30.3178 22.4824 22.1853 21.232 26.4801 19.157 18.6205 18.3274 22.938 20.054 17.95 15.7194 15.1019 13.9836 13.9636 14.1287 13.9262 13.2743 12.5112 12.0524 11.7545 14.8523 11.596
threshold=1.0000181904172887 0.031750000000000007 1.0001496968661805 1.0008484481774278 0.091550000000000006 1.0002527273712827 0.99949234569592915 0.99995008005382624 0.99092841739017379 1.0000000180025095e-35 0.20805000000000004 1.0015640087262467 0.99996252365661276 0.99809024789184309 0.99996252365661276 0.99953844078037102 0.99878267622215156 1.0008332465458587 2.3742941522490093 -0.044999999999999991 0.99628487408474398 2378035.5000000005 48.500000000000007 1864.1000000000001 4718.5000000000009 1.0015319010459522 653.50000000000011 217.50000000000003 1057.5000000000002 0.0077500000000000008
decision_type=2 2 2 2 2 2 2 2 2 2 2 2 2 2 2 2 2 2 2 2 2 2 2 2 2 2 2 2 2 2
left_child=-1 2 6 8 17 13 18 -8 -3 -7 11 19 -9 -4 15 16 -15 -5 -2 -6 29 -16 -23 -19 -11 -25 -18 28 -14 -20
right_child=1 3 5 4 10 9 7 12 -10 24 -12 -13 27 14 21 -17 26 23 20 -21 -22 22 -24 25 -26 -27 -28 -29 -30 -31
leaf_value=-0.074005874405406596 0.14813111634844381 0.22395501380704214 0.15849955585395192 0.073826573657492942 0.17200646256764829 0.17711174030870111 -0.062960107664369672 -0.043008069243783809 -0.015766759462873162 0.13065902842885119 -0.015146543813849393 0.12225979194643705 0.035136617075336579 -0.048888429450211886 0.013106014949624279 -0.06193017777679808 0.040529653271228067 0.031283909496636467 0.18418942730145768 0.0081993020004271795 0.0082047630120823823 0.29177145315875841 0.10841963934532764 0.095260647853370753 -0.037676986282165537 0.20763404611391972 0.23759564368167119 -0.051606307532572927 0.21107420515016206 -0.022694740962098781
leaf_weight=1175.4053288251162 24.358981981873512 3.9605000615119925 22.401997476816177 68.927077069878578 6.015671268105506 267.99998943507671 47.599945113062859 12.247981876134871 321.2058347016573 99.119410783052444 101.82680925726891 33.61201199889183 7.9518053680658403 7.0415086895227459 9.9259817004203814 21.275616243481636 5.0956457406282407 8.269684970378874 10.312624245882033 87.365215703845024 29.148788571357727 5.6826402395963695 16.137990206480026 14.460665270686148 4.9168266206979743 31.46732360124588 7.938337117433548 3.7494733035564414 12.098542258143423 3.6746610701084128
leaf_count=7625 134 20 120 395 34 1296 306 78 2012 498 630 194 43 40 55 132 29 46 57 522 162 31 90 80 26 166 45 20 65 21
internal_value=0 0.0663145 0.117234 0.019789 0.0499417 0.14491 0.0316224 -0.0105689 -0.012847 0.161897 0.0188714 0.046148 0.0586119 0.0787363 0.0542915 0.0104178 0.0870908 0.107684 0.0839108 0.0187519 0.0476455 0.111439 0.156169 0.150743 0.122703 0.172253 0.160553 0.110908 0.141299 0.129838
internal_weight=0 1295.79 618.679 677.111 351.944 467.536 151.143 83.6477 325.166 372.036 228.82 126.993 36.0478 95.4997 73.0977 41.3511 20.0755 123.125 67.4951 93.3809 43.1361 31.7466 21.8206 54.1977 104.036 45.928 13.034 23.7998 20.0503 13.9873
internal_count=14972 7347 3248 4099 2067 2362 886 512 2032 1820 1380 750 206 542 422 246 114 687 374 556 240 176 121 292 524 246 74 128 108 78
is_linear=0
shrinkage=0.1


Tree=5
num_leaves=31
num_cat=0
split_feature=20 4 21 22 22 4 25 24 6 4 25 5 20 4 9 22 21 28 11 4 12 23 13 34 40 2 6 21 37 11
split_gain=1325.58 267.285 163.794 68.643 55.9712 55.07 46.8656 44.392 42.1472 30.7379 19.2212 18.8664 18.1274 24.2634 13.9049 13.5989 12.8501 15.022 12.3467 12.2458 12.4371 12.1923 12.337 12.0656 11.5735 18.5913 11.5371 12.3739 11.0362 10.7752
threshold=0.99996315469500063 -0.033349999999999998 0.99998179236007456 0.99974754381155606 0.99996252365661276 -0.13444999999999999 1.0002526796433828 1.0005420783701731 7740.5000000000009 0.052550000000000006 1.0019389552092952 206.50000000000003 0.99705920754315913 -0.22509999999999999 -0.5149999999999999 1.0007316967172526 1.0002734909266315 1.0009005460957752 393.50000000000006 -0.26324999999999993 1007.5000000000001 1.0001187484366487 1312622.5000000002 1.525480539726495 2756.0500000000006 2285.2000000000003 6817.5000000000009 1.0000175125214532 1899.9302884615388 197.50000000000003
decision_type=2 2 2 2 2 2 2 2 2 2 2 2 2 2 2 2 2 2 2 2 2 2 2 2 2 2 2 2 2 2
left_child=1 3 4 5 9 12 -6 -4 21 11 -5 28 13 14 -1 -12 17 -9 -17 -14 -21 22 -7 -8 25 -16 27 -24 -3 -10
right_child=-2 2 7 10 6 8 23 16 29 -11 15 -13 19 -15 24 18 -18 -19 -20 20 -22 -23 26 -25 -26 -27 -28 -29 -30 -31
leaf_value=-0.022430121494836891 -0.075175037340897546 -0.020574606491593123 -0.04802123187473778 -0.037191645976407388 -0.025859346241149522 0.035582971989427468 0.26296164059462707 0.041386524005374639 0.20485652230696494 0.19956192365636241 0.090380635738039228 0.17703679729746108 -0.041477269632612002 0.25009971161807626 0.044945298876067651 -0.01961607141789393 0.0434885535115829 0.21923874755127737 0.14692404319774896 -0.023788084498897258 0.043214679100847475 -0.018525387289507155 0.10951648960905749 0.11214219335268175 0.026510845651021991 0.32666300650352514 -0.02535714425579156 -0.075649803626959999 0.12605228957129008 0.11036601124872779
leaf_weight=18.484155163168907 1215.6532226502895 5.2909333407878867 57.775664567947388 154.82769045233727 31.813822656869888 63.076680481433868 6.145110771059989 8.4708995223045367 29.158036097884178 132.93056292831898 22.182358309626579 94.268845558166504 52.38631147146225 6.4209273606538764 4.932602524757387 45.891708716750145 44.893975913524628 10.808985099196432 4.9297458827495566 45.758696407079697 70.210430309176445 17.118245795369148 88.231498971581459 38.770498782396317 10.665405526757239 4.4611110985279083 7.7165182232856742 3.762877643108367 172.21927277743816 20.590866938233376
leaf_count=110 7850 30 367 965 195 364 32 50 144 608 133 463 329 37 29 278 262 63 30 278 421 99 493 201 63 26 44 24 879 105
internal_value=0 0.0707961 0.119087 0.0273581 0.14531 0.0502993 0.0670024 0.0155658 0.0842811 0.160156 -0.0172468 0.140882 0.0137154 0.0701224 0.0401399 0.0250526 0.0728132 0.141097 -0.00346147 -0.00134971 0.016777 0.0617535 0.0701953 0.132776 0.0977972 0.178734 0.092091 0.101943 0.121682 0.165747
internal_weight=0 1274.19 603.389 670.806 481.439 442.974 76.7294 121.95 229.655 404.71 227.832 271.779 213.32 44.9642 38.5433 73.0038 64.1739 19.2799 50.8215 168.355 115.969 179.906 162.788 44.9156 20.0591 9.39371 99.7109 91.9944 177.51 49.7489
internal_count=14972 7122 3150 3972 2408 2566 428 742 1273 1980 1406 1372 1293 265 228 441 375 113 308 1028 699 1024 925 233 118 55 561 517 909 249
is_linear=0
shrinkage=0.1


Tree=6
num_leaves=31
num_cat=0
split_feature=4 20 20 4 20 21 4 21 21 22 22 23 22 9 4 20 20 22 22 20 21 24 21 4 21 25 22 4 4 25
split_gain=35.7393 81.9332 70.7603 45.1714 61.7815 40.585 26.3257 18.753 16.7579 15.3622 14.8006 14.3191 13.304 11.778 11.3358 58.6673 28.8498 56.2956 41.7057 34.7684 33.648 31.7886 22.5034 18.2575 17.6714 17.4807 16.9085 15.3511 11.3489 11.2092
threshold=-0.10874999999999999 0.99930179767902882 1.0000181904172887 0.14385000000000003 0.99996315469500063 1.0013907026908642 -1.0000000180025095e-35 0.99926903741940432 0.99921408718560689 1.0001483257739496 0.99885868417776591 1.001120973056395 1.0006852133354149 -0.53499999999999992 0.04105000000000001 0.99996315469500063 1.0000430479305391 0.99996252365661276 0.99994980167111736 0.99996315469500063 0.99998179236007456 0.99947214625918146 0.99996194388938819 -0.045449999999999997 0.99998179236007456 1.0005387309326321 1.0008484481774278 -0.019949999999999999 0.0099500000000000022 0.99834790087722636
decision_type=2 2 2 2 2 2 2 2 2 2 2 2 2 2 2 2 2 2 2 2 2 2 2 2 2 2 2 2 2 2
left_child=2 6 8 5 10 14 7 -2 13 -4 -5 -7 -8 -1 16 24 18 21 19 22 -19 28 23 29 -16 -20 -17 -22 -18 -3
right_child=1 3 9 4 -6 11 12 -9 -10 -11 -12 -13 -14 -15 15 26 17 20 25 -21 27 -23 -24 -25 -26 -27 -28 -29 -30 -31
leaf_value=0.039002883348921137 -0.038766845619258562 -0.039618346204853605 0.010061154964953105 -0.11367756792750093 0.043842587834983598 -0.00083667045842170616 -0.084621264620751452 0.024622352532900821 0.056771278513143168 -0.075747870908997095 -0.0078813790180600699 -0.042407625932649656 0.0084272313831796012 0.0036216499417906531 -0.052079898188074292 0.04607856639013376 -0.029173755945811831 0.055071446346494739 0.059475845303152412 0.065725081941141253 -0.072257710183962764 0.06716167981582917 0.050621579317135561 -0.03542634745629801 0.028503482272451419 0.014530455776549329 0.0031937254936361594 -0.031761498136348751 0.034788191639339709 0.027719817266214686
leaf_weight=196.52965827286243 206.64024287462234 33.822003483772278 28.30231274664402 31.63587498664856 420.12939900159836 113.59196311235428 149.8221693187952 60.285856395959854 220.47399853169918 79.379181906580925 22.719676464796066 306.24654081463814 17.122207701206207 180.49740040302277 134.78354555368423 312.54507006704807 87.168947324156761 36.41881737112999 175.41413410007954 58.662484973669052 139.54844823479652 96.716697812080383 46.26918238401413 317.77430239319801 34.097706466913223 170.78598780930042 130.25469750165939 284.33684849739075 40.689031988382339 91.85887199640274
leaf_count=748 679 117 97 94 1622 388 462 223 850 241 76 1000 60 664 417 1216 304 143 694 237 429 375 182 1027 127 622 469 934 146 329
internal_value=0 -0.00324148 0.0214235 0.00248014 0.0308634 -0.00267784 -0.0439308 -0.0244503 0.0348711 -0.0531944 -0.0694566 -0.0311601 -0.075078 0.0220645 0.00277956 0.0143376 -0.00169652 -0.0171427 0.0101288 -0.00702684 -0.0371684 0.0239034 -0.0157416 -0.0226657 -0.0358098 0.0373036 0.0334635 -0.0450934 -0.00881875 0.00959843
internal_weight=0 3519.34 705.183 3085.47 474.485 2610.99 433.87 266.926 597.501 107.681 54.3556 419.839 166.944 377.027 2191.15 611.681 1579.47 684.879 894.587 548.387 460.304 224.575 489.724 443.455 168.881 346.2 442.8 423.885 127.858 125.681
internal_count=14972 12372 2600 10948 1792 9156 1424 902 2262 338 170 1388 522 1412 7768 2229 5539 2331 3208 1892 1506 825 1655 1473 544 1316 1685 1363 450 446
is_linear=0
shrinkage=0.1


Tree=7
num_leaves=31
num_cat=0
split_feature=20 4 22 21 25 21 4 17 24 23 25 4 16 22 4 25 4 42 20 20 39 17 21 34 24 9 9 38 9 9
split_gain=1039.83 200.01 99.5131 55.1145 53.8977 44.1666 31.6577 25.3509 16.6627 16.5374 16.2133 14.8637 14.4213 15.3392 14.3989 13.6044 16.8075 16.0769 13.5831 10.5574 11.1425 10.4864 9.97667 9.44274 9.41901 9.17383 9.09857 14.1973 8.4689 9.73979
threshold=1.0000181904172887 0.039350000000000003 1.0000501417084358 1.0000175125214532 0.9994712891087475 1.0004207846693787 0.14385000000000003 9652425.0000000019 0.99276304946686633 1.0001051856529681 1.0006647767743415 0.015150000000000002 244.50000000000003 1.0000501417084358 -0.019949999999999999 1.005860725905882 0.32475000000000004 120.33029150955757 1.0014381499053913 1.0004875035283292 2456.4000000000005 12314144.000000002 1.0010596301355539 0.61673626018919092 0.99944808195984991 0.76500000000000012 0.53500000000000014 9.7178939441446435 0.38500000000000006 0.30500000000000005
decision_type=2 2 2 2 2 2 2 2 2 2 2 2 2 2 2 2 2 2 2 2 2 2 2 2 2 2 2 2 2 2
left_child=-1 2 4 -4 11 8 7 12 -3 10 -5 -2 -7 -14 22 28 17 -17 25 -16 26 -9 -11 -6 -10 -15 -21 -28 29 -8
right_child=1 5 3 9 23 6 15 21 24 14 -12 -13 13 18 19 16 -18 -19 -20 20 -22 -23 -24 -25 -26 -27 27 -29 -30 -31
leaf_value=-0.073180773065805685 0.095339913891785838 0.13659126475308625 -0.019781890836240091 0.10179680283942785 0.13065611084762344 -0.018754436115741915 0.00038073399080346728 0.23400211711362881 -0.0030337638600877693 0.17952365131922751 -0.020142237131512034 0.0072733862911980671 -0.026176341945324217 0.060581604068112471 0.094015641926043184 0.18080974002460862 -0.015134747630098444 -0.02167330326576386 0.12566839767665192 0.16811669766511744 0.048134627671279559 0.10464758629369575 0.13349795730938621 -0.040198128589139993 -0.04649790550096955 -0.029030517873846636 0.17057003396067835 0.015389021843008881 -0.024655317345650126 0.11514480735259372
leaf_weight=1097.4235518276691 86.919208154082298 6.4990456849336615 28.321315944194794 62.230610713362694 3.3827815651893607 29.411936312913895 28.797032654285431 9.2466279715299624 93.919202789664268 75.07977195084095 13.220521509647368 24.585815742611885 20.246643140912056 134.01291663944721 122.49302263557911 13.61238442361355 16.562652736902237 5.5078687816858283 31.140590131282806 67.600621461868286 12.321634560823439 19.448526903986931 126.35801051557064 73.942558243870735 106.27983346581459 12.488561600446699 12.271738678216936 11.346834987401961 107.83669488132 9.9501675814390165
leaf_count=7625 432 35 178 286 21 176 180 47 610 307 63 133 130 757 554 83 107 34 154 300 55 94 515 489 679 72 54 51 688 63
internal_value=0 0.0575588 0.0937858 0.115949 0.031432 0.0171128 0.0350842 0.0577624 -0.020992 0.123593 0.0804307 0.0759221 0.0465813 0.0562921 0.131211 0.00323225 0.0586053 0.122482 0.0656914 0.113885 0.137392 0.14633 0.150653 -0.0327237 -0.0261076 0.0529426 0.149449 0.096018 -0.0102472 0.0298518
internal_weight=0 1365.04 720.074 531.244 188.83 644.961 438.263 255.996 206.698 502.923 75.4511 111.505 227.301 197.889 427.472 182.267 35.6829 19.1203 177.642 226.034 103.541 28.6952 201.438 77.3253 200.199 146.501 91.2192 23.6186 146.584 38.7472
internal_count=14972 7347 3438 2363 1075 3909 2585 1430 1324 2185 349 565 1289 1113 1836 1155 224 117 983 1014 460 141 822 510 1289 829 405 105 931 243
is_linear=0
shrinkage=0.1


Tree=8
num_leaves=31
num_cat=0
split_feature=20 4 21 22 25 22 25 4 4 6 25 9 20 5 35 33 21 26 22 38 28 5 13 13 23 24 18 9 4 40
split_gain=1128.6 177.161 114.034 46.3509 37.4093 36.2924 39.7262 31.2193 19.0473 18.1939 17.1258 14.7843 14.4163 13.7898 13.177 11.4827 12.0036 10.6813 10.6665 9.80029 9.69535 16.8205 9.61372 9.8683 9.4382 35.5841 10.7906 9.74783 13.1854 9.04164
threshold=0.99996315469500063 -0.045449999999999997 0.99998179236007456 0.99935552129956473 1.0003683919877264 0.99996252365661276 1.000063008737849 -0.13444999999999999 0.0099500000000000022 7740.5000000000009 0.99796279746960448 -0.53499999999999992 0.99705920754315913 40.500000000000007 2646.1000000000004 1928.5909090909092 0.99908819292092466 1.0006147069298159 0.99974754381155606 21.365783041097604 1.002102090456078 141.50000000000003 7568574.0000000009 6537233.0000000009 1.0001051856529681 1.0006589786131495 2647.1500000000001 -0.39499999999999996 0.12395000000000002 2752.7000000000003
decision_type=2 2 2 2 2 2 2 2 2 2 2 2 2 2 2 2 2 2 2 2 2 2 2 2 2 2 2 2 2 2
left_child=1 3 5 7 -4 8 -7 11 10 15 14 -1 -13 -10 19 16 -9 18 -5 -3 29 -22 23 -11 27 -26 -27 -15 -29 -17
right_child=-2 2 4 17 -6 6 -8 9 13 22 -12 12 -14 24 -16 20 -18 -19 -20 -21 21 -23 -24 -25 25 26 -28 28 -30 -31
leaf_value=-0.0084760712149126866 -0.074398017518400208 0.15146323759980407 -0.05144995288519686 0.011969492768584306 0.055724745213235553 -0.039106412689641726 0.10288329939107105 0.25284983147275614 -0.054305517481430393 0.13382842803735381 0.086889091628166604 0.10513874868237082 0.019896458587207344 0.20567366834915829 0.29390157242525705 0.0097851713805746938 0.041359041737096362 0.010171529939716026 -0.049806679954620882 0.044258187375289193 0.31287160243596429 0.047480966850068154 0.088219152071083759 0.28282141662814753 -0.031167697995844929 0.21515484625380035 0.05585488813723536 0.12770137966512796 0.18482241105398245 0.069959047423687915
leaf_weight=103.82619665563107 1132.2708399519324 50.084939077496529 55.436583742499352 40.458302959799767 78.95090925693512 30.021757930517197 57.336664542555809 5.7319302111864072 3.5158829540014258 15.16923636198044 172.72337153553963 28.850187703967094 63.527593046426773 30.057154759764671 5.5743842571973792 56.88478647172451 5.046309769153595 124.94620233774185 90.404083520174026 10.276944145560263 3.5861994773149473 7.1489485949277878 27.553178340196609 6.2881648689508429 13.44832807779312 16.702837079763416 5.7044227570295325 137.50825570523739 57.230182453989983 44.508722215890884
leaf_count=652 7850 221 379 235 448 191 279 30 15 64 798 153 391 124 24 307 28 763 599 45 20 38 121 27 57 68 23 566 219 237
internal_value=0 0.0610155 0.09465 0.0219556 0.0115138 0.11358 0.0540869 0.0446764 0.123917 0.0757871 0.10344 0.0174166 0.0465182 0.142416 0.146796 0.0552443 0.153831 -0.0107407 -0.0307075 0.133211 0.0457677 0.136138 0.127304 0.177491 0.14507 0.0974231 0.1746 0.152669 0.144488 0.0361997
internal_weight=0 1348.5 724.573 623.93 134.387 590.185 87.3584 368.121 502.827 171.917 238.66 196.204 92.3778 264.167 65.9363 122.907 10.7782 255.809 130.862 60.3619 112.129 10.7351 49.0106 21.4574 260.651 35.8556 22.4073 224.796 194.738 101.394
internal_count=14972 7122 3457 3665 827 2630 470 2068 2160 872 1088 1196 544 1072 290 660 58 1597 834 266 602 58 212 91 1057 148 91 909 785 544
is_linear=0
shrinkage=0.1


Tree=9
num_leaves=31
num_cat=0
split_feature=4 20 20 4 20 21 22 25 22 4 4 20 25 22 16 22 24 25 4 20 20 22 20 4 20 22 21 4 21 25
split_gain=28.0156 62.5625 55.579 35.9428 47.9093 29.8783 18.8501 16.3242 15.1559 15.0873 12.6225 15.6274 11.5349 11.2783 11.2384 10.4941 9.92198 10.1434 9.42818 9.89315 9.02253 24.2741 41.0433 34.5739 27.2318 21.9045 19.8243 18.8242 17.25 16.6311
threshold=-0.10874999999999999 0.99930179767902882 1.0000181904172887 0.14385000000000003 0.99996315469500063 1.0013907026908642 0.9998839772588487 1.0002270105394715 0.99896204540152678 -0.021599999999999998 0.077850000000000016 1.0000521743670534 1.0063418106942372 1.0001483257739496 4387.5000000000009 0.99885868417776591 0.99227141509726302 1.005860725905882 -0.26324999999999993 0.99740688209429218 0.99972966186722145 1.0003940500346888 1.0000181904172887 0.032550000000000003 0.99996203925119531 1.0000751639959835 0.99998179236007456 0.010650000000000001 0.99996194388938819 0.99953498263863705
decision_type=2 2 2 2 2 2 2 2 2 2 2 2 2 2 2 2 2 2 2 2 2 2 2 2 2 2 2 2 2 2
left_child=2 6 8 5 15 20 9 -8 18 14 11 -7 -12 -4 -2 -5 -6 -18 -1 -20 25 24 -23 26 28 27 -24 -3 -22 -26
right_child=1 3 13 4 16 10 7 -9 -10 -11 12 -13 -14 -15 -16 -17 17 -19 19 -21 21 22 23 -25 29 -27 -28 -29 -30 -31
leaf_value=0.039294003859614957 -0.0073298748283044703 -0.0067625807344010736 0.0094395574701670384 -0.093599666887737909 -0.068238641360933036 0.04405986303295012 0.070237408611495147 -0.025037842354196062 0.050283727597074647 -0.068381386276490944 0.014740473167448224 -0.042256974068644947 -0.084555905804100676 -0.063891359948066606 -0.057251430681782914 -0.0057503228424631882 0.049606545404270945 0.0048895945271942888 -0.05307667538471128 0.012846954977341771 -0.016823346586328555 0.041414009719071332 0.064975914025723863 0.010629138482755337 0.011291303915612156 0.028272769482834883 -0.046704542062093055 -0.057461021283052041 0.041569690945520855 0.042521400485425076
leaf_weight=123.96832425892353 111.21975582838058 241.78459113836288 28.098841324448586 33.466480821371078 8.2137954086065275 22.572632864117622 26.535380572080612 55.799250662326813 254.34269714355469 175.64167310297489 98.335076436400414 296.29711762070656 13.278692737221716 82.707437425851822 75.84779292345047 22.903702512383461 333.74418063461781 59.819423943758011 26.218742102384567 172.77221417427063 292.82074822485447 132.04404492676258 16.744407430291176 213.2845421731472 329.71987307071686 114.8155757188797 313.10247692465782 105.05872885882854 61.155953153967857 353.16298654675484
leaf_count=488 373 825 97 94 29 83 105 199 1024 515 345 918 42 241 232 76 1357 236 89 661 955 516 71 799 1241 442 948 318 251 1402
internal_value=0 -0.00249382 0.0195746 0.00259763 0.0284269 -0.00194646 -0.0375279 0.00566813 0.0320257 -0.0473334 -0.0260158 -0.0361466 0.00292718 -0.0452957 -0.0275709 -0.0579057 0.0405396 0.0428098 0.0176468 0.00416096 0.00282028 0.00616584 -0.00859009 -0.0207469 0.0157745 -0.00958655 -0.0410352 -0.0221191 -0.00673488 0.0274424
internal_weight=0 3507.37 688.108 3062.33 458.148 2604.18 445.044 82.3346 577.302 362.709 430.484 318.87 111.614 110.806 187.068 56.3702 401.777 393.564 322.959 198.991 2173.69 1712.04 675.175 543.131 1036.86 461.659 329.847 346.843 353.977 682.883
internal_count=14972 12372 2600 10948 1792 9156 1424 304 2262 1120 1388 1001 387 338 605 170 1622 1593 1238 750 7768 6183 2334 1818 3849 1585 1019 1143 1206 2643
is_linear=0
shrinkage=0.1


Tree=10
num_leaves=31
num_cat=0
split_feature=20 4 21 25 22 4 22 24 15 24 21 11 4 23 25 4 20 25 24 4 36 38 17 38 9 30 35 34 36 38
split_gain=901.181 136.787 67.7769 37.2288 36 34.4709 32.5186 36.049 18.6931 14.2372 15.985 13.8993 13.7948 12.6824 15.1985 12.2143 10.6118 10.0629 9.75525 9.71906 9.05728 11.0771 8.99825 10.0177 11.0254 9.13458 8.97975 9.16292 8.74036 11.3014
threshold=1.0000181904172887 0.039350000000000003 0.99995008005382624 0.99922624857400155 1.0015283227292027 0.19635000000000002 0.99996252365661276 0.99956133334095931 167.50000000000003 0.99348887141373787 1.0004353399490629 56.500000000000007 0.077850000000000016 1.0001051856529681 1.0010173292757081 0.13795000000000004 1.0006088782059441 0.99698291628405167 0.99944808195984991 -0.019949999999999999 2336.0000000000005 12.754042728420748 2294326.5000000005 13.368247621281286 0.095000000000000015 0.99958644025948151 2652.5500000000006 2.5627932199190506 2440.6500000000005 4.6258926712391739
decision_type=2 2 2 2 2 2 2 2 2 2 2 2 2 2 2 2 2 2 2 2 2 2 2 2 2 2 2 2 2 2
left_child=-1 2 3 11 9 8 7 -4 12 -3 18 -2 16 14 28 22 -6 -13 26 -15 -18 -22 -12 24 -24 -26 27 -11 29 -8
right_child=1 4 6 -5 5 -7 13 -9 -10 10 15 17 -14 19 -16 -17 20 -19 -20 -21 21 -23 23 -25 25 -27 -28 -29 -30 -31
leaf_value=-0.072414542003828561 0.14465883578341285 0.11338017794793083 0.081931613972620082 -0.060212358551655146 0.033288946358994306 -0.0040576675701856973 0.0058656653937059081 -0.048035180971627123 0.1383592001461684 0.039080649864357886 0.01034445273264074 0.085633376356852531 0.030997241093376895 0.12098053058139076 -0.050712103044437046 -0.022330099219762343 0.050432645428361594 -0.012190717323019774 -0.04873373108049589 0.092593223719725601 0.23525854318750131 0.09089430422061133 0.0095352016158068882 0.014439902968956747 0.23330692229269029 0.09395175399228492 0.082912550793632189 -0.036091880892515665 0.047444178603810137 0.13854677118739536
leaf_weight=1023.6991888657212 14.252775788307188 10.384711936116217 60.378195822238922 48.270942106842995 16.008017614483833 88.253796309232712 7.9783643186092368 33.00940029323101 34.950063228607178 22.766480043530464 82.721140384674072 18.698411658406258 81.368349090218544 229.92959500849247 10.009353443980215 62.278272822499275 9.1364715248346346 24.028808787465096 95.246132001280785 253.66729052364826 11.641958668828012 9.7801048010587674 9.1700679808855075 23.926778227090836 7.0945576876401928 13.957869067788122 10.759026378393171 56.346748352050781 41.454028949141502 32.86046776175499
leaf_count=7625 70 55 294 342 81 577 36 224 161 152 494 92 441 839 48 410 43 126 647 1046 51 42 52 136 42 77 72 376 182 139
internal_value=0 0.0506629 0.0789999 0.00440435 0.0166767 0.0462742 0.0907306 0.0359927 0.0735448 -0.00215788 -0.00528027 0.0591448 0.0558385 0.0996069 0.0656395 0.0143839 0.0992449 0.0306193 -0.0264348 0.10609 0.133796 0.16935 0.0310894 0.0627804 0.101051 0.140914 -0.00280257 -0.0144594 0.0797914 0.112626
internal_weight=0 1420.33 774.538 105.251 645.791 251.139 669.287 93.3876 162.885 394.652 384.267 56.98 127.935 575.899 92.3022 199.149 46.5666 42.7272 185.118 483.597 30.5585 21.4221 136.87 54.1493 30.2225 21.0524 89.8723 79.1132 82.2929 40.8388
internal_count=14972 7347 3438 630 3909 1396 2808 518 819 2513 2458 288 658 2290 405 1211 217 218 1247 1885 136 93 801 307 171 119 600 528 357 175
is_linear=0
shrinkage=0.1


Tree=11
num_leaves=31
num_cat=0
split_feature=20 4 21 22 24 22 25 4 12 4 21 15 20 4 22 4 13 27 36 16 21 38 34 7 25 30 22 16 29 34
split_gain=970.132 118.89 74.1146 36.459 31.6689 23.2633 26.4729 22.7437 19.3787 14.2576 13.8371 12.8622 11.9085 11.2628 11.1738 10.3634 14.0499 11.228 10.1345 9.92263 9.42001 9.26641 9.19199 13.6707 9.07687 8.94982 8.86067 8.3904 8.31144 10.0922
threshold=0.99996315469500063 -0.045449999999999997 0.99998179236007456 0.99935552129956473 1.0005420783701731 1.0001204263095711 1.0002052123969893 -0.26324999999999993 745.50000000000011 0.010650000000000001 0.99480949444290923 337.50000000000006 0.99766127628611512 -0.087949999999999987 1.0009258350078951 -0.056649999999999992 1239503.0000000002 1.0011323687366296 2430.5500000000006 8127.0000000000009 1.0000175125214532 12.754042728420748 1.6553219898978304 2283736.5000000005 1.0011649052867775 0.99936556572723323 0.9998839772588487 1498.5000000000002 1.002996749571089 2.6204267268778381
decision_type=2 2 2 2 2 2 2 2 2 2 2 2 2 2 2 2 2 2 2 2 2 2 2 2 2 2 2 2 2 2
left_child=1 3 5 7 -4 9 -7 10 13 11 -1 -3 19 -9 28 17 -17 26 -18 -10 -14 -21 -15 -24 -16 -20 -5 -25 29 -6
right_child=-2 2 4 15 14 6 -8 8 12 -11 -12 -13 20 22 24 16 18 -19 25 21 -22 -23 23 27 -26 -27 -28 -29 -30 -31
leaf_value=0.066093457884744675 -0.073680440880603701 0.079637511066811301 -0.044874338094340827 -0.0014375254759950427 0.08298663453984724 -0.052611623942545996 0.079829146966625047 -0.013611087604136743 0.22347871255766819 0.11556598578065712 -0.029216805960814454 0.18502394234436284 0.063519258835604345 -0.012991797802176634 -0.066014932906721155 -0.038632007202106182 -0.0028503852854234249 0.0092536143929423022 0.2965933146336312 0.16400279972277651 -0.07608652062449045 0.038694191485351553 0.26588584465663445 -0.014048106533225519 0.044456414073525401 0.10169937581281432 -0.056667438986533238 0.13159668054470869 -0.0015865200998947662 0.22040792677293589
leaf_weight=20.13861557841301 1052.3998374715447 273.71933691203594 57.058504372835159 46.4490827023983 17.437101945281036 21.745121777057648 49.330933690071106 55.323781087994576 7.867640525102618 290.0871484130621 62.523844867944717 12.092623755335806 173.46732686460018 10.633675068616869 9.380212336778639 10.811057195067407 5.426428526639941 98.471178069710732 3.4829694777727109 10.567555472254755 4.971841260790824 13.364675775170324 4.0600613802671459 7.7594001889228812 35.915276661515236 7.2835635393857956 77.539290249347687 8.0683205127716047 6.521483600139617 7.705814763903617
leaf_count=111 7850 1168 403 276 98 141 218 328 37 1058 406 45 885 56 56 70 33 612 21 48 31 63 21 41 193 44 541 41 35 42
internal_value=0 0.0532154 0.0792658 0.0208294 0.0115812 0.0932864 0.03931 0.0403808 0.0533288 0.099948 -0.00599687 0.0840964 0.0696765 0.0132926 0.0534376 -0.00885448 0.0496459 -0.0159558 0.108584 0.126054 0.0596294 0.0940257 0.0620587 0.102187 0.021579 0.164747 -0.035977 0.0601956 0.099011 0.125104
internal_weight=0 1409.2 780.994 628.21 134.018 646.975 71.0761 378.747 296.084 575.899 82.6625 285.812 210.239 85.8452 76.9599 249.464 27.004 222.46 16.193 31.7999 178.439 23.9322 30.5215 19.8878 45.2955 10.7665 123.988 15.8277 31.6644 25.1429
internal_count=14972 7122 3457 3665 827 2630 359 2068 1551 2271 517 1213 1064 487 424 1597 168 1429 98 148 916 111 159 103 249 65 817 82 175 140
is_linear=0
shrinkage=0.1


Tree=12
num_leaves=31
num_cat=0
split_feature=4 21 20 4 20 21 23 22 13 9 23 27 20 15 4 20 4 20 4 22 20 4 21 20 25 22 4 22 25 4
split_gain=22.3964 46.8232 40.7445 40.3454 28.3808 20.3033 11.5548 11.0088 10.5823 9.95256 9.53609 8.44432 8.41515 9.10505 11.8974 8.28277 8.61058 8.01274 27.8801 19.4963 36.6331 26.1154 16.1103 15.3093 15.7493 22.4603 15.2379 13.6931 13.9696 12.0199
threshold=-0.13444999999999999 0.9984980048607619 1.000037926195678 0.14805000000000004 0.99996315469500063 1.0013907026908642 1.0004982195621972 0.99742732343404017 3763859.0000000005 -0.55499999999999994 1.0002206151415352 0.99508513091747763 0.99996315469500063 400.50000000000006 0.38400000000000006 1.0000392441685413 0.077850000000000016 0.99972966186722145 1.0000000180025095e-35 1.0003940500346888 1.0000181904172887 0.032550000000000003 0.99998179236007456 0.99996203925119531 0.99953498263863705 0.99995915112021438 -0.020449999999999999 0.99968918350548541 1.0002526796433828 0.015150000000000002
decision_type=2 2 2 2 2 2 2 2 2 2 2 2 2 2 2 2 2 2 2 2 2 2 2 2 2 2 2 2 2 2
left_child=2 4 7 5 8 17 -7 9 10 -1 -2 -6 -5 -14 -15 -8 -17 18 27 23 -21 22 -22 26 29 -26 -19 -3 -29 -25
right_child=1 3 -4 12 11 6 15 -9 -10 -11 -12 -13 13 14 -16 16 -18 19 -20 20 21 -23 -24 24 25 -27 -28 28 -30 -31
leaf_value=0.040295041877728442 -0.02721856451303821 -0.0093968687959086437 -0.04461864454960715 -0.01583324697091152 -0.013833612790554561 0.012791585721767494 0.025817746308843471 0.043706421669637008 -0.052430426450809801 -0.010709640729379405 0.058593430828313413 0.070707453120811989 0.042798594681412963 -0.080740835059829319 0.045230554820520831 -0.040779993107683786 -0.0041173889580132699 0.026407633071110936 -0.042075087752740457 0.040746945001274661 0.062762409919611586 0.0095595605291332441 -0.039580166514841947 -0.012825010095782519 0.06470235705422607 0.013037803550604946 -0.017480535574537732 0.057200792177684603 0.0034381661092443283 0.026478413344178494
leaf_weight=66.325360506772995 139.83965456485748 266.41624128818512 81.38893660902977 31.87113019824028 18.776142135262489 85.40141424536705 26.6518684476614 293.17947885394096 256.33617383241653 90.402875259518623 14.271807655692099 31.867476642131805 319.22893677651882 14.316871434450151 15.739860862493513 267.57694673538208 84.223542511463165 122.49399086833 167.66983798146248 131.38332845270634 16.129701316356659 214.18674530088902 331.48612266778946 147.29925484955311 169.92391318082809 166.68913769721985 223.36406926810741 81.182195350527763 119.43489092588425 164.9407052397728
leaf_count=272 430 907 241 102 72 292 104 1232 741 337 48 135 1357 54 66 794 287 456 536 537 73 815 974 520 758 639 731 341 452 669
internal_value=0 -0.00149228 0.0204909 0.00284166 -0.0312656 -0.00133238 -0.0204333 0.0322693 -0.0399803 0.0108749 -0.0192718 0.0393638 0.0333561 0.0378444 -0.0147732 -0.0279308 -0.0320027 0.00248232 -0.00709604 0.00608408 -0.00679029 -0.0179074 -0.0348314 0.0150559 0.0241133 0.0391183 -0.00193648 0.0054618 0.0251939 0.00793702
internal_weight=0 3628.7 531.297 3167.61 461.091 2786.45 463.854 449.908 410.448 156.728 154.111 50.6436 381.157 349.286 30.0567 378.452 351.8 2322.6 634.703 1687.9 693.186 561.803 347.616 994.711 648.853 336.613 345.858 467.033 200.617 312.24
internal_count=14972 12890 2082 11464 1426 9885 1477 1841 1219 609 478 207 1579 1477 120 1185 1081 8408 2236 6172 2399 1862 1047 3773 2586 1397 1187 1700 793 1189
is_linear=0
shrinkage=0.1


Tree=13
num_leaves=31
num_cat=0
split_feature=20 4 21 25 21 22 24 4 17 23 24 9 11 28 23 25 22 4 5 24 4 25 28 30 9 27 21 38 38 24
split_gain=786.596 97.0094 47.3077 31.9057 29.644 20.9075 29.3979 17.6725 24.4125 16.7616 12.7869 12.3905 10.3041 9.21887 8.44287 12.4141 8.39373 10.2846 13.5657 8.25135 10.2482 8.14135 8.37777 7.97203 9.14175 14.9695 9.09748 8.55361 7.88238 7.77486
threshold=1.0000181904172887 0.039350000000000003 0.99995008005382624 0.99922624857400155 1.0002913693192508 0.99996252365661276 0.99956133334095931 0.21995000000000003 9175626.5000000019 1.0006203116378478 0.99944808195984991 0.74500000000000011 56.500000000000007 0.99975007991806653 1.0001051856529681 1.0010173292757081 0.99893795226911719 -0.019449999999999999 210.50000000000003 1.0060626420722649 0.32475000000000004 0.99681948420992827 0.99414831296115136 1.0015010825126776 0.20500000000000004 1.0003152419795234 1.0024175502639114 9.4848015023688532 5.6386779323250193 0.99276304946686633
decision_type=2 2 2 2 2 2 2 2 2 2 2 2 2 2 2 2 2 2 2 2 2 2 2 2 2 2 2 2 2 2
left_child=-1 2 3 12 10 6 16 8 9 -6 29 23 -2 -13 15 -7 -4 28 -19 -9 -21 22 -14 24 25 -11 -26 -25 -18 -3
right_child=1 4 5 -5 7 14 -8 19 -10 11 -12 13 21 -15 -16 -17 17 18 -20 20 -22 -23 -24 27 26 -27 -28 -29 -30 -31
leaf_value=-0.07169213601384318 0.12283663083805552 0.10313217462968896 0.019888487090294411 -0.058525854987283202 -0.003925782025807698 0.068673005773056836 -0.046013287321348711 -0.02483819335262677 0.1010440428892852 0.17061190905281468 -0.049222588642056392 0.1213117281444671 -0.0091415641299674704 -0.023457683746676693 0.088791815406197405 -0.049910616519928945 0.2732106504627595 0.012194630232683468 0.18563354086996778 0.1233263098458387 -0.0091965177883079688 -0.0096874137312858329 0.1287695882170537 0.11939751012572777 -0.002134793876888572 -0.019435678334176972 0.090069100384500306 0.05467132140093376 0.1181250049151891 -0.0030097827537711877
leaf_weight=954.10694912075996 15.631847769021986 7.5354310572147361 20.607365980744362 45.017270982265472 107.64634031057358 87.193049997091293 31.286651976406574 75.848447486758232 53.826727703213692 10.809509396553041 79.282908916473389 5.0213377475738517 7.0035483837127712 35.473691076040268 521.93261240422726 9.82256370782852 4.2401103377342251 18.39656421542168 5.9742510318756095 9.479766398668291 15.178565725684164 24.632483616471291 11.871053338050841 30.564503535628319 52.837926208972931 6.7219126671552649 13.4185374379158 61.49526435136795 14.432576104998587 81.980366811156273
leaf_count=7625 70 34 93 342 666 357 224 520 250 57 569 29 34 210 1885 48 21 90 27 55 102 130 54 154 297 36 66 308 63 556
internal_value=0 0.0449825 0.0678685 0.00491062 0.0160519 0.0770541 0.0333577 0.0287664 0.0386803 0.0283193 -0.0199771 0.0443637 0.0531992 -0.00550644 0.0837564 0.0566667 0.0723714 0.0974979 0.0547114 -0.00850116 0.0417512 0.0281789 0.0775967 0.055848 0.0335297 0.0977437 0.0165387 0.0761609 0.153341 0.00592524
internal_weight=0 1465.16 818.042 104.156 647.121 713.886 94.9375 478.323 377.816 323.989 168.799 216.343 59.1389 40.495 618.948 97.0156 63.6509 43.0435 24.3708 100.507 24.6583 43.5071 18.8746 175.848 83.7879 17.5314 66.2565 92.0598 18.6727 89.5158
internal_count=14972 7347 3438 630 3909 2808 518 2750 2073 1823 1159 1157 288 239 2290 405 294 201 117 677 157 218 88 918 456 93 363 462 84 590
is_linear=0
shrinkage=0.1


Tree=14
num_leaves=31
num_cat=0
split_feature=20 4 22 21 21 4 25 24 12 4 11 23 24 22 21 23 25 38 16 4 25 11 11 27 20 32 24 20 31 22
split_gain=842.697 84.9715 40.7091 35.531 26.6944 23.5116 22.6015 21.6087 17.4691 14.9539 13.2185 12.1135 47.4721 15.5334 10.7466 10.4814 10.8365 11.0979 9.5769 11.1286 9.40686 9.09986 9.97554 9.76533 10.6655 9.09446 9.28115 10.433 10.2478 9.25954
threshold=0.99996315469500063 -0.015649999999999994 0.9999220284960445 1.0001005201935806 1.0000175125214532 -0.09354999999999998 1.00044107033193 1.0008704223279847 763.50000000000011 -0.26324999999999993 37.500000000000007 0.99998180627319722 1.000261396976504 1.0000501417084358 0.99480949444290923 1.0000402974034279 1.0008432736014938 9.565231413480868 10201.500000000002 -0.23244999999999996 0.99673858084545175 92.500000000000014 207.50000000000003 0.9977951336713754 0.99785324307313461 2464.9500000000003 0.99837717516155167 0.99852803560485193 2516.9000000000005 0.999457185501753
decision_type=2 2 2 2 2 2 2 2 2 2 2 2 2 2 2 2 2 2 2 2 2 2 2 2 2 2 2 2 2 2
left_child=1 2 4 11 5 8 -4 -5 -1 14 -7 13 -13 -3 -10 25 -17 -18 -8 -20 21 -11 23 24 -23 -12 28 -28 -27 -29
right_child=-2 3 6 7 -6 10 18 -9 9 20 15 12 -14 -15 -16 16 17 -19 19 -21 -22 22 -24 -25 -26 26 27 29 -30 -31
leaf_value=-0.018958967615938335 -0.073030525168062174 0.096265026921980495 -0.052303179977929541 -0.04653718604207277 -0.062935874499253433 0.019291883132172519 0.0054952212441532191 0.059713273553768237 0.061806359965376229 -0.0032438555669619621 0.10528674262402465 -0.040851780130167416 0.091524790594353422 -0.012233997981301717 -0.023025105895045094 -0.045115711995440254 0.21001940129362234 0.019803842016870011 -0.006387004483490233 0.1815796385798033 0.036432315608530434 0.25091754977763364 0.062806386595706601 0.29530489619735523 0.077039111363022883 0.0086138477385548171 0.16786552607851923 -0.002791446730355065 0.12062295006028759 0.090601051535030938
leaf_weight=71.490445822477341 978.12242960184813 389.96388973295689 82.34152913838625 35.230510354042053 24.518129788339138 52.879732444882393 125.70592665672302 41.912914171814919 20.692138269543648 9.3504089713096601 94.808893755078316 35.916753977537155 110.2390316799283 13.657313011586664 53.658130586147308 13.920043930411341 4.4441439658403388 9.8999878317117673 5.7507307380437851 6.9642106890678388 100.20633968710899 4.7861321717500749 26.279228270053864 4.0008899867534629 13.416741028428076 10.505683988332747 5.4596683531999579 38.833087578415871 36.710499078035355 14.610230058431624
leaf_count=443 7850 1372 616 247 167 251 772 219 111 51 395 172 443 81 361 67 20 47 36 41 529 21 122 21 70 41 20 171 144 71
internal_value=0 0.0469472 0.0259829 0.0747437 0.039291 0.0435685 -0.0108176 0.0111899 0.0242693 0.0375677 0.0643598 0.0836615 0.0589942 0.0925938 0.000584014 0.0747579 0.0177398 0.078737 0.0138607 0.0965658 0.0549668 0.087081 0.104501 0.153849 0.122757 0.0827786 0.0626693 0.0361916 0.0957007 0.02274
internal_weight=0 1458.15 831.233 626.92 610.471 585.952 220.762 77.1434 303.88 232.39 282.072 549.777 146.156 403.621 74.3503 229.192 28.2642 14.3441 138.421 12.7149 158.04 57.8334 48.483 22.2038 18.2029 200.928 106.119 58.903 47.2162 53.4433
internal_count=14972 7122 4588 2534 3123 2956 1465 466 1729 1286 1227 2068 615 1453 472 976 134 67 849 77 814 285 234 112 91 842 447 262 185 242
is_linear=0
shrinkage=0.1


Tree=15
num_leaves=31
num_cat=0
split_feature=4 20 20 4 23 20 22 9 20 21 13 4 21 4 20 20 22 24 22 21 5 4 25 22 22 27 24 11 15 24
split_gain=17.8951 39.7788 34.9373 23.3787 17.0577 13.0728 12.3763 12.3314 12.3305 13.2312 12.3791 10.6966 11.3473 9.84412 46.9848 19.1621 18.7404 19.9612 12.8809 10.6335 10.2367 9.4025 9.38366 8.63764 8.1518 8.1363 7.84427 7.37159 8.34765 8.05719
threshold=-0.10625 0.99930179767902882 1.0000392441685413 0.21995000000000003 1.0024486028157946 0.99996315469500063 0.99901830451984996 0.75500000000000012 1.0000392441685413 1.0000175125214532 2986153.5000000005 -1.0000000180025095e-35 0.99926903741940432 0.04105000000000001 0.99996315469500063 1.0001982199846171 0.99996252365661276 0.99949541751678328 1.0008484481774278 0.99994789495566605 810.50000000000011 0.13165000000000002 0.99666816248445211 0.99896204540152678 0.99917477576430336 1.0014056100378199 1.0008704223279847 31.500000000000004 48.500000000000007 1.0005902192410681
decision_type=2 2 2 2 2 2 2 2 2 2 2 2 2 2 2 2 2 2 2 2 2 2 2 2 2 2 2 2 2 2
left_child=2 11 6 4 13 -5 -1 8 -6 -10 -11 12 -2 15 19 22 17 24 20 21 -16 -15 23 -3 -17 -8 -21 -18 29 -29
right_child=1 3 -4 5 7 -7 25 -9 9 10 -12 -13 -14 14 18 16 27 -19 -20 26 -22 -23 -24 -25 -26 -27 -28 28 -30 -31
leaf_value=0.014163192798550365 -0.027118469669472157 -0.056954097775617822 -0.033324635472147313 -0.036158864927100083 0.022775292514486692 0.04232511164794063 0.060277750723128812 0.05681840625502782 0.081360483006984965 -0.085249373962257402 -0.026905287916574119 -0.047915273314645873 0.023307480994024916 -0.028273663100331747 0.040161373713630516 0.011015342871310349 0.02034548183727319 0.066900197612133658 0.00763505444203064 0.059776201097266862 -0.088987099703736292 -0.087717447440653587 0.0089189446438229358 0.029434564835912155 -0.048590699082165283 0.022413234137300835 -0.038701597640592333 -0.079261277421926929 -0.020423923960137293 -0.028989989095730292
leaf_weight=322.98678070306778 211.52231808006763 41.203122049570084 116.80717508494854 23.76424977183342 48.569711163640022 198.47015468776226 135.32666087150574 19.941456630825996 10.046870395541189 42.513978555798531 251.47695083916187 181.55174891650677 56.557670190930367 129.53633271157742 362.76416721940041 60.256455138325691 29.934829592704773 48.40588553249836 225.3762644380331 20.577545836567879 6.2429580092430106 33.488213300704956 1004.5642404258251 16.095042243599892 37.053123146295547 97.734730795025826 13.327397614717482 58.516879290342331 245.7651322633028 70.04413840174675
leaf_count=1281 658 131 345 68 182 879 610 78 46 126 796 522 220 373 1601 212 93 225 844 86 24 94 3685 60 129 421 48 182 741 212
internal_value=0 -0.00143635 0.0163924 0.00272359 0.000224862 0.0339326 0.0268363 -0.0196852 -0.0240118 -0.031486 -0.0353424 -0.0291729 -0.0164799 0.00331142 0.0124459 -0.00117305 -0.0163234 0.0144231 0.0264717 -0.0298874 0.0379764 -0.0404845 0.00667386 -0.0326875 -0.0116812 0.0443992 0.0210664 -0.0274059 -0.0312246 -0.0518719
internal_weight=0 3447.57 672.855 2997.94 2775.7 222.234 556.048 372.549 352.608 304.038 293.991 449.632 268.08 2403.15 791.313 1611.84 549.976 145.715 594.383 196.929 369.007 163.025 1061.86 57.2982 97.3096 233.061 33.9049 404.261 374.326 128.561
internal_count=14972 12315 2657 10915 9968 947 2312 1228 1150 968 922 1400 878 8740 3070 5670 1794 566 2469 601 1625 467 3876 191 341 1031 134 1228 1135 394
is_linear=0
shrinkage=0.1


Tree=16
num_leaves=31
num_cat=0
split_feature=20 4 22 21 25 24 4 20 4 22 24 23 23 23 9 26 24 4 38 34 20 9 16 16 37 5 18 5 15 30
split_gain=690.773 72.6436 38.6481 22.6179 21.6825 21.5493 21.2517 17.8658 14.1268 11.7337 10.968 10.1228 16.6141 10.0778 8.23017 7.01488 7.00197 7.16357 6.74488 8.84972 9.33279 6.66508 11.0175 6.63943 8.10256 6.84157 6.74177 6.41208 7.7485 9.29503
threshold=1.0000181904172887 0.0086500000000000014 1.0000501417084358 1.0000175125214532 0.99944636572361956 0.99981726477857413 0.19635000000000002 1.0014381499053913 0.091550000000000006 0.99844229234833126 0.99443700500073595 0.99952700038600095 0.99985139594574057 0.99992424385833867 -0.044999999999999991 1.0074701766327296 1.0060626420722649 0.38400000000000006 6.6414528035447455 6.6505023346510308 1.002587317903253 0.42500000000000004 2333.5000000000005 610.50000000000011 1952.5461538461539 150.50000000000003 1956.6500000000003 85.500000000000014 60.500000000000007 1.0017813484291491
decision_type=2 2 2 2 2 2 2 2 2 2 2 2 2 2 2 2 2 2 2 2 2 2 2 2 2 2 2 2 2 2
left_child=-1 3 5 4 -2 10 7 8 15 -5 -3 -12 -13 -9 -10 -4 -8 -18 -15 20 21 22 -20 25 -25 -11 -26 -28 29 -29
right_child=1 2 6 9 -6 -7 16 13 14 23 11 12 -14 18 -16 -17 17 -19 19 -21 -22 -23 -24 24 26 -27 27 28 -30 -31
leaf_value=-0.071020495819378235 0.061973677600883841 0.081940871477369226 0.042958034087593189 -0.027909396215794802 -0.039527585043278586 -0.064395673419528163 -0.020053860653105816 -0.035072012702042847 0.098340237834692659 0.06470079617537948 -0.016730655371947522 0.11645442974764056 -0.040774186240499305 0.0074414634449978716 -0.0012307903980053022 0.14967093141198928 0.082479669443183801 -0.021860664535646217 0.22083477193923129 0.047578925395572361 0.22710762550803884 0.070068869095372313 0.081530059411845685 0.1361001293513838 -0.046853833250108702 -0.0057792297864878691 -0.0023415342238144112 0.15077936436853312 0.075954909788574859 0.064474326162823642
leaf_weight=889.25424204021692 49.139174565672874 16.594759002327919 312.4380217641592 11.126691855490206 36.812026098370552 62.076093770563602 84.430867269635201 6.8105983883142462 8.9240086227655393 114.00355266034603 117.12552396953106 16.041195861995224 11.566685326397417 8.6289158612489683 118.95225542038679 6.2839759662747374 15.598860323429109 11.380620598793028 10.419082731008531 22.340242020785809 7.3489188104867926 24.754596292972565 12.475315555930136 26.092368356883526 4.244081884622573 15.665393710136412 9.2429730966687185 32.326290175318718 308.3965670466423 20.325094394385815
leaf_count=7625 219 85 1430 53 282 473 601 36 45 431 777 101 79 37 717 24 88 80 43 91 30 112 50 88 14 62 36 117 1076 70
internal_value=0 0.0401927 0.0215595 0.0661564 0.0185017 -0.0143273 0.0338788 0.0420917 0.0337964 0.0737216 0.00493806 -0.00389088 0.0505814 0.082022 0.0057179 0.045062 -0.00588243 0.0384663 0.0912985 0.100655 0.122214 0.106037 0.144927 0.075854 0.0822198 0.0561861 0.0784662 0.0799025 0.082008 0.117463
internal_weight=0 1501.56 874.191 627.374 85.9512 223.404 650.786 539.376 446.598 541.423 161.328 144.733 27.6079 92.7777 127.876 318.722 111.41 26.9795 85.9671 77.3382 54.9979 47.649 22.8944 530.296 400.627 129.669 374.535 370.291 361.048 52.6514
internal_count=14972 7347 4899 2448 501 1515 3384 2615 2216 1947 1042 957 180 399 762 1454 769 168 363 326 235 205 93 1894 1401 493 1313 1299 1263 187
is_linear=0
shrinkage=0.1


Tree=17
num_leaves=31
num_cat=0
split_feature=20 4 21 25 21 4 28 24 23 24 21 24 23 22 9 34 13 21 25 0 17 38 16 23 16 23 4 22 31 25
split_gain=736.847 62.8118 37.5562 25.3074 24.0533 14.3351 14.0174 12.9636 10.7908 35.2703 10.3854 8.46441 25.1295 17.7317 9.05252 9.98471 8.42357 8.79026 8.3743 8.08562 7.42441 8.87809 7.30757 8.0832 7.26632 10.4412 9.08707 7.7899 7.44494 7.26598
threshold=0.99996315469500063 -0.045449999999999997 1.0000175125214532 1.0002945829147407 0.99926903741940432 -0.26324999999999993 1.006283570496729 0.99699317586171221 1.0002337997245945 1.000520125950805 0.99480949444290923 1.0001625821094626 0.99998180627319722 1.0000501417084358 -0.50499999999999989 3.0427858043207636 1356374.0000000002 1.0003615622837272 1.0050506063322382 2639.1000000000004 17316497.000000004 3.7189764836890293 1001.5000000000001 0.9997925741541821 7467.0000000000009 0.99313996735240684 0.099450000000000024 0.9998839772588487 2412.7000000000003 0.99996220779425171
decision_type=2 2 2 2 2 2 2 2 2 2 2 2 2 2 2 2 2 2 2 2 2 2 2 2 2 2 2 2 2 2
left_child=1 4 8 -4 5 10 7 -7 11 -10 -1 12 13 24 -13 -16 -6 22 -19 -17 21 -9 -18 -24 25 -3 27 -27 -29 -14
right_child=-2 2 3 -5 16 6 -8 20 9 -11 -12 14 29 -15 15 19 17 18 -20 -21 -22 -23 23 -25 -26 26 -28 28 -30 -31
leaf_value=0.05502615149629439 -0.072436539378706755 -0.015133433308402458 -0.05472202391859976 0.040883180199786977 -0.034083720514880997 0.071095473191641889 0.16317605439252988 0.10090892489825364 -0.050614344065138143 0.070505411794403686 -0.02594275433596957 0.0036482542290493555 -0.07596753046036353 -0.039334595255512798 0.15402789815003212 0.099956354197216754 0.091572024488351722 -0.049728667463179804 0.051907342436662063 -0.034766201169612182 0.06205403497542003 0.010137519799355069 0.040771056789620543 -0.015140111560171124 0.11468252413772462 0.066709249624119421 0.11010095380565864 0.20719710929355573 0.057292644760442019 0.048659928950004622
leaf_weight=21.613712444901466 908.12467801570892 13.063151001930235 42.023656703531742 81.161189347505569 77.032990805804729 89.740458212792873 9.3969940543174726 11.560661263763903 31.326181121170521 103.40360885858536 59.31177557259798 7.7693030685186377 14.7362182661891 13.495955109596251 35.082615874707699 24.356369733810428 13.020993828773497 39.962291210889816 10.169983819127081 5.4520380645990363 44.818773902952671 158.57262639701366 50.398120395839214 53.10248651355505 46.02238604426384 356.186947286129 64.946000799536705 7.8436956107616407 5.7358288913965225 6.8538529798388472
leaf_count=111 7850 40 328 432 514 404 45 59 151 400 414 31 70 88 134 84 77 283 64 20 204 845 287 358 139 1255 194 32 28 31
internal_value=0 0.0417225 0.0593738 0.00826813 0.0179702 0.0332124 0.042882 0.0391721 0.0679243 0.0423437 -0.00431745 0.0736536 0.0692568 0.0737537 0.105657 0.11787 -0.00673725 0.0059032 -0.0291105 0.0753152 0.0258443 0.0163055 0.0209675 0.012085 0.0768445 0.0729555 0.0756026 0.0695433 0.143879 -0.0364041
internal_weight=0 1498.16 859.459 123.185 638.702 395.015 314.09 304.693 736.274 134.73 80.9255 601.544 528.884 507.294 72.6603 64.891 243.687 166.654 50.1323 29.8084 214.952 170.133 116.522 103.501 493.798 447.776 434.712 369.766 13.5795 21.5901
internal_count=14972 7122 3457 760 3665 2082 1557 1512 2697 551 525 2146 1877 1776 269 238 1583 1069 347 104 1108 904 722 645 1688 1549 1509 1315 60 101
is_linear=0
shrinkage=0.1


Tree=18
num_leaves=31
num_cat=0
split_feature=4 21 4 20 21 20 22 23 4 20 4 4 20 21 25 21 20 20 20 22 22 24 23 17 4 9 20 20 4 6
split_gain=15.2972 24.8792 25.8573 16.0692 15.7167 14.5025 9.43421 9.3655 9.0026 17.1285 13.7198 13.4521 20.6488 16.7402 16.4151 10.1202 14.1177 9.53611 9.1546 14.9293 8.76878 9.50569 11.927 10.252 8.60413 8.45674 10.5358 8.23335 8.09729 8.05479
threshold=-0.18434999999999999 0.99830715918270363 0.19635000000000002 0.99979550519404514 1.0013907026908642 0.99996315469500063 0.99685548900852161 1.0004982195621972 -0.09354999999999998 0.99972966186722145 1.0000000180025095e-35 0.029850000000000005 1.0000430479305391 0.99995008005382624 0.99922624857400155 0.99996194388938819 0.99996315469500063 1.000037926195678 0.99996315469500063 1.000599711414381 0.99968918350548541 1.0004728132400758 1.000305281368451 3001434.5000000005 0.14140000000000003 0.51500000000000012 1.000464797857445 1.002587317903253 -0.019949999999999999 7864.5000000000009
decision_type=2 2 2 2 2 2 2 2 2 2 2 2 2 2 2 2 2 2 2 2 2 2 2 2 2 2 2 2 2 2
left_child=3 5 4 6 8 24 -1 -6 17 10 20 12 15 14 -14 16 -11 -3 -13 -20 -10 -22 23 -23 29 26 -21 -9 -15 -2
right_child=1 2 -4 -5 7 -7 -8 27 9 11 -12 18 13 28 -16 -17 -18 -19 19 25 21 22 -24 -25 -26 -27 -28 -29 -30 -31
leaf_value=0.0076220414968706162 -0.009008429082714365 0.029472107186073754 0.035068378389584876 -0.02725276322467517 0.013267968955006221 0.034089796343863631 0.046400043940671591 -0.017757701230034742 -0.014376842141469198 -0.0052269556023274329 -0.035111954286353435 -0.0077580299920068365 -0.012487001036030544 -0.037175215453981524 0.070058515132127644 0.036162085524600374 0.06091588573304705 -0.018284230476861091 0.037144608851366369 0.018671361345492975 0.042886332547442202 -0.1915832181203391 0.0087657210719850782 -0.0022164995781876044 -0.061834260276735997 0.023417273007699631 -0.041676723925014952 -0.076931591449571665 -0.010417236048863132 -0.039719030369322429
leaf_weight=98.479648545384407 207.55337539315224 227.26389607787132 231.26460602879524 54.33432848751545 96.727861523628235 41.784079626202583 172.86764831840992 425.76310959458351 234.28827030956745 225.76993660628796 191.65317486226559 115.78895877301693 52.939992398023605 180.56756502389908 44.20883022248745 159.2058282494545 37.651739165186882 51.240148812532425 319.63088871538639 51.768717512488365 71.638546481728554 6.0318969190120679 65.176311686635017 5.4348427653312683 62.749357759952545 111.38452792167664 65.573635950684547 24.88791835308075 302.64164841175079 145.11612142622471
leaf_count=393 642 977 1047 172 341 182 783 1344 764 751 593 375 183 543 226 715 193 164 1468 196 308 22 251 20 169 440 240 75 966 429
internal_value=0 -0.000206039 0.00282414 0.0223867 0.000392977 -0.0220673 0.0323264 -0.0149656 0.00372926 0.0016223 -0.013273 0.00675281 -0.000556808 -0.012801 0.0250764 0.0162571 0.00422706 0.0206857 0.0177917 0.0231867 -0.00233252 0.0166978 -0.00778073 -0.10183 -0.0277158 0.00368133 -0.0150526 -0.0210257 -0.0204163 -0.0216452
internal_weight=0 3755.71 3298.5 325.682 3067.24 457.203 271.347 547.379 2519.86 2241.36 574.223 1667.13 1002.99 580.358 97.1488 422.628 263.422 278.504 664.147 548.358 382.57 148.282 76.6431 11.4667 415.419 228.727 117.342 450.651 483.209 352.669
internal_count=14972 13624 12202 1348 11155 1422 1176 1760 9395 8254 1958 6296 3577 1918 409 1659 944 1141 2719 2344 1365 601 293 42 1240 876 436 1419 1509 1071
is_linear=0
shrinkage=0.1


Tree=19
num_leaves=31
num_cat=0
split_feature=20 4 22 25 21 21 25 4 20 26 4 22 24 34 23 9 7 35 20 26 15 22 21 38 12 9 22 27 25 11
split_gain=609.671 53.1665 30.3479 19.1985 18.1646 16.8195 18.075 14.606 11.8297 10.6831 11.9321 9.36071 8.91014 8.88981 8.10319 7.57008 7.13026 7.02115 7.93755 6.9744 13.884 6.64952 8.91177 11.2237 12.7612 7.29391 6.63132 5.8868 9.87895 5.92055
threshold=1.0000181904172887 0.0086500000000000014 0.99994980167111736 0.99944636572361956 0.99998179236007456 1.0000175125214532 0.99944636572361956 0.19635000000000002 1.0014381499053913 1.0074701766327296 0.074650000000000008 0.99844229234833126 0.99443700500073595 2.5627932199190506 0.99992424385833867 0.47500000000000003 6318395.0000000009 2652.5500000000006 1.0004537033562184 0.99900136849365928 25.500000000000004 1.0002371449250693 1.0011503970748861 14.686691890691881 3170.5000000000005 -0.024999999999999998 0.99937142452894212 0.99832293033612396 0.99698291628405167 85.500000000000014
decision_type=2 2 2 2 2 2 2 2 2 2 2 2 2 2 2 2 2 2 2 2 2 2 2 2 2 2 2 2 2 2
left_child=-1 5 3 12 -4 6 27 8 9 10 -6 -7 -3 16 -10 21 19 -15 -19 20 -14 -12 23 24 -23 -24 -22 28 -2 -29
right_child=1 2 4 -5 7 11 -8 -9 14 -11 15 -13 13 17 -16 -17 -18 18 -20 -21 26 22 25 -25 -26 -27 -28 29 -30 -31
leaf_value=-0.070386574726183468 0.073985640313435089 0.075226798996774216 -0.043231981429063718 -0.057294589767498662 0.043591888837836767 -0.027247706549113127 -0.038041491578683743 -0.00066553926946021232 -0.033997955777774598 0.13444778400421351 -0.060190444425309735 0.065828955927567809 0.27302249945325485 -0.030618362709066108 0.079720919303401042 -0.0089795706651052114 -0.038321577482579125 -0.051545570509054742 0.12603091839694508 0.0049477693170909449 -0.021655513058919749 0.082830563464450238 0.10280066035365634 -0.0058311009393215854 0.27339787198085624 -0.012318177429079334 0.14153817828989626 0.13922567106374942 -0.041573441823103893 0.029609536255982696
leaf_weight=828.80705410987139 18.169224694371227 17.18973496556282 32.19314044713974 68.235823228955269 277.35275613516569 11.019905380904673 35.559972919523716 103.75539649277925 6.7313561737537375 10.223915934562681 6.5922937616705886 554.21442701667547 4.0033889412880006 71.54217267036438 90.638414695858955 93.790529049932957 8.0469626411795598 4.1303073912858945 6.4451239556074142 9.5942644998431188 5.460034564137457 13.065511882305151 6.9375866055488578 8.4413273185491544 4.8067072331905356 26.632360354065895 4.5774284303188324 12.502731278538706 12.478598579764364 8.1322885602712613
leaf_count=7625 72 84 238 555 1183 53 282 732 37 38 44 1894 25 493 359 558 53 27 43 55 34 74 29 51 24 135 28 51 58 38
internal_value=0 0.0360764 0.0200463 -0.0142842 0.0300873 0.0577191 0.0167455 0.0337244 0.0402689 0.0334005 0.0310398 0.0640143 0.008121 -0.00201551 0.0718593 0.00931749 0.0429818 -0.0193761 0.0566772 0.0706629 0.115567 0.0351328 0.0456265 0.0891991 0.134083 0.0114724 0.0527664 0.0547352 0.0269345 0.0960258
internal_weight=0 1532.46 880.387 199.225 681.161 652.077 86.8428 648.968 545.213 447.843 437.619 565.234 130.989 113.8 97.3698 160.266 31.6821 82.1176 10.5754 23.6351 14.0409 66.4758 59.8835 26.3135 17.8722 33.5699 10.0375 51.2828 30.6478 20.635
internal_count=14972 7347 4899 1397 3502 2448 501 3264 2532 2136 2098 1947 842 758 396 915 195 563 70 142 87 357 313 149 98 164 62 219 130 89
is_linear=0
shrinkage=0.1


Tree=20
num_leaves=31
num_cat=0
split_feature=20 21 4 25 12 22 25 4 6 42 34 5 21 9 22 30 33 36 32 20 36 29 20 30 25 9 4 12 9 20
split_gain=649.798 47.7164 41.2506 32.4874 17.8785 11.5198 20.4423 10.8199 9.77614 11.1292 9.98043 9.50611 8.55729 8.54302 8.24856 8.10203 7.97676 10.6088 12.3747 8.90095 9.1402 7.68041 8.7697 10.2998 7.99542 7.53058 6.64367 6.76369 7.2233 6.73754
threshold=0.99996315469500063 1.0000175125214532 -0.078649999999999984 1.0003683919877264 637.50000000000011 1.0001204263095711 1.0005387309326321 -0.26324999999999993 14045.500000000002 112.73655685861047 6.3696082363634785 206.50000000000003 0.99480949444290923 0.51500000000000012 1.0001483257739496 1.0035750013883724 2443.2136363636369 1909.9500000000003 1920.5500000000002 0.99898644366800826 2095.0000000000005 1.0022185247208497 0.99972966186722145 1.0017267579217208 1.0050506063322382 0.095000000000000015 0.16045000000000001 2548.5000000000005 0.35500000000000004 0.9993780063402623
decision_type=2 2 2 2 2 2 2 2 2 2 2 2 2 2 2 2 2 2 2 2 2 2 2 2 2 2 2 2 2 2
left_child=1 2 4 -3 -1 11 15 12 14 -10 -11 26 -6 21 16 -7 17 -9 -19 20 -20 22 23 25 -23 -5 27 28 29 -4
right_child=-2 3 5 13 7 6 -8 8 9 10 -12 -13 -14 -15 -16 -17 -18 18 19 -21 -22 24 -24 -25 -26 -27 -28 -29 -30 -31
leaf_value=-0.023519666011290616 -0.071897977243134223 -0.058711920236134411 0.069470699796531393 0.017413211053933234 0.050078284477509838 -0.05538883052888758 0.057451040650798139 -0.064460590193448158 0.049580767903536577 0.24200839059319171 0.071768521783193026 0.07313140481267881 -0.022506220398868057 0.1190338851212186 -0.023910014662256025 0.11361385103223885 0.018401422139425617 0.22015019611569767 0.030204492637275163 0.0090733048012743081 0.1276311312162676 -0.030540910046585591 0.003388472540642794 0.18432295167209059 0.04572448533628868 0.1340900261018558 0.12115563615171542 -0.019885527648931159 0.087486998103873725 0.038970671199397872
leaf_weight=81.680597722530365 844.03406752645969 75.649167329072952 96.873181514441967 21.287666745483879 22.335454568266869 30.130430109798908 62.911387786269188 6.0707204267382613 35.958435595035553 6.7593779265880567 7.0204136669635773 343.66441956162453 59.539245635271072 8.5525613427162153 25.429502427577972 3.1314708217978469 97.336359724402428 5.3050726056098929 16.014228582382202 21.508459322154522 24.152294635772705 47.202463835477829 34.868263602256775 6.8319773748517028 19.394325405359268 7.4738196805119506 13.166187345981596 13.78146208822727 48.869669422507286 287.00883848965168
leaf_count=523 7850 627 356 134 111 209 258 31 161 30 30 1123 427 43 179 18 485 26 79 113 114 279 210 37 108 38 38 48 172 1115
internal_value=0 0.0373998 0.0446616 -0.00554995 0.0183351 0.0566349 0.0239278 0.0287762 0.0392729 0.0788632 0.155276 0.0605504 -0.00270514 0.0220692 0.0292168 -0.0394779 0.0371457 0.0621216 0.0735943 0.0609881 0.0887875 0.0160186 0.0390324 0.0739501 -0.00833089 0.0477323 0.051145 0.0490808 0.0512771 0.0466674
internal_weight=0 1529.91 1308.65 221.26 409.11 899.537 96.1733 327.43 245.555 49.7382 13.7798 803.364 81.8747 145.611 195.817 33.2619 170.387 73.0508 66.9801 61.675 40.1665 137.059 70.4617 35.5935 66.5968 28.7615 459.699 446.533 432.752 383.882
internal_count=14972 7122 5646 1476 2309 3337 485 1786 1248 221 60 2852 538 849 1027 227 848 363 332 306 193 806 419 209 387 172 1729 1691 1643 1471
is_linear=0
shrinkage=0.1


Tree=21
num_leaves=31
num_cat=0
split_feature=4 24 4 25 4 20 20 4 20 24 23 20 9 28 21 21 20 22 21 23 4 20 22 4 20 15 7 25 17 28
split_gain=12.9453 15.1491 18.8634 16.9576 12.7101 16.2557 12.9386 9.56026 8.93955 8.16887 9.87465 12.3382 7.56747 7.8724 6.98146 6.53287 18.8827 11.2574 10.6765 9.92604 10.7888 7.91462 12.1678 10.3989 7.49872 7.21388 6.88824 6.41077 6.24042 6.72266
threshold=-0.3139499999999999 0.9971194288651607 0.20115000000000002 1.0060956037645665 -0.10625 0.99996315469500063 0.99930179767902882 -1.0000000180025095e-35 0.99740688209429218 1.000520125950805 0.99998180627319722 0.99990147055147327 0.74500000000000011 0.99969753677642115 0.99480949444290923 1.0001537870277304 0.99996315469500063 0.99984782580714315 0.99998179236007456 1.0005391003551491 -0.025749999999999999 1.0000181904172887 1.0004970783200302 0.062250000000000007 1.0015640087262467 72.500000000000014 12084786.500000002 1.005860725905882 1468856.5000000002 1.0006014959789125
decision_type=2 2 2 2 2 2 2 2 2 2 2 2 2 2 2 2 2 2 2 2 2 2 2 2 2 2 2 2 2 2
left_child=14 8 3 4 5 -3 7 28 -2 -8 11 -11 15 -14 -1 16 19 -17 -18 -12 -21 22 25 -23 -25 -19 -26 -4 29 -6
right_child=1 2 27 -5 6 -7 9 -9 -10 10 12 -13 13 -15 -16 17 18 21 -20 20 -22 23 -24 24 26 -27 -28 -29 -30 -31
leaf_value=-0.0098588910596958158 -0.058468322789338771 0.031446847249517865 0.042208843311813724 -0.034658644647846175 -0.00051738416742600098 -0.017969378705791992 0.0080852262776938116 -0.047579117711166449 -0.011266409613677815 -0.011843909930035701 -0.054977292361686171 0.072589634055259589 -0.062916766249200506 0.032537032083891235 0.048489210575653509 0.080064680002659705 0.078008775216966586 -0.14051555069683772 0.0035487814043540602 0.050323451852213055 -0.019963733079364453 -0.027005937422197208 0.027111429051048304 0.012277816737250589 -0.11321426398809023 0.0045198575975754071 -0.014600323243839872 -2.1130574801515717e-05 -0.0026276545284561414 -0.13406500845784411
leaf_weight=26.760789901018143 43.89829608798027 287.6807866692543 157.91040417551994 126.21208348870277 7.2949867546558362 86.608979612588882 1307.9163295328617 86.387128129601479 466.57832741737366 32.621922880411148 43.439181193709373 36.865478992462158 9.7074674516916257 78.582589596509933 87.743928074836731 12.748505011200903 44.682147175073624 7.5253615081310254 33.841405123472214 31.875013694167137 69.355637848377228 446.68822859227657 80.678399816155434 141.44941453635693 9.0403895229101163 6.3007859438657761 32.718511939048767 46.542683660984039 183.20684316754341 7.7993459701538086
leaf_count=100 136 1304 750 405 25 266 4958 249 1602 107 139 172 36 305 404 63 243 31 133 130 219 1308 339 540 30 27 109 204 613 25
internal_value=0 0.000742395 0.00314376 0.00126863 0.00273846 0.0200122 0.000353354 -0.0198147 -0.0153255 0.00272002 -0.00355591 0.032951 -0.00597503 0.0220419 0.0348527 -0.0085508 0.00643832 -0.0130892 0.0459186 -0.0149907 0.00216795 -0.0147286 0.0122571 -0.0187773 0.00128536 -0.0744207 -0.0359493 0.0325954 -0.00771956 -0.0695224
internal_weight=0 3926.16 3415.68 3211.23 3085.01 374.29 2710.73 284.688 510.477 2426.04 1118.12 69.4874 1048.63 88.2901 114.505 960.343 223.193 737.15 78.5236 144.67 101.231 724.401 94.5045 629.897 183.208 13.8261 41.7589 204.453 198.301 15.0943
internal_count=14972 14468 12730 11776 11371 1570 9801 912 1738 8889 3931 279 3652 341 504 3311 864 2447 376 488 349 2384 397 1987 679 58 139 954 663 50
is_linear=0
shrinkage=0.1


Tree=22
num_leaves=31
num_cat=0
split_feature=20 21 4 25 22 24 25 9 37 4 37 36 7 34 17 20 23 24 23 36 5 23 4 15 6 23 34 29 24 21
split_gain=540.477 39.3842 31.5702 29.9113 15.2059 21.2097 11.2799 10.5383 9.1338 8.98721 7.08732 8.56237 8.23123 7.43077 6.90278 6.80583 6.67584 18.9293 9.19139 10.5225 7.15782 6.98569 7.98403 6.66448 6.62286 6.54122 6.42834 16.6651 11.1442 8.64313
threshold=1.0000181904172887 0.99998179236007456 0.072250000000000023 0.99941946051269859 0.99985978235879502 0.99953844078037102 1.005860725905882 0.49500000000000005 1899.9302884615388 0.38400000000000006 2406.679326923077 2598.6000000000004 37411656.500000007 9.642811184583616 1874063.5000000002 1.0015187831983792 1.0001051856529681 0.99970397597081384 0.99856106783866994 2435.0000000000005 56.500000000000007 0.99994979286528884 0.020750000000000001 202.50000000000003 978.50000000000011 1.0001486712525456 2.4909472458144797 1.0002502126832853 0.99858118229961856 0.99948475654739866
decision_type=2 2 2 2 2 2 2 2 2 2 2 2 2 2 2 2 2 2 2 2 2 2 2 2 2 2 2 2 2 2
left_child=-1 3 4 26 5 14 7 -4 -9 10 12 -12 15 -13 24 -8 17 18 -6 20 -20 -19 -23 -16 -3 -18 27 28 29 -2
right_child=1 2 6 -5 16 -7 9 8 -10 -11 11 13 -14 -15 23 -17 25 21 19 -21 -22 22 -24 -25 -26 -27 -28 -29 -30 -31
leaf_value=-0.069784929060546619 -0.0026517965948541916 0.062278481433401117 0.027325355943743215 -0.054559548286062645 -0.0090950032464705653 -0.063723345806106599 0.017895623947252172 0.13818766086714199 -0.011386352329789504 -0.021724710558702749 0.18140340314304426 0.018195915060076166 -0.032297913241457372 0.17508326171325939 0.080348468098737316 0.19119094833484018 0.15388518844835275 -0.052708871394565676 -0.01458838555912963 0.035583081317769015 0.12435222670879079 0.056718378978479728 -0.079167977831394301 -0.044257164635286284 -0.045626991645225996 0.05619485096997761 0.0083438142692845163 0.19281772434934419 -0.035233137430633665 0.1476549500317875
leaf_weight=771.99136738479137 6.62205941975117 9.5713698118925112 158.75639038532972 81.786537192761898 15.922401145100592 27.191710636019707 4.7947619855403918 4.1787612214684478 177.45344713330269 11.483108900487421 10.47612249851227 10.52668161690235 9.8016595020890218 4.2329317182302466 36.85422058403492 4.2974345833063126 6.9219756573438636 25.801510535180569 4.1371769160032263 36.426206037402153 35.730594120919704 17.400395259261135 5.7535623982548705 4.8581183850765219 14.019163370132445 699.79890827089548 100.61243250966072 7.2643615603446952 15.577530741691588 9.0597961992025358
leaf_count=7625 39 42 917 718 58 203 22 26 1141 86 45 47 47 20 158 19 26 121 16 146 133 69 32 20 71 2373 593 35 83 41
internal_value=0 0.0325461 0.039012 -0.00656668 0.048986 0.0104856 0.0153268 0.00850493 -0.00794515 0.0570815 0.077588 0.112264 0.0312727 0.0631899 0.0413858 0.0998038 0.0531859 0.0333326 0.0600128 0.0744355 0.109934 -0.0169244 0.0229518 0.065836 -0.00184658 0.0571517 0.0216443 0.0563812 0.0246748 0.0841841
internal_weight=0 1557.31 1336.39 220.923 940.387 92.4946 396.001 340.389 181.632 55.6127 44.1296 25.2357 18.8939 14.7596 65.3029 9.0922 847.893 141.172 92.2164 76.294 39.8678 48.9555 23.154 41.7123 23.5905 706.721 139.136 38.5237 31.2594 15.6819
internal_count=14972 7347 5838 1509 3468 494 2370 2084 1167 286 200 112 88 67 291 41 2974 575 353 295 149 222 101 178 113 2399 791 198 163 80
is_linear=0
shrinkage=0.1


Tree=23
num_leaves=31
num_cat=0
split_feature=20 21 4 25 12 4 21 26 24 8 4 16 23 25 22 17 4 21 20 27 6 30 11 28 21 20 24 23 22 9
split_gain=573.53 37.406 29.9828 29.2114 13.9571 10.4159 8.91694 12.3123 7.70087 7.80374 7.63212 9.20864 7.44119 28.3959 7.27226 7.21839 7.09146 7.06337 7.42619 7.00495 10.2383 7.56377 6.51486 13.3018 6.33241 6.32004 6.24428 18.7648 12.339 6.64711
threshold=0.99996315469500063 1.0000175125214532 -0.045449999999999997 1.0002052123969893 637.50000000000011 -0.3139499999999999 0.99640882436414346 0.9970917518817477 0.99699317586171221 0.00015000000000000004 -0.17124999999999999 11007.500000000002 1.0002337997245945 1.0003922417971156 0.99965550238426859 903782.00000000012 1.0000000180025095e-35 0.9998822143696654 0.99907136261642282 0.99676258140045004 14664.000000000002 0.99889348954421153 85.500000000000014 0.99851719164512953 1.0002291256952893 0.99965047282444852 1.0001625821094626 0.99998180627319722 1.0000501417084358 -0.50499999999999989
decision_type=2 2 2 2 2 2 2 2 2 2 2 2 2 2 2 2 2 2 2 2 2 2 2 2 2 2 2 2 2 2
left_child=1 2 4 -3 14 6 7 -6 -7 10 -10 17 26 -14 -1 -5 25 18 22 -11 21 -21 23 -12 -18 -17 27 28 -4 -28
right_child=-2 3 12 15 5 8 -8 -9 9 19 11 -13 13 -15 -16 16 24 -19 -20 20 -22 -23 -24 -25 -26 -27 29 -29 -30 -31
leaf_value=0.0069870297833926898 -0.071393818922866989 -0.060612553812988336 0.059201048140897911 0.077724676585063476 0.0019584359007212659 0.059398662263810798 -0.046854422833218896 0.16916059049326504 -0.023028605647407285 -0.020006754834369381 0.0084380980771493024 0.11628408286804209 -0.047921237025788987 0.056633167784713473 -0.047529632668105372 0.02101563957903313 0.12600884785300101 0.12048931772252375 -0.0097274056767890152 0.10934918126624066 0.19409930305187117 0.031732645459531597 0.018295995783296288 0.1890366898145783 0.026387461119055135 -0.030316016286867715 -0.0025007087149249794 -0.037713589341899868 -0.038675621804047364 0.092862655721846335
leaf_weight=94.910738453269005 783.16517890244722 65.697938159108162 530.4629880040884 18.479488059878349 27.237637132406235 108.64655670523643 29.639072418212891 5.2535557746887198 39.228177919983864 11.022938266396521 8.6618488729000109 10.65800931304693 34.138645067811012 108.63820765912533 32.968148104846478 50.417884856462479 8.1028801649808866 6.5535573586821547 62.726683840155602 17.632818274199963 5.7092959806323043 43.601957097649574 38.982155360281467 7.7071359902620307 30.019715875387192 45.750731520354748 8.1429020464420301 21.83906976133585 13.200696527957914 71.390461802482605
leaf_count=541 7850 580 1688 97 146 472 228 30 247 55 39 42 172 379 236 324 36 39 325 90 25 227 171 36 148 291 31 101 88 238
internal_value=0 0.0335147 0.0397747 -0.00485216 0.0218838 0.0306308 -0.00718947 0.0289936 0.0371376 0.0275584 0.0158075 0.0270684 0.052291 0.0316337 -0.00706778 0.0191272 0.0110637 0.019439 0.0138305 0.0538609 0.0660239 0.0540827 0.0405274 0.0934707 0.0475618 -0.0034046 0.0568634 0.0531736 0.0568245 0.083099
internal_weight=0 1557.42 1338.95 218.469 551.14 423.261 62.1303 32.4912 361.131 252.485 174.518 135.289 787.813 142.777 127.879 152.771 134.291 124.631 118.078 77.967 66.9441 61.2348 55.3511 16.369 38.1226 96.1686 645.036 565.503 543.664 79.5334
internal_count=14972 7122 5646 1476 2949 2172 404 176 1768 1296 899 652 2697 551 777 896 799 610 571 397 342 317 246 75 184 615 2146 1877 1776 269
is_linear=0
shrinkage=0.1


Tree=24
num_leaves=31
num_cat=0
split_feature=4 23 4 24 4 16 23 20 21 20 4 20 16 25 41 20 11 41 4 20 22 20 22 20 4 20 25 21 24 4
split_gain=10.473 12.079 15.9505 13.5351 9.69368 9.27132 9.65746 8.18174 8.11538 8.31846 8.75708 7.98103 8.711 7.68734 7.20142 7.03797 6.42626 8.98627 6.30242 16.3372 16.3684 11.417 11.0668 14.4892 16.2522 12.3132 18.6501 9.83001 8.64296 8.44586
threshold=-0.3139499999999999 0.99786716894366168 0.20115000000000002 1.0028124879936178 -0.18434999999999999 11007.500000000002 0.99994979286528884 1.0000834341613589 0.99996194388938819 0.99996068175935526 -0.09354999999999998 1.000037926195678 1337.5000000000002 0.99783890895527694 2572.5597115384621 1.002587317903253 454.50000000000006 2499.6109615384617 0.062250000000000007 1.0001982199846171 0.99965550238426859 0.99996315469500063 0.9999220284960445 0.99996203925119531 0.0099500000000000022 1.0000181904172887 1.0005387309326321 1.0000503220613195 0.99949541751678328 0.0075500000000000003
decision_type=2 2 2 2 2 2 2 2 2 2 2 2 2 2 2 2 2 2 2 2 2 2 2 2 2 2 2 2 2 2
left_child=16 8 3 4 7 18 -7 -3 9 10 -2 -10 -13 -11 -14 -5 -1 -18 19 22 28 -20 23 24 27 26 -24 -6 -21 -27
right_child=1 2 -4 15 5 6 -8 -9 11 13 -12 12 14 -15 -16 -17 17 -19 21 20 -22 -23 25 -25 -26 29 -28 -29 -30 -31
leaf_value=0.047517059810070733 -0.0023347320964504439 0.047889424486627412 0.031235060041313191 -0.011192519287010851 -0.00039318066288426747 -0.10546104444925292 0.019892381069923283 -0.041172088771514008 0.079599574235083057 -0.0044624741000937346 -0.03145574529645366 0.059793518962236662 0.0051659982957829266 0.063572069135402601 -0.081532589934816851 -0.065498312695538852 -0.054999546880766761 0.052331538481226486 -0.014321894248311174 0.0068132897669995196 -0.017897184234031756 0.022597684002001669 0.052057177264204703 0.034892093930569995 -0.036091529084284472 -0.017310683414100289 0.0072323495550092667 0.066248507411879307 0.07536983768656344 0.025361504900451595
leaf_weight=78.556114763021469 156.62125682830811 79.785093426704407 193.52982123196125 435.26920980215073 536.14420230686665 15.6962867975235 10.101129874587057 11.846472561359404 16.709182977676392 72.688242435455322 303.10861955583096 18.351868435740471 30.461263746023178 21.526413470506668 13.976485908031462 25.248967513442039 17.080524384975437 14.357719853520392 108.37264595925808 54.75364176928997 558.17672349512577 368.81794418394566 180.31621773540974 103.54999177157879 136.83152107894421 127.39220453798771 191.29050776362419 23.087237343192101 27.688641130924225 72.938982382416725
leaf_count=381 581 391 938 1452 1832 52 35 33 85 299 845 76 118 103 52 74 65 58 332 203 1763 1644 937 508 393 399 787 118 151 267
internal_value=0 0.000936718 0.00339137 0.00163459 0.00442664 0.0032627 -0.0563782 0.0363752 -0.0116994 -0.0159873 -0.0215348 0.0181788 0.00183385 0.0110822 -0.0221023 -0.01417 0.0322262 -0.00598187 0.00388076 0.00143044 -0.011754 0.014213 0.00758859 -8.36567e-06 -0.00520034 0.0182097 0.0289829 0.00235805 0.0298383 -0.00177408
internal_weight=0 3894.28 3260.84 3067.31 2606.79 2515.16 25.7974 91.6316 633.443 553.945 459.73 79.4988 62.7896 94.2147 44.4377 460.518 109.994 31.4382 2489.36 2012.17 640.619 477.191 1371.55 799.613 696.063 571.938 371.607 559.231 82.4423 200.331
internal_count=14972 14468 12309 11371 9845 9421 87 424 2159 1828 1426 331 246 402 170 1526 504 123 9334 7358 2117 1976 5241 2851 2343 2390 1724 1950 354 666
is_linear=0
shrinkage=0.1


Tree=25
num_leaves=31
num_cat=0
split_feature=20 4 22 24 21 4 15 21 24 35 25 4 23 22 20 16 24 28 6 42 38 30 20 6 34 41 30 15 28 11
split_gain=479.985 32.8686 20.4372 16.9961 12.3486 9.46644 10.7869 9.06628 16.4547 8.06693 7.83977 6.87584 7.40861 6.54652 6.35269 6.15646 7.7929 6.36066 7.24284 6.89955 5.72605 9.3546 7.90939 10.0137 8.40555 7.50388 7.35545 6.27979 6.39707 7.05978
threshold=1.0000181904172887 0.0086500000000000014 0.99994980167111736 0.99980182813241048 0.99998179236007456 0.38400000000000006 406.50000000000006 0.99995008005382624 0.99960825790795427 2652.5500000000006 0.99166003966012262 0.14140000000000003 1.0024068458341093 0.99844229234833126 0.99996315469500063 224.50000000000003 1.0018155385457097 1.0013583429133581 2192.5000000000005 63.809212925257292 14.941424923035953 1.0003532815948126 1.0008481908624065 1472.5000000000002 2.1571445756303604 2220.3218429487183 0.99895254440067049 247.50000000000003 1.0001837706790477 177.50000000000003
decision_type=2 2 2 2 2 2 2 2 2 2 2 2 2 2 2 2 2 2 2 2 2 2 2 2 2 2 2 2 2 2
left_child=14 7 3 9 -4 6 11 8 -2 10 -3 15 -13 -9 -1 16 17 18 -6 -19 26 -22 23 -23 -24 -25 -17 28 29 -28
right_child=1 2 4 -5 5 -7 -8 13 -10 -11 -12 12 -14 -15 -16 20 -18 19 -20 -21 21 22 24 25 -26 -27 27 -29 -30 -31
leaf_value=-0.071603999911424659 0.043827316265192318 0.10459924888452093 -0.039147540670045167 -0.065786114895390491 -0.012228687069424184 -0.031591622422615519 0.10156995222332531 -0.023758481852097835 -0.059848014246982266 0.065480083160238553 -0.010253020067929969 -0.015939524992533781 0.031820114709580745 0.051228923038999667 -0.032327101617856756 0.075850082726495266 -0.063590345387713965 0.14301688548041894 0.12238133613511354 0.00076377628462474822 -0.017791971345936287 0.12223426398126261 0.20022870487829741 -0.056053343351408651 0.055514830947107956 0.029103664952341568 -0.0049207557262222592 -0.041899740625703133 0.049614191564475434 0.10416279378102655
leaf_weight=675.43829356878996 50.437954388558865 6.2477212101221076 29.10858229547739 45.22502251714468 37.472326189279556 26.164857640862465 20.264538258314133 11.872226715087889 21.979929387569427 18.804702594876289 121.95704842358828 67.685460612177849 62.4451062977314 600.7872012630105 43.853319980204105 61.356504932045937 13.327956601977347 7.7367050126194936 4.4744787290692321 6.0960859581828117 43.814928732812405 7.0948301255702964 4.5408349186182013 17.626809738576412 34.575222015380859 25.057797715067863 44.863795213401318 9.6832790672779065 172.22696650028229 6.8371467888355246
leaf_count=7122 225 25 238 424 177 204 76 56 204 113 835 477 391 1963 503 270 59 32 26 33 189 27 19 79 128 104 203 34 706 30
internal_value=0 0.0293368 0.0167148 -0.0121766 0.0246212 0.0273779 0.029762 0.0458207 0.0123603 0.00431545 -0.004656 0.0274409 0.00697866 0.0497758 -0.0692094 0.0328009 0.00510742 0.021522 0.00213021 0.0803262 0.0372758 0.0200252 0.0386646 0.0122232 0.0723141 -0.00606232 0.0450371 0.0369442 0.0403537 0.0095049
internal_weight=0 1579.77 894.689 192.234 702.454 673.346 647.181 685.077 72.4179 147.009 128.205 626.916 130.131 612.659 719.292 496.786 69.1076 55.7796 41.9468 13.8328 427.678 132.71 88.8955 49.7794 39.1161 42.6846 294.968 233.611 223.928 51.7009
internal_count=14972 7347 4899 1397 3502 3264 3060 2448 429 973 860 2984 868 2019 7625 2116 327 268 203 65 1789 546 357 210 147 183 1243 973 939 233
is_linear=0
shrinkage=0.1


Tree=26
num_leaves=31
num_cat=0
split_feature=20 21 4 24 12 21 4 27 22 29 22 25 23 24 23 4 21 26 20 13 25 6 25 9 22 17 24 22 8 38
split_gain=511.919 30.5182 24.9329 23.9954 12.865 8.57231 8.5311 9.56776 6.63963 8.32002 6.55238 8.86288 19.1037 8.37287 7.63487 6.47086 7.69347 9.50078 7.00901 6.30591 6.24745 7.06337 6.21596 6.11292 6.09726 6.16945 6.08462 5.99192 5.95701 5.89588
threshold=0.99996315469500063 1.0001051275992767 -0.078649999999999984 1.0007207968887397 637.50000000000011 1.0004920198326135 1.0000000180025095e-35 0.99617256415713507 1.0009258350078951 1.0030603202247927 1.0010434655680645 1.0005152381719211 0.99998180627319722 0.99998195336750173 1.0002337997245945 -0.3139499999999999 0.99640882436414346 0.9970917518817477 0.99705920754315913 1420322.0000000002 1.0010796499964392 1057.5000000000002 1.0050506063322382 -0.47499999999999992 0.99949214076190374 7006070.5000000009 1.0031877548253108 1.0001483257739496 0.00025000000000000006 3.9145636682592406
decision_type=2 2 2 2 2 2 2 2 2 2 2 2 2 2 2 2 2 2 2 2 2 2 2 2 2 2 2 2 2 2
left_child=1 2 4 -3 -1 8 7 -4 9 27 11 12 -8 -14 -15 16 17 23 -17 -10 -7 -22 -23 -6 25 -13 -12 -5 29 -20
right_child=-2 3 6 5 15 20 10 -9 19 -11 26 24 13 14 -16 18 -18 -19 28 -21 21 22 -24 -25 -26 -27 -28 -29 -30 -31
leaf_value=-0.020475240787629048 -0.070943564687678165 -0.053545838556458836 0.071338763175767581 0.0093153890011621922 -0.042576980752887288 -0.07496986274567434 0.056577256590222169 0.029852951341533131 -0.077744038959986148 -0.019071597797424882 -0.063206090057480555 0.03317108152194663 -0.083945844184640475 0.089927406135363014 -0.027434621951537848 0.080483875360017609 -0.044513034984901723 0.14271275271122927 0.081978789649873263 0.045969406941131011 0.11878841589421019 -0.0219457831298468 0.048944622735839625 0.052436082502846697 0.1044476149281317 0.11131669937688521 0.06009620138079267 0.15748257444401345 0.11576685784872605 0.018607660182516368
leaf_weight=81.483279183506966 728.87224642187357 70.495020657777786 63.795860029757023 3.4217328876257005 14.427000373601913 9.8629371151328069 314.38942767679691 432.29291374981403 5.3787121996283558 5.0230388715863219 9.0201118439435977 34.569854944944382 13.035143092274664 8.7679150998592394 15.070474147796629 25.208535626530647 27.841411836445332 5.8285502940416327 15.673969216644762 17.608434453606606 5.5091266334056845 39.491647683084011 18.00966115295887 12.760937243700027 55.528202131390572 14.274193584918974 7.1940658390521994 13.488730333745478 7.0618685558438292 231.82159078866243
leaf_count=550 7850 602 213 21 85 72 950 1756 31 28 40 101 61 35 67 96 230 30 75 98 27 233 96 61 178 40 24 73 35 1214
internal_value=0 0.0303819 0.0354996 -0.00739986 0.0152189 0.0202167 0.0443438 0.0351879 0.0545763 0.0939347 0.0539701 0.0561931 0.0485906 -0.0195051 0.0157319 0.0237575 -0.00579418 0.0268558 0.0301859 0.017022 -0.000963338 0.0106208 0.000257402 0.00201837 0.0817791 0.0560084 -0.00849812 0.127502 0.025205 0.022621
internal_weight=0 1578.33 1390.05 188.289 422.107 117.794 967.938 496.089 44.9206 21.9335 471.849 455.635 351.263 36.8735 23.8384 340.624 60.8579 33.0165 279.766 22.9871 72.8734 63.0104 57.5013 27.1879 104.372 48.844 16.2142 16.9105 254.557 247.496
internal_count=14972 7122 5841 1281 2376 679 3465 1969 251 122 1496 1432 1113 163 102 1826 406 176 1420 129 428 356 329 146 319 141 64 94 1324 1289
is_linear=0
shrinkage=0.1


Tree=27
num_leaves=31
num_cat=0
split_feature=4 16 4 20 25 12 4 4 4 21 20 22 20 4 25 4 22 28 29 4 17 20 9 24 22 4 25 25 4 41
split_gain=8.47309 10.1031 8.1164 11.6549 9.2085 7.22915 7.28386 6.85671 5.93889 5.75677 5.61371 10.5394 14.3982 17.8301 9.77584 9.59816 8.51728 8.66757 8.03929 8.0078 7.62271 6.87417 9.96117 9.25223 15.7046 8.38494 9.37009 6.87363 8.06944 8.67817
threshold=-0.3139499999999999 3593.5000000000005 0.18175000000000002 0.99996315469500063 1.0069718301551165 962.50000000000011 0.38400000000000006 -0.12109999999999999 -0.010149999999999998 0.99480949444290923 0.99972966186722145 1.0002527273712827 1.0000181904172887 0.039350000000000003 1.0016317875748624 -0.043649999999999994 1.0003619618332824 1.0006316466988172 1.0004023982996957 -0.05294999999999999 4174094.5000000005 0.99996068175935526 0.46500000000000002 0.99960825790795427 0.99996252365661276 -0.016749999999999998 1.0006148761603255 1.0005883733503231 -0.025749999999999999 2620.7279647435903
decision_type=2 2 2 2 2 2 2 2 2 2 2 2 2 2 2 2 2 2 2 2 2 2 2 2 2 2 2 2 2 2
left_child=9 2 4 -4 7 -3 -7 -2 -6 -1 15 14 27 19 21 -9 17 -17 -19 -14 -21 22 -12 25 -25 -23 -27 -13 -29 -30
right_child=1 5 3 -5 8 6 -8 10 -10 -11 11 12 13 -15 -16 16 -18 18 -20 20 -22 23 -24 24 -26 26 -28 28 29 -31
leaf_value=-0.01051756871884243 0.023264564951690193 0.020127413517351232 -0.030173691956380214 0.037077466057563027 0.010740883241416787 -0.013425702141435692 0.029679223124037309 0.011062303610649027 -0.086620718005694444 0.043326251646048794 0.0042010467045514545 0.058703129945417314 -0.042364394108550987 0.010622612944764569 0.050936182211204523 -0.010776850070580237 0.018414315459238509 -0.11032769864070752 -0.032729254005038587 -0.018202489124290826 0.013820075503697241 -0.022120404984554712 -0.056222632616917595 0.063072802071343609 0.0043130558101514603 0.018976025472309348 -0.12984872275267451 0.058509605792973901 0.0057779757738152934 -0.11335055102879255
leaf_weight=26.508006051182747 160.03386616706848 81.176636159420013 31.480058699846268 142.06035724282265 9.3873578161001223 757.33505873382092 41.341926798224449 226.51339833438396 18.836830601096153 79.136354267597198 257.95956082642078 47.869283571839333 105.01545056700706 376.59217324852943 63.236972987651825 288.76856759190559 68.759626850485802 15.692011401057242 89.489860355854034 370.84525115787983 92.971725985407829 76.095554351806641 30.510183021426201 95.574635684490204 86.78859680891037 225.31556923687458 4.3114705830812445 26.983939617872238 61.250985518097878 6.7931993454694739
leaf_count=100 723 337 91 755 32 2642 190 895 59 404 883 279 289 1478 292 866 273 48 266 1085 267 280 97 557 365 1000 23 129 241 26
internal_value=0 0.00111057 0.00389125 0.0248782 0.0025931 -0.00830466 -0.0111945 0.00317063 -0.0542383 0.0298159 0.00194201 0.00471092 -0.00178363 -0.00625534 0.0131275 -0.00580406 -0.0140608 -0.0197289 -0.0443061 -0.0174293 -0.0117836 0.0100486 -0.0021897 0.0172817 0.0351084 0.00664815 0.0161817 0.0278017 0.0122355 -0.00611523
internal_weight=0 3858.99 2979.14 173.54 2805.6 879.854 798.677 2777.37 28.2242 105.644 2617.34 1928.11 1088.32 945.425 839.793 689.223 462.71 393.95 105.182 568.832 463.817 776.556 288.47 488.086 182.363 305.723 229.627 142.897 95.0281 68.0442
internal_count=14972 14468 11299 846 10453 3169 2832 10362 91 504 9639 7291 3794 3119 3497 2348 1453 1180 314 1641 1352 3205 980 2225 922 1303 1023 675 396 267
is_linear=0
shrinkage=0.1


Tree=28
num_leaves=31
num_cat=0
split_feature=20 4 22 24 21 4 15 21 24 20 35 24 22 11 26 9 5 22 9 16 35 17 4 27 22 20 23 24 21 16
split_gain=427.758 25.1183 16.6078 15.7846 10.5321 7.64993 8.4981 6.69386 14.48 6.59479 6.57781 6.2997 6.65075 5.77238 7.02093 5.70803 5.30934 5.29424 5.28707 5.25618 6.60281 5.23902 6.37216 8.25458 6.56971 4.94489 4.71397 11.923 8.89651 6.1109
threshold=1.0000181904172887 0.0086500000000000014 0.99994980167111736 0.99980182813241048 0.99998179236007456 0.38400000000000006 406.50000000000006 0.99995008005382624 0.99960825790795427 0.99996315469500063 2652.5500000000006 0.99276304946686633 0.999218347508805 46.500000000000007 0.99869755247215031 0.90500000000000014 1999.5000000000002 0.99844229234833126 0.33500000000000008 602.50000000000011 1928.1500000000003 586615.50000000012 -0.015649999999999994 1.0012006064682464 1.00018222241905 1.0005563942873965 1.0001187484366487 0.99970397597081384 1.0005254647583846 8864.5000000000018
decision_type=2 2 2 2 2 2 2 2 2 2 2 2 2 2 2 2 2 2 2 2 2 2 2 2 2 2 2 2 2 2
left_child=9 7 3 10 -4 6 15 8 -2 -1 11 -3 13 14 -13 26 -8 -9 -7 21 -21 22 -19 24 -24 -17 27 28 -6 -28
right_child=1 2 4 -5 5 18 16 17 -10 -11 -12 12 -14 -15 -16 25 -18 19 -20 20 -22 -23 23 -25 -26 -27 29 -29 -30 -31
