tree
version=v4
num_class=3
num_tree_per_iteration=3
label_index=0
max_feature_idx=18
objective=multiclass num_class:3
feature_names=pr_open pr_high pr_low pr_close pr_std vol val trades pr_vwap pr_change trades_b trades_s val_b val_s vol_b vol_s disb pr_vwap_b pr_vwap_s
feature_infos=[1806.4000000000001:2867.5999999999999] [1812.4000000000001:2872] [1805.8:2861] [1806.4000000000001:2868.4000000000001] [0:0.0016999999999999999] [18:684985] [33582:1599097452] [5:20178] [1807.5999999999999:2864.8000000000002] [-2.2277999999999998:3.6419999999999999] [1:10980] [0:9198] [1849:955191609] [0:643905843] [1:408829] [0:276156] [-0.98999999999999999:1] [1807.5:2865] [1807.9000000000001:2864.9000000000001]
tree_sizes=3405 3331 3308 3451 3411 3400 3449 3402 3383 3443 3417 3411 3433 3394 3400 3434 3408 3419 3455 3422 3406 3420 3428 3402 3440 3419 3415 3437 3407 3407 3434 3400 3403 3443 3431 3375 3419 3409 3416 3435 3413 3413 3418 3401 3409 3407 3427 3401 3412 3384 3417 3422 3437 3385 3365 3411 3426 3428 3400 3431 3365 3403 3403 3382 3412 3388 3390 3386 3420 3376 3383 3393 3391 3401 3374 3404 3399 3365 3400 3418 3410 3395 3426 3396 3400 3395 3376 3389 3388 3401 3378 3396 3373 3391 3405 3407 3395 3416 3396 3374 3365 3364 3373 3351 3372 3381 3424 3407 3384 3456 3415 3373 3400 3382 3378 3404 3407 3400 3420 3409 3365 3375 3396 3401 3415 3411 3408 3409 3370 3381 3380 3421 3408 3391 3388 3381 3370 3415 3398 3412 3377 3408 3408 3387 3399 3391 3390 3379 3373 3398 3358 3385 3407 3373 3411 3423 3386 3424 3372 3399 3388 3382 3390 3382 3403 3372 3376 3377 3384 3383 3397 3401 3389 3383 3402 3365 3370 3388 3396 3379 3382 3389 3363 3364 3357 3379 3394 3362 3387 3387 3383 3373 3374 3378 3373 3385 3374 3407 3379 3378 3371 3370 3401 3386 3404 3376 3393 3359 3374 3374 3402 3397 3343 3377 3368 3383 3389 3352 3400 3392 3398 3366 3397 3404 3375 3376 3351 3386 3375 3354 3382 3428 3390 3348 3404 3393 3386 3425 3371 3376 3352 3362 3375 3383 3390 3372 3388 3364 3362 3369 3398 3380 3405 3394 3342 3379 3372 3401 3380 3364 3372 3372 3375 3402 3374 3375 3402 3382 3381 3407 3389 3386 3364 3408 3389 3380 3389 3372 3378 3373 3383 3383 3383 3407 3390 3407 3394 3382 3415 3396 3378 3385 3376 3326 3386 3369 3348 3362 3383 3382

Tree=0
num_leaves=31
num_cat=0
split_feature=9 9 15 16 16 9 14 9 13 10 14 11 16 9 6 0 6 9 6 0 9 6 0 15 9 5 16 10 10 14
split_gain=75.3199 91.7688 96.4806 39.8205 39.8079 29.316 34.0313 27.9184 25.9268 25.4333 24.5484 19.9834 12.6404 12.3477 11.3245 8.82805 9.52828 8.83909 10.1818 10.2017 8.53327 9.01912 8.0469 11.4394 7.30125 9.94509 7.24033 7.36513 7.00828 7.73091
threshold=-0.15014999999999998 0.14425000000000002 3577.5000000000005 0.49500000000000005 -0.53499999999999992 0.039150000000000011 712.50000000000011 -0.042349999999999992 1780152.5000000002 325.50000000000006 1980.0000000000002 197.50000000000003 0.19500000000000003 -0.050949999999999988 3522133.0000000005 2068.1000000000004 13428984.500000002 -0.030549999999999997 18579404.000000004 2596.1000000000004 0.30855000000000005 89576289.500000015 2426.3000000000006 1790.5000000000002 -0.091049999999999978 12125.000000000002 0.74500000000000011 43.500000000000007 47.500000000000007 1694.5000000000002
decision_type=2 2 2 2 2 2 2 2 2 2 2 2 2 2 2 2 2 2 2 2 2 2 2 2 2 2 2 2 2 2
left_child=4 2 5 11 -1 6 7 -2 -7 -6 13 -3 -13 -4 -9 26 -17 -18 -19 -20 21 -5 23 -16 25 -12 27 -8 -15 -30
right_child=1 3 10 20 9 8 15 14 -10 -11 24 12 -14 28 22 16 17 18 19 -21 -22 -23 -24 -25 -26 -27 -28 -29 29 -31
leaf_value=-0.24151080315720042 -0.27134227409100414 -0.27034777077245364 -0.28663311207334735 -0.25260100763173465 -0.27054773281127847 -0.27003419192494871 -0.28854849921512293 -0.29605052921783426 -0.29873995119546715 -0.32265247132368519 -0.29651445752440037 -0.34129394830738291 -0.28968335325890959 -0.24446512745979554 -0.3875940259523723 -0.3029970007442091 -0.2968154292104549 -0.36999402071685383 -0.36481986448440379 -0.26175732463712265 -0.22420681434859735 -0.37972092716364103 -0.30436412447149852 -0.30658703900519008 -0.35149812462671121 -0.35318016646703737 -0.28146156679055329 -0.33067919842748478 -0.36170881334942162 -0.27250596398376353
leaf_weight=382.75055432319641 486.25813364982605 263.31873202323914 130.52192008495331 299.71700167655945 337.53707873821259 659.14991450309753 46.066560029983521 841.99434721469879 601.99325668811798 129.66883563995361 63.696971893310547 85.877167463302612 106.06683266162872 7.3933985233306876 38.104438543319702 909.10365688800812 54.881765961647034 66.824948191642761 16.777327418327332 22.46455705165863 127.96266674995422 5.6872296333312979 81.611745238304138 32.132847428321838 446.44752621650696 60.284634113311768 38.673161506652832 418.01137804985046 58.294103741645813 11.658820748329161
leaf_count=1346 1710 926 459 1054 1187 2318 162 2961 2117 456 224 302 373 26 134 3197 193 235 59 79 450 20 287 113 1570 212 136 1470 205 41
internal_value=-0.293276 -0.297234 -0.302409 -0.267582 -0.265421 -0.296562 -0.301861 -0.290977 -0.283737 -0.285009 -0.334815 -0.288235 -0.312774 -0.305395 -0.300584 -0.312103 -0.306967 -0.329394 -0.346251 -0.30582 -0.245885 -0.254968 -0.32572 -0.350534 -0.345536 -0.324068 -0.323033 -0.326497 -0.337056 -0.346842
internal_weight=0 5980.98 5092.35 888.63 849.956 4314.05 3052.9 1480.1 1261.14 467.206 778.297 455.263 191.944 207.868 993.843 1572.8 1070.05 160.949 106.067 39.2419 433.367 305.404 151.849 70.2373 570.429 123.982 502.751 464.078 77.3463 69.9529
internal_count=24022 21033 17908 3125 2989 15171 10736 5205 4435 1643 2737 1601 675 731 3495 5531 3763 566 373 138 1524 1074 534 247 2006 436 1768 1632 272 246
is_linear=0
shrinkage=1


Tree=1
num_leaves=31
num_cat=0
split_feature=16 9 16 14 16 9 12 10 7 9 11 10 11 14 14 12 9 9 6 11 10 11 11 14 13 13 11 6 4 10
split_gain=298.796 112.889 62.5489 61.4636 36.917 19.8546 34.3959 17.9919 17.609 21.3021 17.4812 11.2872 12.6703 23.6838 11.2566 11.1446 11.067 10.7935 15.3501 10.796 10.5449 10.5242 10.1957 10.095 10.707 9.85833 9.91803 9.46515 9.63036 9.10215
threshold=-0.22499999999999998 0.053950000000000005 0.055000000000000007 2564.0000000000005 -0.53499999999999992 0.14175000000000001 4568281.0000000009 188.50000000000003 423.50000000000006 0.23960000000000001 202.50000000000003 122.50000000000001 159.50000000000003 3849.5000000000005 9377.0000000000018 29573671.000000004 0.068350000000000008 0.023750000000000004 9304767.5000000019 80.500000000000014 88.500000000000014 739.50000000000011 117.50000000000001 834.50000000000011 4159998.0000000005 3780115.5000000005 55.500000000000007 17517917.000000004 0.00015000000000000004 108.50000000000001
decision_type=2 2 2 2 2 2 2 2 2 2 2 2 2 2 2 2 2 2 2 2 2 2 2 2 2 2 2 2 2 2
left_child=4 2 11 23 -1 6 -3 17 -7 15 -6 -2 13 -13 22 -10 -16 18 19 -5 -20 -9 -8 -4 25 26 -25 28 -22 -19
right_child=1 5 3 7 10 8 14 21 9 -11 -12 12 -14 -15 16 -17 -18 29 20 -21 27 -23 -24 24 -26 -27 -28 -29 -30 -31
leaf_value=-2.1144356349762665 -2.0561290010792446 -2.0760796468498919 -2.0358007042759971 -1.8490795343637665 -2.0715772610710133 -2.0936418901931111 -2.021113523270393 -1.9450375812743641 -2.0464923303493587 -2.0785109988042678 -2.1052596876450158 -2.0091216063372968 -2.0442730062197096 -1.786903301633517 -1.8517855597352995 -1.9714362798760308 -1.9996495055603523 -2.1028762297359784 -2.0807822355791763 -2.0346355598403236 -1.9801130143544619 -1.7924186765843177 -2.0629364849588736 -1.9930868502820911 -2.0907372644180011 -1.9134175178126573 -2.0269782574454176 -2.0323161095218665 -1.8838712891406209 -2.0027825850481107
leaf_weight=606.93343925476074 392.36776304244995 271.04791808128357 286.08756828308105 14.371221303939821 535.07733273506165 287.25731885433197 183.65083968639374 131.51338565349579 47.79266619682312 155.74393320083618 216.40385568141937 64.670495867729187 148.72542977333069 5.1803239583969107 6.0158600807189933 33.755659341812134 31.917479872703552 12.700149059295653 11.196184039115904 4.0105733871459952 37.599125504493713 4.6790022850036612 85.391791701316833 171.28490507602692 16.042293548583984 10.861969590187071 174.125727891922 21.556831955909729 14.371221303939818 31.917479872703552
leaf_count=3632 2348 1622 1712 86 3202 1719 1099 787 286 932 1295 387 890 31 36 202 191 76 67 24 225 28 511 1025 96 65 1042 129 86 191
internal_value=-2.05794 -2.03843 -2.02106 -2.0049 -2.09609 -2.0629 -2.05012 -1.96601 -2.07699 -2.05683 -2.08128 -2.04598 -2.02777 -1.99264 -2.0272 -2.01542 -1.9762 -1.99018 -1.9724 -1.88956 -1.99037 -1.93979 -2.03439 -2.02167 -2.01082 -2.00722 -2.01017 -1.97661 -1.9535 -2.03127
internal_weight=0 2655.84 1553.26 942.318 1358.41 1102.57 578.024 283.915 524.55 237.292 751.481 610.944 218.576 69.8508 306.976 81.5483 37.9333 147.723 103.105 18.3818 84.7234 136.192 269.043 658.402 372.315 356.273 345.411 73.5272 51.9703 44.6176
internal_count=24022 15893 9295 5639 8129 6598 3459 1699 3139 1420 4497 3656 1308 418 1837 488 227 884 617 110 507 815 1610 3940 2228 2132 2067 440 311 267
is_linear=0
shrinkage=1


Tree=2
num_leaves=31
num_cat=0
split_feature=16 9 11 16 16 16 9 15 13 9 0 11 11 7 9 10 12 11 5 10 11 10 2 0 16 0 11 15 11 9
split_gain=340.421 92.2882 168.47 38.432 36.5621 32.466 37.6309 29.5346 29.5285 23.6118 21.627 19.4657 13.3753 13.0431 12.9554 12.5804 11.744 11.2996 10.5697 11.1854 10.5442 10.0706 10.0179 9.97715 10.2002 9.83947 13.598 9.65062 9.52506 9.49943
threshold=0.14500000000000005 -0.11764999999999999 183.50000000000003 -0.19499999999999998 0.43500000000000005 -0.18499999999999997 -0.020249999999999994 6495.5000000000009 21555605.000000004 -0.30089999999999995 2490.5000000000005 120.50000000000001 42.500000000000007 78.500000000000014 -0.053549999999999993 415.50000000000006 6560458.5000000009 47.500000000000007 3630.5000000000005 209.50000000000003 635.00000000000011 126.50000000000001 1941.7 2204.2000000000003 0.065000000000000016 1869.1000000000001 22.500000000000004 7368.0000000000009 263.50000000000006 -0.20684999999999998
decision_type=2 2 2 2 2 2 2 2 2 2 2 2 2 2 2 2 2 2 2 2 2 2 2 2 2 2 2 2 2 2
left_child=1 8 5 7 -2 6 11 14 29 15 -9 22 25 -14 -4 -10 -6 -7 -16 -20 21 -12 -3 24 28 26 -8 -23 -5 -1
right_child=4 2 3 23 16 17 12 10 9 -11 20 -13 13 -15 18 -17 -18 -19 19 -21 -22 27 -24 -25 -26 -27 -28 -29 -30 -31
leaf_value=-2.1109603544814424 -2.0862099855550484 -2.034766039325973 -2.0138812452132018 -1.9960697884240108 -2.1046456212337765 -2.0846838604124378 -2.0435118870778024 -1.8297267574976188 -2.1026749748107658 -2.0073330204785078 -1.8061495790931523 -2.0125521681226988 -1.885461924134028 -1.9996813806078446 -2.0253750060842544 -2.0326059203029305 -2.1274861420507967 -2.0545842851253839 -1.8905060718875528 -2.0837427867362175 -1.8068595361459479 -2.0908423572641732 -2.0736297995968083 -2.014474940671624 -2.0557774052663436 -2.0540619481770368 -1.7820110392981032 -1.9476126495199519 -1.861454334826113 -2.0797795196694961
leaf_weight=153.94468893110752 749.8382318764925 91.471978783607483 39.936135664582253 8.78263564407826 448.7429683804512 170.01856926083565 4.9713031947612745 35.627672895789146 67.609723448753357 92.134819209575653 4.1427526623010626 99.591774001717567 10.439736708998678 236.13690175116062 10.108316496014593 41.261816516518593 451.72575029730797 468.13105084002018 31.153500020503998 3.3142021298408499 5.6341436207294455 5.6341436207294455 241.27391505241394 118.8141463547945 6.7941143661737433 71.08963568508625 3.3142021298408508 28.502138316631317 13.091098412871359 267.45611187815666
leaf_count=929 4525 552 241 53 2708 1026 30 215 408 556 25 601 63 1425 61 249 2726 2825 188 20 34 34 1456 717 41 429 20 172 79 1614
internal_value=-2.06777 -2.04316 -2.03115 -1.96466 -2.10252 -2.04598 -2.03199 -1.93135 -2.07613 -2.04459 -1.88762 -2.05134 -2.00634 -1.99485 -1.97252 -2.07612 -2.1161 -2.0626 -1.93546 -1.90909 -1.93458 -1.95338 -2.06295 -2.0017 -1.94875 -2.04204 -1.93891 -1.97125 -1.9155 -2.09117
internal_weight=0 2330.38 1707.97 311.535 1650.31 1396.44 758.289 164.053 622.407 201.006 79.5409 432.338 325.952 246.577 84.5122 108.872 900.469 638.15 44.576 34.4677 43.9132 38.279 332.746 147.482 28.6678 79.3751 8.28551 34.1363 21.8737 421.401
internal_count=24022 14063 10307 1880 9959 8427 4576 990 3756 1213 480 2609 1967 1488 510 657 5434 3851 269 208 265 231 2008 890 173 479 50 206 132 2543
is_linear=0
shrinkage=1


Tree=3
num_leaves=31
num_cat=0
split_feature=9 9 15 16 16 9 14 9 13 10 9 5 11 16 15 10 9 4 11 10 6 0 12 10 6 0 14 10 7 11
split_gain=60.1959 70.8778 71.1115 34.0646 33.8045 23.2209 25.5494 22.8416 21.4325 20.6887 17.8925 20.3951 16.3064 10.8162 9.76179 9.10434 8.12397 7.86342 7.63767 8.1482 7.62131 7.41103 7.27413 7.27032 8.20773 15.1715 7.25696 7.1084 6.82704 6.94283
threshold=-0.15014999999999998 0.14425000000000002 3577.5000000000005 -0.53499999999999992 0.49500000000000005 0.039150000000000011 712.50000000000011 -0.042349999999999992 1780152.5000000002 325.50000000000006 -0.052549999999999993 7796.0000000000009 242.50000000000003 0.19500000000000003 1175.5000000000002 380.50000000000006 0.30855000000000005 0.00015000000000000004 165.50000000000003 205.50000000000003 89576289.500000015 2068.1000000000004 7611181.0000000009 85.500000000000014 17517917.000000004 2596.1000000000004 5043.5000000000009 49.500000000000007 537.50000000000011 329.50000000000006
decision_type=2 2 2 2 2 2 2 2 2 2 2 2 2 2 2 2 2 2 2 2 2 2 2 2 2 2 2 2 2 2
left_child=3 2 5 -1 12 6 7 -2 -7 -5 11 -4 -3 28 -9 17 20 26 27 -20 -6 -8 -23 -24 -25 -26 -13 -12 -14 -30
right_child=1 4 10 9 16 8 21 14 -10 -11 18 15 13 -15 -16 -17 -18 -19 19 -21 -22 22 23 24 25 -27 -28 -29 29 -31
leaf_value=0.048154098314838113 0.020016387914399667 0.017578783524159255 0.01311402578281529 0.020690622106261342 0.037009318376407682 0.021342985428436861 -0.026094539069506768 -0.0025840275885307927 -0.004833834878519838 -0.026093772507763437 0.073425297027306158 -0.027169334039083309 -0.14052752875575189 0.0016757124502217982 -0.03112177020955896 -0.080774950729881265 0.065496519571926579 -0.059263257715738815 -0.078434294448476924 -0.045105074235223842 -0.077648078517521923 -0.0078692382693423529 0.063850565385141084 -0.052340547163868482 -0.058589336223075709 0.034738895291882219 0.029022213122216291 -0.032671978735118228 0.0085003939707861131 -0.064078159910130369
leaf_weight=366.08695408701897 478.04420512914658 301.19781640172005 131.06532257795334 331.40206179022789 288.09576359391212 647.97862339019775 513.88965830206871 859.60182106494904 604.63865295052528 132.23798218369484 6.6725981235504142 94.937724351882935 7.7478752434253684 82.401758074760437 139.2867488861084 38.727214068174362 120.89551424980164 53.841286987066269 109.06098994612694 224.02807894349098 5.9163500368595114 905.61827659606934 7.9106318950653067 101.7750523686409 32.064794898033142 38.132397472858429 30.324552834033966 117.78353643417358 19.390722811222076 41.151045262813568
leaf_count=1346 1710 1078 461 1187 1054 2318 1768 3013 2117 456 24 325 26 292 482 129 450 183 364 750 20 3147 28 346 109 133 102 399 66 139
internal_value=0 -0.00338479 -0.00784929 0.0253516 0.0230654 -0.00277028 -0.00744377 0.00203979 0.00870743 0.00734692 -0.0351132 -0.0180556 0.00414245 -0.0227137 -0.00656338 -0.0368098 0.043675 -0.0273033 -0.0481203 -0.0560178 0.0347021 -0.0162012 -0.0115176 -0.0298852 -0.034197 -0.00789174 -0.013566 -0.0269837 -0.0521433 -0.0408322
internal_weight=0 6002.18 5135.38 829.727 866.797 4328.94 3076.32 1476.93 1252.62 463.64 806.441 348.896 451.889 150.691 998.889 217.831 414.908 179.104 457.545 333.089 294.012 1599.39 1085.5 179.883 171.972 70.1972 125.262 124.456 68.2896 60.5418
internal_count=24022 21033 17908 2989 3125 15171 10736 5205 4435 1643 2737 1200 1601 523 3495 739 1524 610 1537 1114 1074 5531 3763 616 588 242 427 423 231 205
is_linear=0
shrinkage=0.1


Tree=4
num_leaves=31
num_cat=0
split_feature=16 9 16 14 16 11 9 14 12 9 10 0 9 15 10 11 10 11 14 10 7 14 13 9 13 11 9 14 14 11
split_gain=256.877 86.6357 48.5106 42.1924 33.9136 16.4823 16.1067 34.1071 14.0378 14.1085 12.4433 9.14185 11.5456 10.8124 12.2547 9.12097 8.64055 10.0796 14.639 8.66243 8.8525 8.16611 8.10936 10.3728 9.82238 7.90101 8.5659 8.1754 11.689 7.83434
threshold=-0.22499999999999998 0.053950000000000005 0.055000000000000007 2640.5000000000005 -0.53499999999999992 202.50000000000003 0.22530000000000003 9377.0000000000018 4568281.0000000009 0.14175000000000001 85.500000000000014 2563.9000000000005 0.049050000000000003 1538.5000000000002 389.50000000000006 117.50000000000001 122.50000000000001 159.50000000000003 3849.5000000000005 477.50000000000006 1073.5000000000002 1853.5000000000002 1943119.5000000002 0.12455000000000001 2783984.0000000005 97.500000000000014 -0.038749999999999993 1153.5000000000002 1230.5000000000002 115.50000000000001
decision_type=2 2 2 2 2 2 2 2 2 2 2 2 2 2 2 2 2 2 2 2 2 2 2 2 2 2 2 2 2 2
left_child=4 2 16 -4 29 -6 7 8 -3 15 -5 12 -12 -13 -15 22 25 18 -18 21 -21 -19 -10 24 -24 26 27 -2 -29 -1
right_child=1 6 3 10 5 -7 -8 -9 9 -11 11 13 -14 14 -16 -17 17 19 -20 20 -22 -23 23 -25 -26 -27 -28 28 -30 -31
leaf_value=-0.040874771046886346 0.015884369764920137 -0.020336829431620213 0.032319298472595438 0.0016049368341522251 -0.012820533519263514 -0.045955898347116553 -0.025946538340077221 0.061142243921167176 0.0073262997859029864 -0.017119167241872818 0.10496107586766018 0.1162126137248619 -0.011199681015013162 0.028687243913609595 0.12128932570445838 -0.0060063786314010891 0.04247993916475945 0.10972215996932598 0.20047378517277298 0.20027201818443158 0.038743277720542868 -0.0059031268200793723 0.081969112409894962 0.12158309240662386 0.014862858035303204 -0.025976725396813095 -0.0026656976952213296 0.24487919291564225 0.053655903969533639 -0.064560550358142621
leaf_weight=240.53059595823288 73.68566058576107 317.38616275787354 687.6303895264864 20.357751458883286 529.36556752026081 209.54100015759468 259.59641826152802 88.846138387918472 73.794551089406013 151.0933173596859 150.42177809774876 28.382720708847046 9.0726089328527433 77.129899561405182 17.540941968560219 86.421632573008537 67.75471805036068 6.4399144202470771 6.4202111661434165 3.969173893332484 23.367333441972733 118.56577904522419 32.729280516505241 17.129997923970222 65.388839900493622 83.100440382957458 211.29424548149109 3.7323850691318539 22.271218568086624 332.94354605674744
leaf_count=1514 442 1948 3978 118 3202 1295 1605 501 433 934 817 157 51 425 93 511 387 38 31 23 136 693 189 99 378 494 1258 22 132 2118
internal_value=0 0.0175423 0.0322825 0.0460173 -0.036379 -0.0222171 -0.00419784 0.00258164 -0.00441201 0.00743708 0.0771134 0.0825539 0.0983534 0.0620754 0.0458449 0.0209063 0.0103605 0.025924 0.0561551 0.0112046 0.0621967 5.35375e-05 0.0332095 0.0497828 0.0372475 0.00141465 0.00873413 0.0328964 0.0811028 -0.0546261
internal_weight=0 2703.52 1611.14 990.536 1312.38 738.907 1092.39 832.79 743.944 426.558 302.906 282.548 159.494 123.054 94.6708 275.464 620.601 226.517 74.1749 152.342 27.3365 125.006 189.043 115.248 98.1181 394.084 310.984 99.6893 26.0036 573.474
internal_count=24022 15893 9295 5639 8129 4497 6598 4993 4492 2544 1661 1543 868 675 518 1610 3656 1308 418 890 159 731 1099 666 567 2348 1854 596 154 3632
is_linear=0
shrinkage=0.1


Tree=5
num_leaves=31
num_cat=0
split_feature=16 9 11 16 16 13 9 11 10 16 9 9 11 14 5 7 10 10 11 8 9 14 18 0 7 9 10 14 12 10
split_gain=289.303 74.8328 113.788 34.7048 31.1778 26.6771 27.9588 23.9541 23.6923 19.9189 18.9666 14.2164 15.5802 12.0924 11.8687 11.9008 11.4563 10.7548 16.4754 13.1388 11.2542 10.5303 10.1815 9.70955 9.24032 9.11131 8.81306 11.9325 12.8377 10.1269
threshold=0.13500000000000004 -0.08614999999999999 132.50000000000003 0.45500000000000007 -1.0000000180025095e-35 21555605.000000004 -0.19599999999999998 227.50000000000003 147.50000000000003 -0.14499999999999999 -0.044549999999999992 -0.20684999999999998 189.50000000000003 2529.5000000000005 5783.5000000000009 489.50000000000006 94.500000000000014 83.500000000000014 57.500000000000007 2374.0500000000006 0.081450000000000009 2224.5000000000005 2600.0500000000006 2047.7 335.50000000000006 0.10245000000000001 188.50000000000003 1383.5000000000002 3652980.5000000005 115.50000000000001
decision_type=2 2 2 2 2 2 2 2 2 2 2 2 2 2 2 2 2 2 2 2 2 2 10 2 2 2 2 2 2 2
left_child=1 5 9 -2 7 11 -7 8 24 10 -3 -1 -13 -5 -9 16 -16 18 -12 20 -20 -6 -8 -18 -4 -11 27 -14 -29 -30
right_child=3 2 4 13 21 6 22 14 -10 25 17 12 26 -15 15 -17 23 -19 19 -21 -22 -23 -24 -25 -26 -27 -28 28 29 -31
leaf_value=-0.040682256314160767 -0.017948498471743762 0.00025486572309370851 0.089507036797573949 -0.033880347560778595 -0.067488351881189096 0.0057709397975622872 0.11779637827847399 0.048914440832664718 0.025096232846697122 -0.0026052009481869077 0.026215786950057725 -0.016256998638896531 0.0020271966158011889 -0.058367758601635317 0.040971011247479622 0.11340890493527629 0.31745607558536693 0.0070226992124236293 0.084464964841594201 0.038912572439160964 0.24309058300712258 0.037677706230520691 0.031057260306734259 0.17619785931849036 0.23590783687546094 0.047630832386180849 -0.015556164670357545 0.19505060964729559 -0.029309341458360918 0.085122188353315309
leaf_weight=145.75892655551434 812.68418861925602 168.41355803608894 129.53687252104282 371.47979147732258 10.773853093385695 161.85478337109089 37.37502284348011 19.754076287150383 78.139603063464165 417.37379814684391 198.11181776225567 318.33749821782112 38.270760580897331 441.14389869570732 5.0144806802272788 93.897125691175461 6.0559728294611004 84.541281342506409 97.836681202054024 87.200758099555969 4.686935067176818 81.887661427259445 21.213647082448006 24.763737201690674 4.4596421718597403 39.522323027253151 36.047027856111526 7.7308711111545554 10.621191307902334 28.446859836578369
leaf_count=927 4971 1015 733 2323 63 973 208 109 441 2504 1160 1932 231 2825 26 498 31 487 561 504 27 467 119 132 24 238 214 46 64 169
internal_value=0 0.0222763 0.0351127 -0.0325605 0.0772031 -0.0024509 0.0271976 0.0904643 0.0688593 0.0176933 0.0290682 -0.0136192 -0.00464284 -0.0471737 0.121124 0.13212 0.181147 0.0393408 0.0463855 0.0674469 0.0917166 0.0254499 0.0863901 0.203955 0.0943795 0.0017403 0.0258833 0.0434426 0.077311 0.0540124
internal_weight=0 2357.63 1551.97 1625.31 454.283 805.657 220.443 361.622 212.136 1097.69 640.791 585.213 439.454 812.624 149.485 129.731 35.8342 472.377 387.836 189.724 102.524 92.6615 58.5887 30.8197 133.997 456.896 121.117 85.0697 46.7989 39.0681
internal_count=24022 13903 9020 10119 2524 4883 1300 1994 1198 6496 3754 3583 2656 5148 796 687 189 2739 2252 1092 588 530 327 163 757 2742 724 510 279 233
is_linear=0
shrinkage=0.1


Tree=6
num_leaves=31
num_cat=0
split_feature=9 9 5 16 14 9 9 13 16 16 12 11 4 16 16 6 0 9 9 16 6 10 10 9 10 11 10 14 16 9
split_gain=48.825 52.4325 48.4056 28.4821 26.8406 24.5105 23.9369 19.6617 16.4406 16.2142 15.8521 13.4301 11.8047 10.38 9.5005 8.20721 8.10205 7.92688 7.63208 6.66419 6.53739 6.4973 7.46492 6.20905 6.17251 7.7522 5.88925 8.06021 6.04017 5.40005
threshold=-0.19599999999999998 0.14425000000000002 7796.0000000000009 0.49500000000000005 5834.5000000000009 -0.08614999999999999 0.039150000000000011 2163923.0000000005 -0.62499999999999989 0.72500000000000009 1485972.5000000002 197.50000000000003 0.00025000000000000006 -0.45499999999999996 -0.44499999999999995 15052001.500000002 2068.1000000000004 0.40305000000000007 0.26405000000000006 -0.11499999999999998 76565205.500000015 170.50000000000003 195.50000000000003 -0.049649999999999993 114.50000000000001 134.50000000000003 47.500000000000007 1078.5000000000002 0.74500000000000011 -0.39134999999999992
decision_type=2 2 2 2 2 2 2 2 2 2 2 2 2 2 2 2 2 2 2 2 2 2 2 2 2 2 2 2 2 2
left_child=4 2 5 11 12 8 10 19 -2 -4 -7 -3 29 -9 -6 16 26 -13 20 -8 -5 -21 -23 -17 25 -10 27 -12 -28 -1
right_child=1 3 9 18 14 6 7 13 24 -11 15 17 -14 -15 -16 23 -18 -19 -20 21 -22 22 -24 -25 -26 -27 28 -29 -30 -31
leaf_value=0.07300003909628297 0.043536593626210339 0.018720029508924704 -0.031413155738754507 0.032091605105619238 0.034984400953484117 -0.0015701815493446394 -0.015800658614942467 -0.074866249407805882 0.0056960419906122543 0.043388269484735537 -0.026645149876226251 -0.028357566230421478 -0.043935980169417549 -0.0057008037696406567 -0.020477798549210335 -0.0018057539502337159 -0.0094186103440004089 0.017044570690975602 0.057361016504506472 0.022843572230819786 -0.060329805068219514 -0.070063836908521124 0.012963845974679512 -0.05285555657197985 -0.011832328207830908 0.041693286812432444 -0.033379017602415621 0.050668128217343622 0.016697230983693242 0.040572089959998642
leaf_weight=61.016718596220016 163.392673432827 253.46652537584305 773.91119229793549 232.20361638069153 41.709055930376053 1240.1137248277664 56.129459470510483 22.821687430143356 267.05497393012047 30.105692982673645 33.337715625762939 143.07457649707794 15.271974712610243 440.622040361166 119.01609364151955 31.292380779981613 974.17630913853645 52.589344382286072 157.71110340952873 617.16571429371834 7.9143378138542166 16.403719037771225 31.862536251544952 99.843343585729599 129.77854672074318 77.096611022949219 363.54889866709709 22.643582880496979 25.79629921913147 324.21066063642502
leaf_count=233 609 926 2569 880 153 4345 198 77 953 105 115 489 57 1529 411 107 3348 186 617 2243 27 59 115 327 453 278 1221 78 89 1225
internal_value=0 -0.00235203 -0.00596963 0.0207859 0.0284362 -0.00202323 -0.00494167 0.00696593 0.0161826 -0.0286123 -0.00999785 0.00352685 0.0422901 -0.00910677 -0.00608505 -0.0167378 -0.0145266 -0.0161547 0.0402705 0.0172891 0.0290454 0.0200802 -0.0152539 -0.0406738 0.00675202 0.0137601 -0.0257006 0.00462689 -0.0300612 0.0457084
internal_weight=0 6264.06 5417.1 846.96 561.225 4613.08 3975.76 1185.01 637.323 804.017 2790.75 449.13 400.499 463.444 160.725 1550.64 1419.5 195.664 397.829 721.561 240.118 665.432 48.2663 131.136 473.93 344.152 445.326 55.9813 389.345 385.227
internal_count=24022 21943 18818 3125 2079 16144 13851 4221 2293 2674 9630 1601 1515 1606 564 5285 4851 675 1524 2615 907 2417 174 434 1684 1231 1503 193 1310 1458
is_linear=0
shrinkage=0.1


Tree=7
num_leaves=31
num_cat=0
split_feature=16 9 16 10 9 11 16 12 6 16 15 5 16 10 9 9 12 6 15 13 10 9 11 13 11 16 11 12 7 9
split_gain=223.384 50.6099 67.6885 41.0757 18.1636 17.3745 13.8019 11.3713 11.2777 10.8651 14.1372 11.0571 10.1409 9.83659 17.548 11.4937 10.0917 9.31601 8.83201 8.7436 11.7469 8.58538 8.09628 8.0099 9.93892 7.86813 8.87832 7.70735 8.60486 7.64622
threshold=-0.37499999999999994 0.092300000000000007 0.055000000000000007 174.50000000000003 0.031650000000000005 195.50000000000003 0.43500000000000005 4514410.5000000009 5901910.0000000009 0.54500000000000015 730.50000000000011 3213.5000000000005 -0.17499999999999996 272.50000000000006 0.32190000000000002 0.14175000000000001 4696508.5000000009 4261421.0000000009 3682.0000000000005 13353722.000000002 604.50000000000011 0.039150000000000011 111.50000000000001 11285391.500000002 206.50000000000003 -0.54499999999999993 71.500000000000014 80698543.500000015 2200.5000000000005 0.023750000000000004
decision_type=2 2 2 2 2 2 2 2 2 2 2 2 2 2 2 2 2 2 2 2 2 2 2 2 2 2 2 2 2 2
left_child=5 2 12 4 6 7 -4 25 -8 -10 11 -11 -2 15 27 16 -3 -6 -5 23 -21 -14 -18 24 -20 -1 -27 -15 -29 -25
right_child=1 13 3 18 17 -7 8 -9 9 10 -12 -13 21 14 -16 -17 22 -19 19 20 -22 -23 -24 29 -26 26 -28 28 -30 -31
leaf_value=-0.046158094235430651 -0.010121320965761568 -0.022971624332754348 0.02521014407831771 0.05641920527349388 -0.0096733208157345242 -0.063044241769196832 0.041686869730746361 0.046588685953164559 0.140616178434053 0.017603489675515973 -0.019008045312384002 0.15439900323792094 0.014867408069636729 0.019714303261996413 -0.027732968914663293 -0.031705758294477852 0.033389991411957816 0.02314203929079104 0.15509494197837878 0.039405066683469117 0.1337186692254087 -0.021280679527178586 -0.02219884309578532 0.13421405426616775 0.023528415546380594 0.00015418816861025741 -0.03807000883065989 0.20172977656533733 0.0015272066194084697 0.28099946395070291
leaf_weight=336.82514074444771 458.40197886526585 117.16317272186279 433.23588488996029 169.26820071041584 163.49888870120049 305.70085468888283 172.83225736021996 17.095034196972847 25.989353761076927 9.4208247065544146 15.055554226040838 15.850026950240133 482.66253939270973 174.20074105262756 100.26306466758251 266.73611707985401 92.164773538708687 183.72711178660393 12.37450358271599 40.407951831817627 19.617511406540871 76.056961759924889 36.607201188802719 9.8329884707927686 10.712371736764906 101.03641723096371 152.45290058851242 5.003245070576666 3.7604491114616394 5.5528685003519049
leaf_count=2225 2794 732 2409 901 988 2042 959 104 135 51 78 81 2800 1028 643 1713 520 1058 62 201 93 455 213 49 54 623 936 27 20 28
internal_value=0 0.0126751 0.0201836 0.0354172 0.0262634 -0.0436002 0.0358548 -0.0338142 0.0551384 0.090196 0.0577014 0.103402 0.000902315 -0.00906529 0.00589173 -0.0173284 -0.00173495 0.00769022 0.0702733 0.0940814 0.0702286 0.00994667 0.0175872 0.131297 0.0940477 -0.0361426 -0.0228345 0.0243178 0.115824 0.18719
internal_weight=0 3100.4 2304.5 1287.38 1019.61 913.11 672.384 607.409 239.148 66.3158 40.3264 25.2709 1017.12 795.899 283.227 512.671 245.935 347.226 267.766 98.4982 60.0255 558.72 128.772 38.4727 23.0869 590.314 253.489 182.964 8.76369 15.3859
internal_count=24022 18092 13196 7147 5759 5930 3713 3888 1304 345 210 132 6049 4896 1718 3178 1465 2046 1388 487 294 3255 733 193 116 3784 1559 1075 47 77
is_linear=0
shrinkage=0.1


Tree=8
num_leaves=31
num_cat=0
split_feature=16 9 11 16 16 11 13 9 9 16 9 10 6 2 12 8 5 11 10 10 11 10 9 14 14 6 10 10 13 11
split_gain=246.665 53.9668 85.1751 30.1539 24.5063 22.1119 21.4612 16.8159 15.313 24.4626 12.9982 11.8315 12.0465 10.9585 10.8702 10.5915 11.6862 12.3416 10.5951 9.49649 9.13225 8.75429 9.94172 8.68765 8.64401 8.61353 8.43022 12.0776 8.40072 8.09558
threshold=0.14500000000000005 -0.11764999999999999 132.50000000000003 0.43500000000000005 -1.0000000180025095e-35 258.50000000000006 21555605.000000004 -0.30089999999999995 -0.044549999999999992 -0.39499999999999996 -0.061749999999999992 133.50000000000003 7565150.5000000009 1941.7 6560458.5000000009 2536.6500000000001 7032.5000000000009 312.50000000000006 243.50000000000003 415.50000000000006 199.50000000000003 112.50000000000001 1.0000000180025095e-35 2164.5000000000005 3913.5000000000005 4959891.5000000009 87.500000000000014 97.500000000000014 2985947.5000000005 45.500000000000007
decision_type=2 2 2 2 2 2 2 2 2 2 2 2 2 2 2 2 2 2 2 2 2 2 2 2 2 2 2 2 2 2
left_child=1 6 8 -2 5 10 -1 19 13 -10 -4 12 25 -3 -5 16 -7 18 -18 -8 24 22 -14 -6 -13 28 -24 -28 -12 -11
right_child=3 2 4 14 23 15 7 -9 9 29 11 20 21 -15 -16 -17 17 -19 -20 -21 -22 -23 26 -25 -26 -27 27 -29 -30 -31
leaf_value=-0.019731412610941551 -0.016564924377522019 0.029016966405588381 0.023887963307391267 -0.033235760422806536 -0.067095526417468979 0.049281526347288829 -0.031915138346452397 0.049689726176352415 0.047498817310633323 -0.0069282188647495002 0.054483964376426643 0.036636707865216445 0.10487171004735724 -0.014611964362837938 -0.056265546018853252 0.069200437506666865 0.24288883641283646 0.11270641689160395 0.082497653504144883 0.028629930250163978 0.079530911663694748 0.065134419670441868 0.10347402282488419 0.026597095816897301 -0.060277493737822811 -0.0017163396289048194 0.38764464391544901 0.1719881764921718 0.2234247157244339 0.017351087718089797
leaf_weight=398.61708480119705 730.27139328420162 73.969787195324898 99.547306180000305 418.90798327326775 10.975421920418738 18.681609258055687 64.005919843912125 99.123517200350761 239.83462589979172 194.38683180510998 11.324807316064833 49.802828624844551 32.052815511822701 259.67906256020069 401.29106841981411 69.911681622266769 16.025948062539104 56.288755029439926 5.543048068881034 43.521664246916771 41.468516737222672 24.962223261594772 6.0147841721773174 100.69631297886372 11.289451807737349 19.608521208167076 4.0735528767108899 7.1638852506875992 3.977049231529235 467.90541450679302
leaf_count=2543 4525 443 553 2708 67 95 408 556 1327 1170 61 272 162 1580 2726 346 73 260 27 249 206 127 30 554 61 104 21 36 21 2711
internal_value=0 0.0197027 0.0282837 -0.0313443 0.0595636 0.069422 -0.00617345 0.019979 0.0133647 0.0201344 0.0536901 0.0677014 0.0906123 -0.00493945 -0.0445033 0.0988428 0.120309 0.137352 0.20167 -0.00740959 0.0433123 0.113386 0.137816 0.0173887 0.0187276 0.0421633 0.199022 0.250163 0.0983927 0.010225
internal_weight=0 2430.45 1825.18 1550.47 589.409 477.737 605.268 206.651 1235.78 902.127 311.286 211.738 109.178 333.649 820.199 166.451 96.5394 77.8578 21.569 107.528 102.561 74.2673 49.305 111.672 61.0923 34.9104 17.2522 11.2374 15.3019 662.292
internal_count=24022 14063 10307 9959 3076 2455 3756 1213 7231 5208 1654 1101 562 2023 5434 801 455 360 100 657 539 376 249 621 333 186 87 57 82 3881
is_linear=0
shrinkage=0.1


Tree=9
num_leaves=31
num_cat=0
split_feature=9 9 15 16 16 9 10 9 9 13 4 16 12 11 9 11 10 10 12 10 14 9 17 14 12 1 12 7 16 13
split_gain=39.6854 40.9262 40.6985 23.4843 18.8907 17.133 16.9086 15.8604 19.6111 14.9805 14.0868 13.4264 10.1373 8.5621 8.44707 10.0803 8.41442 8.07831 7.65931 7.0274 6.70748 10.7625 8.12422 7.6565 5.92013 5.85515 8.31904 5.7896 7.45492 5.6051
threshold=-0.19599999999999998 0.17765000000000003 3577.5000000000005 -0.53499999999999992 0.36500000000000005 -0.094849999999999976 114.50000000000001 0.039150000000000011 -0.08614999999999999 1780152.5000000002 0.00025000000000000006 -0.31499999999999995 1334262.5000000002 242.50000000000003 0.30855000000000005 390.50000000000006 359.50000000000006 44.500000000000007 22450909.500000004 35.500000000000007 3345.5000000000005 0.051550000000000006 2718.6500000000001 408.50000000000006 127605.00000000001 2466.1000000000004 2739080.9000000004 887.50000000000011 -0.59499999999999986 17921225.500000004
decision_type=2 2 2 2 2 2 2 2 2 2 2 2 2 2 2 2 2 2 2 2 2 2 2 2 2 2 2 2 2 2
left_child=3 2 7 -1 13 6 25 8 11 24 16 -2 -10 -3 15 -6 -5 -7 27 -14 21 -11 23 -23 -9 26 -4 28 -8 -15
right_child=1 4 5 10 14 17 18 9 12 20 -12 -13 19 29 -16 -17 -18 -19 -20 -21 -22 22 -24 -25 -26 -27 -28 -29 -30 -31
leaf_value=0.049281594012297592 0.02822224992926646 0.016588329556441055 0.040149319999343527 0.026877672827048817 0.028569420741765845 0.058265031395880108 -0.065247877466073342 -0.081226874406084171 -0.00058917513669788722 0.024890486581764126 -0.052069104602686489 -0.004712430486657716 0.030249183528160913 -0.06054924742767618 0.05426029998147848 -0.068434658303022963 -0.011770554892979339 -0.033210789071867766 -0.060595948908092445 -0.014016824841044884 0.010170916557188299 -0.12127015444201683 -0.10440352554228918 -0.012260668382989065 0.019529197655660954 0.060612221811800718 -0.033218668334221317 0.040598506741273237 -0.008117922395111098 -0.007778370626204247
leaf_weight=242.53980575501919 278.4073361903429 131.79014897346497 39.142684146761894 188.5404933989048 231.67069153487682 9.7943994104862195 27.062429800629616 5.8818688690662375 1109.6841317713261 74.440495014190674 35.052850872278214 222.86819833517075 36.699248760938644 27.518785983324051 150.07407346367836 11.231968015432356 80.336794167757034 673.54740384221077 37.563782602548599 1575.0527183115482 276.48996499180794 6.5658363401889792 10.299318999052046 344.95933926105499 682.53571119904518 38.066122785210609 25.537712872028351 19.380850404500961 146.42720118165016 74.940417855978012
leaf_count=978 1046 481 150 708 901 35 95 21 3883 255 121 777 127 93 609 38 272 2150 118 5318 985 22 36 1207 2540 143 93 65 503 252
internal_value=0 -0.00202306 -0.00471773 0.0260755 0.0222091 -0.0228344 -0.00424195 -0.000734927 -0.00459671 0.00814723 0.00755684 0.0135794 -0.00794467 -0.000268849 0.035608 0.0240839 0.0153301 -0.0318997 -0.0192846 -0.0130089 -0.00201463 -0.00973742 -0.0168616 -0.0142968 0.0186683 0.0294949 0.0111815 -0.0112387 -0.0170296 -0.0219517
internal_weight=0 6267.63 5640.41 546.47 627.226 1016.52 333.181 4623.88 3222.71 1401.17 303.93 501.276 2721.44 234.249 392.977 242.903 268.877 683.342 230.434 1611.75 712.755 436.265 361.824 351.525 688.418 102.747 64.6804 192.87 173.49 102.459
internal_count=24022 21943 19569 2079 2374 3352 1167 16217 11151 5066 1101 1823 9328 826 1548 939 980 2185 781 5445 2505 1520 1265 1229 2561 386 243 663 598 345
is_linear=0
shrinkage=0.1


Tree=10
num_leaves=31
num_cat=0
split_feature=16 9 16 10 11 9 16 12 2 14 9 16 6 12 16 10 11 5 15 9 15 5 11 13 15 15 11 11 1 2
split_gain=194.124 39.6523 54.9407 29.8028 16.8049 13.1514 10.344 9.88561 9.34999 8.65763 13.8964 8.57298 8.20603 8.01724 7.48738 7.47059 9.0155 7.33845 16.4477 7.17884 6.88013 7.53476 6.86889 7.4129 6.81088 8.52523 6.86704 7.07923 6.67122 6.55041
threshold=-0.37499999999999994 0.092300000000000007 0.055000000000000007 186.50000000000003 195.50000000000003 0.031650000000000005 0.43500000000000005 4514410.5000000009 1894.9000000000003 2529.5000000000005 0.22530000000000003 -0.17499999999999996 4261421.0000000009 29573671.000000004 -0.65499999999999992 38.500000000000007 5.5000000000000009 1864.5000000000002 542.50000000000011 0.039150000000000011 2405.5000000000005 20737.500000000004 73.500000000000014 7062322.0000000009 3682.0000000000005 5164.5000000000009 572.50000000000011 187.50000000000003 2441.5000000000005 2026.3000000000004
decision_type=2 2 2 2 2 2 2 2 2 2 2 2 2 2 2 2 2 2 2 2 2 2 2 2 2 2 2 2 2 2
left_child=4 2 11 5 7 6 -4 14 -8 -3 13 -2 29 -11 -1 16 -10 18 -14 -13 -15 -22 23 -16 -5 -26 27 -27 -23 -7
right_child=1 9 3 24 -6 12 8 -9 15 10 -12 19 17 20 22 -17 -18 -19 -20 -21 21 28 -24 -25 25 26 -28 -29 -30 -31
leaf_value=-0.050071960144377752 -0.0096765955988588684 -0.024466743650541582 0.022991114400962815 0.048457886671850657 -0.061628316263755589 0.010371118866825476 -0.010039931764558283 0.041310357144319208 0.15122582570468232 0.0052666623450993303 -0.020146436070716353 0.013155000217616716 0.28352433112451431 -0.046817810867664567 -0.012621237402104602 0.062662043799383033 -0.00079514385918801739 0.018418131316869004 -0.022616452440722537 -0.020111109818296863 0.12826968502279576 -0.035144001522260139 -0.037051427522411591 0.1405036670416526 0.12218860050274805 0.16809485609582173 0.12605269896725604 0.036137244222525892 0.066475885595492321 -0.030144372614052967
leaf_weight=198.76983696222305 455.78686562180519 226.88577468693256 458.67445057630539 147.2077194750309 287.13414867222309 86.730005815625191 24.987501218914986 17.781173214316368 4.3693450689315787 277.48634248971939 229.88065710663795 490.53100311756134 3.3336922675371161 6.5611286610364905 144.23492066562176 190.55904656648636 36.399113208055496 193.16031643748283 3.7057512253522873 74.757279202342033 12.592016384005545 9.1516257673501986 224.2512358725071 3.2323754280805579 34.887222677469254 4.4092607051134101 13.394983589649199 52.150941714644432 21.966864451766014 73.912387773394585
leaf_count=1381 2794 1459 2480 742 2042 534 134 104 24 1666 1509 2800 20 37 917 973 199 1087 22 455 67 47 1466 20 159 20 57 242 111 454
internal_value=0 0.0114674 0.0179685 0.0313794 -0.0417966 0.024128 0.0319826 -0.0321168 0.0480727 -0.00799767 -0.00129692 0.000527893 0.0085646 0.0119236 -0.0344054 0.0543499 0.0154976 0.0220731 0.122364 0.00875568 0.0486684 0.0630012 -0.026028 -0.00926485 0.0623306 0.0818091 0.0616715 0.0464243 0.0365905 -0.00827027
internal_weight=0 3133.48 2348.96 1327.88 875.404 1075.83 714.989 588.27 256.315 784.524 557.639 1021.08 360.842 327.758 570.488 231.328 40.7685 200.2 7.03944 565.288 50.2716 43.7105 371.719 147.467 252.05 104.842 69.9552 56.5602 31.1185 160.642
internal_count=24022 18092 13196 7147 5930 5927 3810 3888 1330 4896 3437 6049 2117 1928 3784 1196 223 1129 42 3255 262 225 2403 937 1220 478 319 262 158 988
is_linear=0
shrinkage=0.1


Tree=11
num_leaves=31
num_cat=0
split_feature=16 9 11 16 16 13 9 16 9 2 9 5 5 14 10 11 17 16 10 14 11 12 7 9 9 9 0 11 1 6
split_gain=210.641 41.2837 60.7239 27.3166 19.3954 18.7526 16.9875 15.4403 13.1172 11.8258 11.7074 11.4399 11.0799 10.069 9.13236 9.64617 8.56907 8.72589 7.8517 7.6664 7.59532 14.907 7.54839 7.69494 7.32299 7.09528 6.73857 8.54895 6.5784 6.55544
threshold=0.14500000000000005 -0.08614999999999999 132.50000000000003 0.47500000000000003 -1.0000000180025095e-35 21555605.000000004 -0.30089999999999995 -0.14499999999999999 -0.020249999999999994 2502.5000000000005 -0.20684999999999998 5299.5000000000009 5432.5000000000009 2529.5000000000005 83.500000000000014 42.500000000000007 1958.6500000000003 -0.054999999999999993 415.50000000000006 2224.5000000000005 199.50000000000003 7971698.5000000009 78.500000000000014 0.052950000000000004 0.045950000000000012 -0.053549999999999993 1869.1000000000001 21.500000000000004 2098.7000000000003 13651727.500000002
decision_type=2 2 2 2 2 2 2 2 2 2 2 2 2 2 2 2 2 2 2 2 2 2 2 2 2 2 2 2 2 2
left_child=1 5 7 -2 9 10 18 8 -3 20 -1 16 -13 -5 15 26 17 -12 -7 -6 21 -4 -17 -24 -9 -22 27 -10 -16 -26
right_child=3 2 4 13 19 6 -8 24 14 -11 11 12 -14 -15 28 22 -18 -19 -20 -21 25 -23 23 -25 29 -27 -28 -29 -30 -31
leaf_value=-0.036592897738627998 -0.017152650274292271 0.0086769147129455767 0.071516963124510252 -0.031330309364997609 -0.065868611539045205 -0.029420674930606596 0.04851995896819801 -0.0070945389988885006 0.0040522921183661657 0.047264080162000975 0.005490327847228204 0.16656612732430706 0.014335379608278825 -0.055367458086360212 -0.056892426321369163 0.13088515680561971 -0.02448867530127613 0.13499441035222193 0.025753776642202603 0.025373922770465258 0.056440824577919595 -0.077966592332413071 0.043380814755300139 0.10202876830453417 0.029652169068783919 0.11327754952954559 0.0084669461528810875 0.19174905963409264 0.019734944949599667 -0.045913862622349422
leaf_weight=133.78980569541454 805.06149174273014 314.37708392739296 93.431698337197304 326.50290955603123 10.190412104129789 61.200005546212196 122.66826409101486 358.4996849745512 4.926049664616583 204.02858670055866 61.41178785264492 4.9407316148281089 147.99717202782631 373.76445414125919 14.333573579788206 12.844244629144667 214.31767669320107 5.6844580918550482 44.579899713397026 95.585361063480377 29.666190162301064 7.1841617971658698 159.37366586923599 26.024924710392952 106.47155249118805 84.597907647490501 83.063816264271736 4.7825009375810623 51.303516909480095 12.867621570825575
leaf_count=929 5082 1827 468 2181 65 408 644 2129 28 987 384 30 872 2696 78 64 1351 35 249 509 135 39 840 136 636 365 477 23 281 74
internal_value=0 0.0177396 0.0266588 -0.0297163 0.0548456 -0.000998761 0.0231974 0.0137859 0.0235687 0.0645069 -0.010728 -0.00276104 0.0192533 -0.04416 0.0366953 0.0442948 -0.014725 0.016462 -0.00616795 0.0165836 0.0808789 0.0608436 0.0567494 0.0516134 4.79665e-05 0.0985211 0.0176809 0.0965131 0.00300136 0.0215043
internal_weight=0 2470.14 1673.55 1505.33 524.684 796.59 228.448 1148.87 671.029 418.909 568.142 434.352 152.938 700.267 356.652 291.015 281.414 67.0962 105.78 105.776 214.88 100.616 198.243 185.399 477.839 114.264 92.7724 9.70855 65.6371 119.339
internal_count=24022 14063 9161 9959 2568 4902 1301 6593 3754 1994 3601 2672 902 4877 1927 1568 1770 419 657 574 1007 507 1040 976 2839 500 528 51 359 710
is_linear=0
shrinkage=0.1


Tree=12
num_leaves=31
num_cat=0
split_feature=9 9 15 16 16 14 9 9 11 4 14 1 9 16 6 13 9 11 11 10 9 5 0 17 18 15 14 3 13 10
split_gain=31.7318 32.3801 30.7933 20.3718 15.7673 12.7031 12.4721 15.4372 12.4725 11.8797 11.5505 9.54062 8.45899 8.39072 8.25644 10.0475 7.81722 8.72748 7.27077 6.83039 6.51443 7.79957 6.4039 6.05938 6.02307 5.97231 6.80937 5.87472 5.79452 5.09503
threshold=-0.19599999999999998 0.17765000000000003 3577.5000000000005 -0.53499999999999992 0.36500000000000005 944.50000000000011 0.039150000000000011 -0.063049999999999981 36.500000000000007 0.00025000000000000006 1018.5000000000001 2454.9000000000005 -0.10324999999999999 -0.45499999999999996 3522133.0000000005 1701686.5000000002 0.30855000000000005 110.50000000000001 195.50000000000003 359.50000000000006 -0.091049999999999978 11872.500000000002 1947.7 2683.6500000000001 2746.0500000000006 866.50000000000011 175.50000000000003 2701.5000000000005 5899804.0000000009 44.500000000000007
decision_type=2 2 2 2 2 2 2 2 2 2 2 2 2 2 2 2 2 2 2 2 2 2 2 2 10 2 2 2 2 2
left_child=3 2 6 -1 18 12 7 10 -8 19 25 -12 -4 22 15 -9 17 -6 28 -5 21 -7 -10 -16 -15 26 -2 -23 -3 -14
right_child=1 4 5 9 16 20 8 14 13 -11 11 -13 29 24 23 -17 -18 -19 -20 -21 -22 27 -24 -25 -26 -27 -28 -29 -30 -31
leaf_value=0.046083700266741218 0.036475771261559452 -0.0031572884716527597 0.048845957496347986 0.024550738403748995 0.037746659356014539 0.0026936987910908716 0.023887397704927489 -0.0054973616768695882 -0.12985139190098743 -0.047420540769483717 -0.027840414324283736 0.0092494480700989808 0.05569409962901959 0.004025918535712162 -0.015462597317469308 0.021399758843311044 0.051221170491288007 -0.0012588243669630992 -0.015923762954587896 -0.010299175838532281 -0.029008669794137576 -0.036451771894274093 -0.019245288481272584 0.0085545708837050892 -0.07206563669447745 0.024337880531465319 -0.01297119572381676 0.039805292371722673 0.044393006693640408 -0.025097029264252037
leaf_weight=230.66089269518852 37.893834128975868 53.515933007001877 41.646234154701233 183.92660619318485 138.27299526333809 173.07151538133621 342.37517602741718 989.90025427937508 8.028653025627138 35.87777253985405 129.8235701918602 148.89384514093399 9.4485218971967679 1014.4414413571358 1189.6247316598892 161.54684588313103 142.47123928368092 98.034055173397064 131.02631139755249 81.010191410779953 634.77583676576614 116.94106552004814 15.041807711124418 115.22153779864311 10.510450854897497 355.35548487305641 105.07590985298157 11.057720780372618 49.178463846445084 44.898116558790207
leaf_count=978 143 202 166 708 563 616 1299 3423 26 121 440 514 35 3655 3969 561 609 376 441 272 1973 376 49 387 37 1339 375 36 183 150
internal_value=0 -0.00172389 -0.00408919 0.0237256 0.0201164 -0.0197092 -0.00060342 -0.0040092 0.00731665 0.00658164 0.00827585 -0.00802661 0.0149351 0.0019032 -0.00789555 -0.00172372 0.0327196 0.0215649 -0.00030899 0.0138946 -0.0232627 -0.0111481 -0.0577368 -0.0133418 0.00324563 0.017394 0.00013462 -0.029864 0.0196137 -0.011051
internal_weight=0 6268.07 5655.57 531.475 612.499 1031.84 4623.73 3233.34 1390.4 300.815 777.043 278.717 95.9929 1048.02 2456.29 1151.45 378.778 236.307 233.721 264.937 935.846 301.07 23.0705 1304.85 1024.95 498.325 142.97 127.999 102.694 54.3466
internal_count=24022 21943 19569 2079 2374 3352 16217 11151 5066 1101 2811 954 351 3767 8340 3984 1548 939 826 980 3001 1028 75 4356 3692 1857 518 412 385 185
is_linear=0
shrinkage=0.1


Tree=13
num_leaves=31
num_cat=0
split_feature=16 9 16 10 11 14 9 14 10 16 3 18 4 4 6 11 14 14 16 10 9 2 9 13 10 10 14 11 5 11
split_gain=168.655 31.3321 47.0572 18.6529 16.3466 11.1567 16.9572 10.2073 8.12465 8.7805 7.77464 7.72817 8.67289 7.22632 10.6312 7.4449 15.2224 7.20343 7.19918 7.17711 7.13906 7.05277 8.34226 8.54725 6.90058 7.36884 8.49069 6.80124 6.37866 6.34471
threshold=-0.37499999999999994 0.053950000000000005 0.03500000000000001 147.50000000000003 144.50000000000003 2529.5000000000005 0.22530000000000003 9377.0000000000018 140.50000000000003 0.65500000000000014 1897.7 2598.2500000000005 1.0000000180025095e-35 0.00025000000000000006 4631591.5000000009 202.50000000000003 3787.0000000000005 858.50000000000011 -0.65499999999999992 188.50000000000003 0.15375000000000003 2611.9000000000005 -0.12415 1242326.0000000002 126.50000000000001 148.50000000000003 2319.0000000000005 149.50000000000003 25778.000000000004 99.500000000000014
decision_type=2 2 2 2 2 2 2 2 2 2 2 10 2 2 2 2 2 2 2 2 2 2 2 2 2 2 2 2 2 2
left_child=4 2 13 8 18 20 7 -7 9 17 -11 12 -5 15 -15 16 -2 -4 -1 -17 24 -13 -23 -24 -3 26 -26 -19 -25 -16
right_child=1 5 3 11 -6 6 -8 -9 -10 10 -12 21 -14 14 29 19 -18 27 -20 -21 -22 22 23 28 25 -27 -28 -29 -30 -31
leaf_value=-0.045300380692601776 0.0013373936525292039 -0.016502650058836953 0.0087118143616949761 -0.049376547013813048 -0.05577119444450547 0.007697054610778702 -0.018055960910806568 0.043712102150751331 -0.032117796996660973 -0.010521585711350555 0.060967496780731635 -0.032461940588504878 0.069130587970961083 -0.076324867231454985 0.1738611801473503 -0.053619889634836548 0.093278072671198864 0.031615802247060239 -0.018994053597932062 -0.0076562484293946978 -0.046192243846031739 0.14698796340803041 0.16226193015520335 0.021099871228284252 0.083777717959592546 -0.01320347738186343 -0.076673651224601652 -0.050089781456613108 0.13142841767786431 0.048561578392162241
leaf_weight=155.16318415850401 680.68350856006145 294.15067946910858 285.10769349336624 6.3949683904647818 369.08314917236567 361.72320167720318 222.72207309305668 100.57401041686535 25.494496166706085 17.894777029752731 101.49006474018097 14.624511927366255 179.9746805280447 6.1224583834409705 4.7778059691190746 44.818521976470947 18.497427120804787 391.71970719099045 315.68658831715584 140.37390094995499 66.484733834862709 7.0151949524879447 4.9536941945552817 89.801356717944145 22.487159401178364 28.358841136097908 3.8648755103349677 10.459937572479246 5.5650129467248908 26.213083803653717
leaf_count=1126 4019 1883 1578 30 2733 2119 1509 505 129 99 523 70 821 37 27 281 94 2038 2071 828 459 33 24 432 137 168 23 54 23 149
internal_value=0 0.0103968 0.0176682 0.0312472 -0.0400143 -0.00322906 0.00461161 0.0155322 0.0234627 0.0252193 0.0502519 0.0522571 0.0650642 0.000861838 0.04409 -0.000952262 0.00376976 0.020871 -0.027663 -0.0187799 -0.0161605 0.0326862 0.0415627 0.0341905 -0.0104371 0.0221739 0.0602454 0.0294908 0.027538 0.0678788
internal_weight=0 3162.35 2061.98 1140.5 839.933 1100.37 685.019 462.297 832.167 806.672 119.385 308.329 186.37 921.487 37.1133 884.373 699.181 687.287 470.85 185.192 415.346 121.96 107.335 100.32 348.862 54.7109 26.352 402.18 95.3664 30.9909
internal_count=24022 18092 11289 5854 5930 6803 4133 2624 4421 4292 622 1433 851 5435 213 5222 4113 3670 3197 1109 2670 582 512 479 2211 328 160 2092 455 176
is_linear=0
shrinkage=0.1


Tree=14
num_leaves=31
num_cat=0
split_feature=16 9 11 16 11 9 16 17 14 0 16 10 10 10 15 14 7 12 11 10 10 12 12 7 12 10 14 9 10 7
split_gain=180.113 34.1421 33.0743 25.7982 19.7314 31.3348 16.0588 13.4257 10.8677 10.7267 10.4714 12.1104 9.79257 10.2711 9.34829 10.8851 9.17095 9.1377 8.98209 11.6725 13.4586 9.72315 8.80564 8.66858 8.01842 7.38304 9.96867 7.10625 8.42424 7.07421
threshold=0.13500000000000004 -0.044549999999999992 132.50000000000003 0.45500000000000007 177.50000000000003 -0.16694999999999996 -0.39499999999999996 2527.3500000000008 2529.5000000000005 1964.1000000000001 -0.30499999999999994 389.50000000000006 216.50000000000003 69.500000000000014 2987.5000000000005 291.50000000000006 286.50000000000006 1284761.5000000002 199.50000000000003 112.50000000000001 84.500000000000014 32709638.500000004 6350007.5000000009 709.50000000000011 1837918.5000000002 88.500000000000014 631.50000000000011 -0.39134999999999992 424.50000000000006 386.50000000000006
decision_type=2 2 2 2 2 2 2 2 2 2 2 2 2 2 2 2 2 2 2 2 2 2 2 2 2 2 2 2 2 2
left_child=1 4 6 -2 9 23 25 14 -5 24 11 12 13 -7 15 -4 -15 -16 19 20 -19 -20 -18 -6 -1 26 -3 28 -25 -24
right_child=3 2 7 8 5 10 -8 -9 -10 -11 -12 -13 -14 16 17 -17 22 18 21 -21 -22 -23 29 27 -26 -27 -28 -29 -30 -31
leaf_value=0.0037999012522256488 -0.015219793834708699 0.035491981417928482 0.19196249482409078 -0.028580207066067266 -0.019210591947993145 -0.0032221287960005141 0.0086668607949200345 0.032015990015920669 -0.053381597541730164 -0.015904726315245813 0.017722970272999333 0.19359852218842252 -0.0076827602834503919 0.19473974747955122 0.20345355999427817 0.021449211955165106 0.052447428995892831 0.007416412643456923 0.10458191009030549 0.0081798184954156566 0.19691228674077615 -0.00020809259063021159 0.029508172436353848 -0.054740119711039842 0.063463595708293838 -0.017951405994031201 0.097819761275612135 0.03685860636024476 0.020277734025183465 0.1516471516181841
leaf_weight=119.97695510089397 781.9639692902565 205.80567114055157 4.0369295179843894 337.42598539590836 167.81170709431171 18.765656650066376 662.1365565508604 186.62206880748272 370.86869765073061 468.43225359916687 94.214108124375343 6.5060271173715583 21.791020005941391 6.2310925275087348 5.9266797602176657 51.561410412192345 74.640406906604767 6.6660716384649268 88.718906879425049 33.117259457707405 8.5620665997266752 9.8362766206264478 6.34016025066376 24.829171851277351 27.731690168380737 21.504603505134583 29.316347241401672 70.099955156445503 37.695715695619583 18.813648551702499
leaf_count=737 4971 1069 19 2323 1130 106 3793 892 2825 2914 468 28 102 35 25 260 372 29 363 167 36 45 30 171 160 113 145 405 205 84
internal_value=0 0.0162528 0.0273015 -0.0277419 0.0037809 0.0175904 0.0168975 0.0514982 -0.0415664 -0.00849551 0.0439531 0.0600957 0.0541702 0.064971 0.0689423 0.03383 0.0770407 0.0817162 0.0768047 0.0414995 0.113961 0.0941234 0.0696916 -0.00410983 0.0150015 0.0381337 0.0432634 0.0149973 -0.0095125 0.120861
internal_weight=0 2477.69 1313.81 1490.26 1163.88 547.739 918.763 395.048 708.295 616.141 247.302 153.088 146.582 124.791 208.426 55.5983 106.025 152.827 146.901 48.3454 15.2281 98.5552 99.7942 300.437 147.709 256.627 235.122 132.625 62.5249 25.1538
internal_count=24022 13903 6956 10119 6947 3136 5120 1836 5148 3811 1225 757 729 627 944 279 521 665 640 232 65 408 486 1911 897 1327 1214 781 376 114
is_linear=0
shrinkage=0.1


Tree=15
num_leaves=31
num_cat=0
split_feature=9 9 15 16 16 16 10 9 4 9 10 9 14 9 11 18 16 1 11 14 14 13 6 1 3 11 0 9 18 5
split_gain=25.6767 25.5149 23.2423 17.4999 13.0744 10.7929 10.0971 10.0722 9.60859 8.65007 9.09894 7.52424 11.8498 7.38866 9.27553 6.5603 6.59096 6.45817 5.93671 5.8842 5.74482 5.6305 6.03137 6.01556 6.76598 5.51151 5.32104 5.31545 6.50665 6.50424
threshold=-0.19599999999999998 0.17765000000000003 3577.5000000000005 -0.53499999999999992 0.36500000000000005 0.74500000000000011 44.500000000000007 -0.10719999999999999 0.00025000000000000006 -0.094849999999999976 114.50000000000001 0.029650000000000006 823.50000000000011 0.35835000000000006 110.50000000000001 2746.0500000000006 -0.11499999999999998 2466.1000000000004 242.50000000000003 5834.5000000000009 1437.5000000000002 7172144.4000000013 13428984.500000002 2491.1000000000004 2484.3000000000006 515.50000000000011 1956.7 0.083250000000000005 2486.1500000000001 1941.5000000000002
decision_type=2 2 2 2 2 2 2 2 2 2 2 2 2 2 2 10 2 2 2 2 2 2 2 2 2 2 2 2 8 2
left_child=3 2 5 -1 18 7 -4 -2 19 10 17 12 -9 14 -6 16 -13 20 -3 -5 -8 22 23 24 -14 -16 -12 28 -7 -30
right_child=1 4 6 8 13 27 9 11 -10 -11 26 15 21 -15 25 -17 -18 -19 -20 -21 -22 -23 -24 -25 -26 -27 -28 -29 29 -31
leaf_value=0.043086617000894965 0.015470411770196608 0.014031534178027136 0.054414979174434899 0.025986140579725273 0.037629300104044187 0.018332970055791944 0.025840594179815699 -1.6161067017947964e-05 -0.041885133754557428 -0.024627652254153521 0.043895371046458118 -0.013484803165182892 -0.018721590352554548 0.053300663678476135 0.0059838201157118853 -0.074678423878043687 0.006179428444345712 0.056157570505563296 -0.018058749293616769 -0.004224657678386123 -0.041931398174116861 0.0085970046785000497 -0.039322128664971458 -0.0040849497062136093 -0.12569822868042543 -0.07954852202250802 -0.018962017276030411 0.036714675935190788 -0.10454867319142386 -0.005762028538481301
leaf_weight=219.88795901834965 316.29832746088505 128.62174800038338 19.413604006171227 145.98943677544594 150.90837490558624 130.03369250893593 33.821538537740707 1411.2600639909506 36.871213018894196 700.9286612868309 14.341036915779112 198.44638022780418 583.315324395895 98.898967638611794 107.60036544501781 10.842743515968321 1208.153522759676 34.654084891080856 104.4784679710865 115.45886377990246 19.847547352313995 105.1508032977581 97.844227969646454 414.67974501848221 5.9727918505668631 8.10091784596443 221.07108888030052 103.30191281437874 8.7587253153324109 27.881829857826233
leaf_count=978 1197 481 77 581 646 465 135 4934 121 2150 48 670 1915 444 431 37 4396 138 345 399 71 347 311 1391 20 27 733 407 31 96
internal_value=0 -0.00147992 -0.00355427 0.0216821 0.0181544 -0.000510199 -0.0170298 -0.00171379 0.00590498 -0.0183834 -0.00486393 -0.00306061 -0.00623766 0.0299566 0.0212971 0.00280785 0.00340515 0.0225062 -0.000351737 0.0126447 0.000777603 -0.0135122 -0.0156222 -0.0133125 -0.0198059 -4.7952e-06 -0.0151328 0.0188914 0.00784485 -0.0293764
internal_weight=0 6264.63 5666.02 518.207 598.609 4621.94 1044.08 4351.96 298.32 1024.66 323.735 4035.67 2618.22 365.509 266.61 1417.44 1406.6 88.3232 233.1 261.448 53.6691 1206.96 1101.81 1003.97 589.288 115.701 235.412 269.976 166.674 36.6406
internal_count=24022 21943 19569 2079 2374 16217 3352 15218 1101 3275 1125 14021 8918 1548 1104 5103 5066 344 826 980 206 3984 3637 3326 1935 458 781 999 592 127
is_linear=0
shrinkage=0.1


Tree=16
num_leaves=31
num_cat=0
split_feature=16 16 9 10 11 11 14 16 10 16 9 9 0 7 12 12 14 11 10 11 10 11 9 16 1 15 9 7 11 15
split_gain=146.037 25.0574 37.0148 21.5385 15.8445 15.4895 11.1337 13.0692 10.4809 11.1261 10.1456 9.91066 8.35154 8.27493 9.74445 8.2057 7.60965 7.51979 7.50525 9.55393 7.4202 7.38317 11.6544 7.54873 7.0707 7.00734 6.7678 7.18346 6.68348 8.88029
threshold=-0.39499999999999996 -0.12499999999999999 0.092300000000000007 92.500000000000014 37.500000000000007 195.50000000000003 752.50000000000011 0.19500000000000003 380.50000000000006 0.36500000000000005 0.0075500000000000003 0.0077500000000000008 2600.1000000000004 149.50000000000003 3808698.5000000005 4568281.0000000009 1437.5000000000002 85.500000000000014 46.500000000000007 55.500000000000007 39.500000000000007 515.50000000000011 0.38205000000000006 0.14500000000000005 1882.1000000000001 11876.500000000002 0.083250000000000005 119.50000000000001 329.50000000000006 2666.5000000000005
decision_type=2 2 2 2 2 2 2 2 2 2 2 2 2 2 2 2 2 2 2 2 2 2 2 2 2 2 2 2 2 2
left_child=5 -2 3 4 6 16 -3 -8 9 12 13 18 28 -11 -15 -16 17 20 -6 -20 -1 23 25 24 -4 -23 27 -9 29 -5
right_child=1 2 21 8 11 -7 7 26 -10 10 -12 -13 -14 14 15 -17 -18 -19 19 -21 -22 22 -24 -25 -26 -27 -28 -29 -30 -31
leaf_value=-0.034194845490981465 -0.0082650001912980674 0.013111700615188333 0.11352737535227764 0.019435264388500992 -0.02395583100394132 -0.060302098307159491 0.16467060606170383 0.040723554228341577 0.05992022339646387 0.16531303549383206 0.031270684455072931 -0.018807607781147956 0.0018322413651330454 -0.030100820888299143 0.17767999779696547 0.063441634629336982 0.015200690134659226 -0.045565628770494949 0.044428537327203699 0.0017681386339668777 0.0016865820952194717 0.19164944105771931 -0.019748647107936144 -0.003547263931747291 -0.03836069405886304 0.05548292908082423 -0.059985657358600668 0.17104774519964167 -0.032467861675652791 0.053398034704756098
leaf_weight=153.16667317599058 660.53939226269722 268.78516581654549 3.166983187198638 224.53684313595295 52.241882085800171 243.61756001412868 9.0741178095340711 107.38046255707741 114.31882239878178 8.5119950622320157 213.31429228186607 207.97786995768547 184.64947262406349 10.120125651359556 6.9901109933853141 62.572500362992287 35.11125423014164 240.70119784027338 85.304009616374969 136.49963842332363 92.403149977326393 5.167211294174197 18.090186297893524 595.96103176474571 95.076367437839508 14.070534557104109 6.386423557996749 4.4028635323047629 17.39241062104702 117.15800170600414
leaf_count=1076 4045 1526 20 1183 290 1963 50 573 506 39 1086 1176 958 50 34 278 222 1773 445 735 620 27 123 3839 589 71 41 23 93 568
internal_value=0 0.00910631 0.0135726 0.0211458 0.00982813 -0.0394854 0.0246482 0.0490174 0.0315021 0.0276586 0.0430657 -0.00234798 0.0191151 0.0715941 0.0615827 0.0749211 -0.0297587 -0.033005 0.0101435 0.018175 -0.0206934 -0.00545154 0.0378727 -0.00778112 -0.0334644 0.0920569 0.0401365 0.0458567 0.0280022 0.0310802
internal_weight=0 3229.69 2569.15 1837.62 878.052 765 396.029 127.244 959.565 845.246 301.509 482.023 543.737 88.1947 79.6827 69.5626 521.382 486.271 274.046 221.804 245.57 731.532 37.3279 694.204 98.2434 19.2377 118.17 111.783 359.087 341.695
internal_count=24022 18368 14323 9654 4859 5654 2213 687 4795 4289 1487 2646 2802 401 362 312 3691 3469 1470 1180 1696 4669 221 4448 609 98 637 596 1844 1751
is_linear=0
shrinkage=0.1


Tree=17
num_leaves=31
num_cat=0
split_feature=16 9 11 16 16 13 9 9 10 11 2 9 10 6 14 10 16 11 0 16 9 8 12 15 11 16 11 10 16 16
split_gain=154.691 27.3456 40.782 23.4547 14.7697 14.1616 11.0299 10.3916 13.2971 15.8665 12.4765 10.0314 9.33856 11.7915 9.29482 8.94616 9.2699 8.32424 7.57261 8.82054 8.66192 6.90063 6.83811 6.73167 7.55998 6.65085 6.38257 9.65588 5.85783 7.9841
threshold=0.13500000000000004 -0.11764999999999999 126.50000000000001 0.47500000000000003 -0.21499999999999997 17921225.500000004 -0.30089999999999995 -0.044549999999999992 92.500000000000014 57.500000000000007 2552.3000000000006 0.12145000000000002 23.500000000000004 6939484.5000000009 2529.5000000000005 58.500000000000007 -0.74499999999999988 97.500000000000014 2204.2000000000003 0.065000000000000016 -0.038749999999999993 1945.5500000000002 14395786.000000002 1379.5000000000002 107.50000000000001 -0.6349999999999999 223.50000000000003 147.50000000000003 -0.77499999999999991 -0.73499999999999988
decision_type=2 2 2 2 2 2 2 2 2 2 2 2 2 2 2 2 2 2 2 2 2 2 2 2 2 2 2 2 2 2
left_child=1 5 7 -2 12 -1 22 21 9 -9 11 15 -4 -14 -5 16 -11 -10 19 -6 -20 -3 -7 24 -18 -17 27 -15 -8 -30
right_child=3 2 4 14 18 6 28 8 17 10 -12 -13 13 26 -16 25 23 -19 20 -21 -22 -23 -24 -25 -26 -27 -28 -29 29 -31
leaf_value=-0.017588815869095376 -0.014964365833372604 0.020263941208045349 0.23263894061112148 -0.028015780187599218 0.068378762103141935 -0.037383732464072575 -0.030869196875622864 0.006854867237883068 -0.028504285577624223 -0.0016803485523966709 0.0045611866928641489 0.17675102814591809 0.0059463390195280096 0.05815473372913206 -0.052114175060274354 0.12992320555270112 0.065827177067867476 0.014494685549591583 -0.017133810554260664 -0.023248105969526221 0.026293387795610704 -0.014483187854733832 0.012358046177573037 0.11150639335914588 -0.059191610518427112 0.019214873982582259 0.073308544635560344 0.0021477968604832059 0.14571914048082085 0.033642856605812572
leaf_weight=335.75054721534252 810.72968242317438 75.103982597589493 2.8731945902109137 307.5169033408165 59.687353685498238 48.929243065416813 12.981020942330359 379.91816806793213 100.53975929319859 19.252932280302048 90.674695000052452 5.887206718325614 49.085724100470543 135.39442548155785 333.77121724188328 5.7033583819866172 75.439188569784164 81.533761784434319 61.214198037981987 12.750692516565321 183.94298945367336 239.14585331082344 63.510272026062012 32.868841275572777 5.1683084666728965 111.76882283389568 154.36380368471146 39.840908840298653 6.7228669524192801 116.54563181102276
leaf_count=2286 5242 435 14 2181 271 362 77 2152 569 95 487 32 246 635 2696 27 394 454 314 69 891 1491 363 158 27 596 610 189 39 620
internal_value=0 0.0147502 0.0205095 -0.026268 0.0397745 -0.00419185 0.0138951 0.00949639 0.0149169 0.0209718 0.0364385 0.0477255 0.0530349 0.0516722 -0.0405583 0.0446895 0.0624788 -0.00924905 0.0238435 0.0522504 0.0154499 -0.00617882 -0.00928761 0.0733643 0.0578114 0.0245898 0.0584819 0.0454212 0.0330266 0.0397553
internal_weight=0 2506.6 1922.16 1452.02 699.153 584.44 248.689 1223 908.755 726.682 346.763 256.089 381.558 378.685 641.288 250.201 132.729 182.074 317.595 72.438 245.157 314.25 112.44 113.476 80.6075 117.472 329.599 175.235 136.25 123.268
internal_count=24022 13903 10156 10119 3239 3747 1461 6917 4991 3968 1816 1329 1694 1680 4877 1297 674 1023 1545 340 1205 1926 725 579 421 623 1434 824 736 659
is_linear=0
shrinkage=0.1


Tree=18
num_leaves=31
num_cat=0
split_feature=9 9 7 16 16 9 9 16 16 4 14 9 9 11 11 16 2 15 16 0 10 11 13 5 7 4 14 11 14 14
split_gain=20.7621 20.5098 18.3447 14.9006 10.9542 9.87571 8.16945 8.1827 8.11401 8.07534 7.47082 10.2949 6.91478 8.28706 6.75339 6.62169 6.74656 6.37507 5.61204 6.28288 6.62014 5.09216 5.47022 4.95894 4.90399 4.88226 4.80812 4.38922 4.37403 6.88384
threshold=-0.19599999999999998 0.17765000000000003 195.50000000000003 -0.53499999999999992 0.36500000000000005 0.039150000000000011 -0.049649999999999993 -0.11499999999999998 0.025000000000000005 0.00025000000000000006 956.50000000000011 -0.07934999999999999 0.35835000000000006 110.50000000000001 111.50000000000001 0.72500000000000009 2552.3000000000006 2777.0000000000005 -0.64499999999999991 1975.3000000000004 82.500000000000014 195.50000000000003 5899804.0000000009 4474.5000000000009 207.50000000000003 0.00015000000000000004 5834.5000000000009 76.500000000000014 175.50000000000003 299.50000000000006
decision_type=2 2 2 2 2 2 2 2 2 2 2 2 2 2 2 2 2 2 2 2 2 2 2 2 2 2 2 2 2 2
left_child=3 2 5 -1 21 6 7 28 17 26 11 -4 13 -6 -13 16 18 25 19 -12 -21 22 -3 -9 -16 -7 27 -5 -2 -30
right_child=1 4 10 9 12 8 -8 23 -10 -11 15 14 -14 -15 24 -17 -18 -19 -20 20 -22 -23 -24 -25 -26 -27 -28 -29 29 -31
leaf_value=0.040187149588676016 0.035576662374233257 -0.0054834509187393467 0.031620259098709233 -0.065144893790513456 0.035036322464756235 0.012579891996279655 -0.0050004993562536224 -0.014354692231828609 0.016508276270706279 -0.037975454176767329 0.028807448147318282 0.028055035748112963 0.050818204457379126 -0.00092207418723615079 -0.075759362260151744 0.016938714568392278 -0.0061912025170287634 -0.085169543640397583 -0.01628300843886878 0.023645272317426361 -0.094416156086995134 -0.013150386720399934 0.041392254840212694 0.051214532441450224 -0.013467129096211554 -0.021461087543709213 -0.0034810363419176329 0.027393266911349884 -0.014718146826105921 0.017485685892682637
leaf_weight=209.75333832204342 84.756157428026199 52.516574710607529 99.846591234207153 5.3243652433156958 145.46965815126896 92.401919841766357 1733.617757961154 170.31345927715302 646.53643791377544 37.562133699655533 7.3824782371520987 36.815489172935486 94.181681618094444 114.56807091832161 14.345075160264967 78.885791093111038 930.2354232519865 9.9827849268913251 1147.7036019712687 5.7781393676996222 26.680210947990417 132.85417613387108 47.331887289881706 12.372115314006804 106.20876815915108 77.444925427436829 115.92749466001987 137.30796578526497 84.69138465821743 306.94155107438564
leaf_count=978 335 202 404 21 646 321 5868 579 2482 121 24 127 444 458 49 292 3064 32 3740 20 86 441 183 42 349 267 399 560 330 1158
internal_value=0 -0.00126639 -0.00310752 0.0197951 0.0165292 0.00185742 -0.00139767 0.00807914 0.0112823 0.00535074 -0.00962065 0.00650401 0.0276022 0.0191937 -0.00943158 -0.0115087 -0.0125684 -0.00750641 -0.0175638 -0.0544604 -0.0733992 -0.000326091 0.0167374 -0.00991411 -0.0208795 -0.00294175 0.0116449 0.0239389 0.0149792 0.0105215
internal_weight=0 6259.86 5672.94 505.875 586.922 3219.06 2392.69 659.075 826.366 296.122 2453.88 257.216 354.219 260.038 157.369 2196.67 2117.78 179.83 1187.54 39.8408 32.4584 232.703 99.8485 182.686 120.554 169.847 258.56 142.632 476.389 391.633
internal_count=24022 21943 19569 2079 2374 11414 8312 2444 3102 1101 8155 929 1548 1104 525 7226 6934 620 3870 130 106 826 385 621 398 588 980 581 1823 1488
is_linear=0
shrinkage=0.1


Tree=19
num_leaves=31
num_cat=0
split_feature=16 16 9 10 11 9 12 9 11 7 13 16 10 7 7 9 16 11 16 5 14 18 9 7 12 12 16 6 18 6
split_gain=127.381 21.5864 30.7438 15.8096 14.9547 10.3111 7.17749 8.18979 11.6246 6.8521 6.68078 6.64423 6.4075 7.34574 6.54336 6.32008 7.22335 6.53702 6.31429 6.15679 6.10278 8.09697 5.69413 5.49268 8.94639 13.1377 6.59983 6.33018 5.93394 5.75332
threshold=-0.39499999999999996 0.055000000000000007 0.090450000000000016 174.50000000000003 144.50000000000003 0.039150000000000011 4696508.5000000009 0.32190000000000002 527.50000000000011 2200.5000000000005 192669.50000000003 -0.17499999999999996 37.500000000000007 129.50000000000003 126.50000000000001 0.031650000000000005 0.64500000000000013 163.50000000000003 0.14500000000000005 2326.5000000000005 1419.5000000000002 2224.3500000000004 0.086250000000000007 42.500000000000007 738448.50000000012 1460795.5000000002 0.13500000000000004 988052.00000000012 2486.1500000000001 13651727.500000002
decision_type=2 2 2 2 2 2 2 2 2 2 2 2 2 2 2 2 2 2 2 2 2 8 2 2 2 2 2 2 8 2
left_child=4 5 3 15 10 11 -4 8 18 -10 -1 -2 -12 14 -14 16 17 23 -8 -5 -15 -22 -21 -3 27 -26 -27 28 -25 -28
right_child=1 2 6 19 -6 -7 7 -9 9 -11 12 -13 13 20 -16 -17 -18 -19 -20 22 21 -23 -24 24 25 26 29 -29 -30 -31
leaf_value=0.14566053423353367 -0.0069581785732314412 -0.022874950643567434 -0.023483917464995997 -0.043160026688187747 -0.054245603231394851 -0.022393649676253333 -0.044190741364363344 -0.023820531499056267 0.14918918437932704 0.0081259393475253249 -0.041132691338903439 0.0097341887774718139 0.0022572973632805329 -0.032623025087329359 0.11261378276855161 0.0058728092904902131 0.046086905692284678 -0.054686253856975411 0.0080180210919606493 0.042350723599090506 0.15939043353543111 -0.0082177295076913664 0.12146887465943286 0.056456201530182326 -0.013817942293503326 -0.00042644962834896457 0.027243486380751265 0.1255140628866816 -0.077882104750341352 0.070344265777250781
leaf_weight=2.2698775902390471 450.58078836649656 29.028947204351425 138.53934066742659 8.1762846708297712 315.40932866930962 214.24816252291203 24.613211542367935 99.386234566569328 9.0730803161859495 5.5497394204139701 172.48321254551411 506.51333923637867 63.378618590533733 160.55392879992723 5.8705240637063971 343.66452375054359 108.69912719726562 12.071350395679472 393.78407379984856 298.76914757490158 3.8222908973693821 11.719575770199299 9.3821725547313672 29.753383755683899 104.30993676185608 80.161087512969971 334.61448693275452 12.29780077934265 3.6966020166873923 34.129400312900543
leaf_count=16 2814 156 964 40 2625 1341 148 743 41 25 1277 2800 429 1171 41 1995 510 60 2412 1288 24 71 44 160 559 408 1620 67 20 153
internal_value=0 0.00829435 0.0144097 0.0228005 -0.0377893 -0.00256332 -0.00320813 0.0020679 0.00800978 0.095652 -0.0254339 0.00187576 -0.0263634 -0.0159802 0.0116127 0.0171 0.022253 0.0182054 0.00494672 0.0424871 -0.026831 0.033003 0.0447596 0.0196065 0.0216654 0.0181509 0.0255793 0.0641651 0.0416103 0.0312327
internal_weight=0 3251.04 2079.7 1408.75 735.507 1171.34 670.946 532.406 433.02 14.6228 420.098 957.094 417.828 245.345 69.2491 1092.43 748.762 640.063 418.397 316.328 176.096 15.5419 308.151 627.992 598.963 553.215 448.905 45.7478 33.45 368.744
internal_count=24022 18368 11413 7080 5654 6955 4333 3369 2626 66 3029 5614 3013 1736 470 5708 3713 3203 2560 1372 1266 95 1332 3143 2987 2740 2181 247 180 1773
is_linear=0
shrinkage=0.1


Tree=20
num_leaves=31
num_cat=0
split_feature=16 16 9 11 10 13 9 16 11 2 8 5 10 9 10 9 11 10 6 4 5 13 15 9 10 5 10 2 14 15
split_gain=132.366 20.7266 19.8804 21.3708 16.7374 14.2703 17.0202 12.0908 10.6992 10.74 9.74557 8.31407 8.16712 8.29892 6.78442 6.59385 5.92719 9.01889 9.96702 8.32061 7.97235 7.57938 6.81021 7.22805 7.22792 6.39674 9.59358 7.09215 6.22039 5.9947
threshold=0.14500000000000005 0.53500000000000014 -0.044549999999999992 101.50000000000001 92.500000000000014 10415804.500000002 -0.16694999999999996 -1.0000000180025095e-35 57.500000000000007 2546.5000000000005 1961.1500000000003 4118.5000000000009 58.500000000000007 0.081450000000000009 89.500000000000014 -0.055549999999999995 232.50000000000003 112.50000000000001 7385392.0000000009 0.00015000000000000004 2470.5000000000005 5106768.5000000009 1241.5000000000002 0.0077500000000000008 42.500000000000007 5873.5000000000009 230.50000000000003 2577.1000000000004 419.50000000000006 2280.5000000000005
decision_type=2 2 2 2 2 2 2 2 2 2 2 2 2 2 2 2 2 2 2 2 2 2 2 2 2 2 2 2 2 2
left_child=2 15 5 4 8 10 -7 16 -4 12 -1 -3 -10 -14 -11 -2 17 18 19 20 22 -20 24 28 -5 -18 -27 -28 -24 -23
right_child=1 11 3 7 -6 6 -8 -9 9 14 -12 -13 13 -15 -16 -17 25 -19 21 -21 -22 29 23 -25 -26 26 27 -29 -30 -31
leaf_value=0.014129223734597763 -0.044979092896450995 -0.030498587925307061 0.0055922781134371954 0.071938973460397612 -0.024739143882829294 -0.00082589652623243958 0.035636256096513143 0.010222585353708395 0.059790325832156703 -0.008217199841517522 -0.013581977213627101 -0.05664504539578083 0.010262224937497316 0.097654324708725981 0.11636771782864375 -0.01346468199635234 0.00336245500988904 0.018044122573272918 0.18350609967954648 0.089911298031097445 -0.044122530246487379 -0.015999989304784339 0.049571890681587627 -0.031393035184816565 -0.044193681035592028 0.10197501852491048 0.07267924166868793 0.010066676044826724 0.1917625196260121 0.076678265217084776
leaf_weight=172.43450836092234 72.26343696564436 289.42515350133181 388.96869845688343 8.5368712097406405 114.71894478797913 277.52870186418295 237.64118812978268 141.50902579724789 119.44089131057262 74.262510746717453 480.70399217307568 209.75211005657911 87.81166173517704 12.400709643959997 4.6443736255168906 817.24606095999479 17.119691222906113 146.75925827026367 6.073119953274726 15.907108545303343 19.379363209009171 7.7409240007400504 6.0618804097175616 4.112124875187873 14.397993832826613 50.826799362897873 41.663298726081848 31.974293306469917 6.2474499493837357 70.935839667916298
leaf_count=1029 472 2168 2194 41 659 1793 1103 738 581 397 3054 1819 461 62 26 5500 71 700 30 78 93 37 27 20 74 178 153 132 30 302
internal_value=0 -0.0251769 0.0131672 0.0212423 0.0106213 0.00354948 0.0159936 0.0357026 0.0165215 0.0307602 -0.00626597 -0.0414852 0.0421279 0.0210765 -0.000884267 -0.0160249 0.0437556 0.0359312 0.0524006 0.0257551 0.00837992 0.0758684 0.0342325 0.0833929 -0.000966502 0.0606746 0.0685577 0.0454921 0.121739 0.0675597
internal_weight=0 1388.69 2559.8 1391.49 802.248 1168.31 515.17 589.245 687.529 298.56 653.139 499.177 219.653 100.212 78.9069 889.509 447.736 306.152 159.393 74.6428 58.7357 84.7499 39.3563 16.4215 22.9349 141.584 124.464 73.6376 12.3093 78.6768
internal_count=24022 9959 14063 7084 4380 6979 2896 2704 3721 1527 4083 3987 1104 523 423 5972 1966 1432 732 363 285 369 192 77 115 534 463 285 57 339
is_linear=0
shrinkage=0.1


Tree=21
num_leaves=31
num_cat=0
split_feature=9 16 9 16 14 9 18 9 4 6 6 9 15 9 10 5 11 9 0 3 15 15 9 15 1 0 2 5 7 11
split_gain=16.7147 16.7056 16.4882 13.0122 11.2243 10.0716 9.91449 6.98054 6.90775 6.144 8.45133 5.89027 5.6889 6.3215 5.36214 4.8431 5.64301 5.61594 7.72369 7.5771 5.08707 4.83834 4.77752 4.72267 4.66013 6.80791 4.43409 4.42708 6.09374 4.45026
threshold=-0.19599999999999998 0.53500000000000014 0.090450000000000016 -0.53499999999999992 712.50000000000011 -0.08614999999999999 1919.2500000000002 0.30855000000000005 0.00025000000000000006 3522133.0000000005 3789456.0000000005 -0.021049999999999996 3736.5000000000005 0.18175000000000002 48.500000000000007 1006.5000000000001 66.500000000000014 0.044550000000000006 2095.5000000000005 1953.3000000000004 752.50000000000011 888.50000000000011 0.023050000000000005 1241.5000000000002 2460.1000000000004 2560.7000000000003 1865.7 797.50000000000011 66.500000000000014 19.500000000000004
decision_type=2 2 2 2 2 2 8 2 2 2 2 2 2 2 2 2 2 2 2 2 2 2 2 2 2 2 2 2 2 2
left_child=3 4 6 -1 5 21 -3 23 -5 15 11 -11 13 -6 -13 16 20 18 19 -18 27 26 -8 -4 -12 -26 -2 28 -7 -30
right_child=1 2 7 8 12 9 22 -9 -10 10 24 14 -14 -15 -16 -17 17 -19 -20 -21 -22 -23 -24 -25 25 -27 -28 -29 29 -31
leaf_value=0.03760577241104951 -0.091946591523119098 0.024385251895788947 0.025733264918499994 0.010510574307422825 -0.0051056157047383458 -0.003858363331690302 -0.019559823082148257 0.051707530398068802 -0.035150828720321617 -0.0079223213042559394 -0.018811450525513744 -0.14194038080714153 -0.012417978921272917 0.016756119591940656 -0.048617277909992776 0.012890512631871437 -0.027193646067419239 -0.11823599963598862 0.026252600333544526 -0.1468730587906468 0.069496048352323439 0.029663789519200304 0.001447722301887226 0.0012443875081442457 0.038660750199537457 -0.0093262107219165349 0.0055411973122464989 -0.014276506675211763 -0.069085287538180787 0.020232428092481061
leaf_weight=201.17042915523052 5.0740824341773978 120.07040640711784 283.66074772179127 255.55619359016418 2251.0753966420889 320.74075962603092 197.73888975381851 77.882408410310745 38.066318780183792 17.445808202028275 132.99394662678242 9.7025338411331195 1135.0650402456522 140.523641243577 16.847985714673996 368.43586920201778 33.757695466279984 6.2962804436683646 23.522384062409401 6.2731555998325339 10.880844369530676 190.13686427474022 239.22368404269218 109.01447150111198 46.107544228434563 82.398191586136818 57.948843061923981 155.44083352386951 5.7303116321563712 210.43472267687321
leaf_count=978 20 429 1199 980 7650 1134 647 402 121 62 452 31 3630 572 55 1289 115 23 82 21 40 799 874 435 160 289 220 551 21 741
internal_value=0 -0.00107893 0.010577 0.0180139 -0.00337048 0.00330367 -0.0010654 0.0243589 0.00459086 8.43467e-05 -0.0125115 -0.0530612 -0.00658801 -0.00382108 -0.082721 0.0034553 -0.00104137 -0.0281502 -0.0192253 -0.0459484 0.00165126 0.0217046 -0.00805883 0.0189347 -0.00568918 0.00789139 -0.00230771 0.000585023 0.00488762 0.0178647
internal_weight=0 6254.42 1027.59 494.793 5226.83 1700.17 557.033 470.558 293.623 1447.01 305.496 43.9963 3526.66 2391.6 26.5505 1141.51 773.077 69.8495 63.5532 40.0309 703.227 253.16 436.963 392.675 261.5 128.506 63.0229 692.347 536.906 216.165
internal_count=24022 21943 3986 2079 17957 6105 1950 2036 1101 5066 1049 148 11852 8222 86 4017 2728 241 218 136 2487 1039 1521 1634 901 449 240 2447 1896 762
is_linear=0
shrinkage=0.1


Tree=22
num_leaves=31
num_cat=0
split_feature=16 16 9 11 10 11 10 9 11 16 10 8 1 11 14 14 9 10 9 16 11 13 12 16 16 15 10 9 3 11
split_gain=111.175 18.5425 23.681 14.5747 12.8645 12.6571 10.9433 10.9779 7.58588 7.53349 7.35019 10.0597 8.18001 7.8154 14.6113 7.11755 9.02478 11.3981 8.16857 7.00268 6.91996 6.79592 6.69761 6.01426 8.45355 6.54688 5.79106 5.62824 5.40235 5.34131
threshold=-0.39499999999999996 -0.12499999999999999 0.053950000000000005 195.50000000000003 92.500000000000014 55.500000000000007 57.500000000000007 -0.04614999999999999 37.500000000000007 0.36500000000000005 380.50000000000006 2670.6500000000001 2597.1000000000004 237.50000000000003 3610.5000000000005 681.50000000000011 0.14175000000000001 272.50000000000006 0.38205000000000006 -0.54499999999999993 515.50000000000011 192669.50000000003 2035288.5000000002 0.33500000000000008 0.36500000000000005 1144.5000000000002 154.50000000000003 0.058250000000000003 1988.1000000000001 93.500000000000014
decision_type=2 2 2 2 2 2 2 2 2 2 2 2 2 2 2 2 2 2 2 2 2 2 2 2 2 2 2 2 2 2
left_child=3 29 4 19 5 6 8 -8 -3 10 12 28 13 14 -6 -4 27 -18 20 21 23 -1 -11 -19 -25 -26 -16 -17 -12 -2
right_child=1 2 15 -5 9 -7 7 -9 -10 22 11 -13 -14 -15 26 16 17 18 -20 -21 -22 -23 -24 24 25 -27 -28 -29 -30 -31
leaf_value=0.16401449023793871 0.0029699375794094932 0.016578109800116016 -0.034216065346343569 -0.057776834553161072 0.019126802556998421 -0.0096919010759601281 0.11610614496236321 0.030202169278482217 -0.016268457693680731 -0.030193529648650221 -0.063562675768936733 0.13749952007452118 -0.00055483383719001666 -0.014857444163479842 0.024896310872104404 -0.038109347093925959 -0.024840309485982093 -0.019910348042496643 -0.023309707936285555 -0.012945022344480634 0.078741197565566579 -0.038234326294478066 0.046046050302713665 0.16574705062810419 -0.055688571829841486 0.028266843607919936 0.090033598281256177 0.012791806172681917 0.043537067696934696 -0.015297867773266145
leaf_weight=1.671401560306548 279.55960052460432 266.43179339170456 59.202724114060402 216.10508192330599 205.06568080186844 233.63277977705002 16.281921520829201 172.30865748226643 95.518907383084297 12.115847945213316 5.1104893535375586 11.25988584756851 173.56016933917999 39.889493957161903 18.74159049987793 22.727467775344849 223.65085884928703 41.955621108412743 63.229162372648716 212.60881115496159 17.37105330824852 277.89444249868393 235.41734659671783 4.1031228899955741 10.415145777165888 85.850157469511032 50.229713872075081 491.45022900402546 60.075539976358414 374.4324347153306
leaf_count=11 1728 1414 410 1963 1031 1256 78 865 518 60 22 48 873 200 85 128 1607 245 487 1448 79 2232 1016 23 72 533 202 2821 250 2317
internal_value=0 0.00757141 0.011337 -0.0361285 0.0189445 0.00981054 0.0180868 0.0376187 0.00790989 0.0277712 0.0213876 0.0502173 0.0168666 0.0264984 0.0325183 -0.000564173 0.0015095 -0.00889023 0.00711184 -0.0266231 0.0191569 -0.0370252 0.0423144 0.0118844 0.0251751 0.0191835 0.0723338 0.0105419 0.0351406 -0.007489
internal_weight=0 3269.59 2615.6 708.28 1595.64 784.174 550.541 188.591 361.951 811.466 563.933 76.4459 487.487 313.926 274.037 1019.96 960.753 446.575 222.924 492.175 159.695 279.566 247.533 142.324 100.368 96.2653 68.9713 514.178 65.186 653.992
internal_count=24022 18368 14323 5654 7918 4131 2875 943 1932 3787 2711 320 2391 1518 1318 6405 5995 3046 1439 3691 952 2243 1076 873 628 605 287 2949 272 4045
is_linear=0
shrinkage=0.1


Tree=23
num_leaves=31
num_cat=0
split_feature=16 11 9 16 10 11 9 11 14 13 5 9 16 10 11 13 9 10 9 3 8 14 1 7 16 5 5 10 7 14
split_gain=113.768 16.0254 24.3948 15.8162 14.1482 11.9278 12.9922 10.4655 9.85122 9.09323 8.08983 7.92661 8.6018 7.86393 14.3481 13.8135 7.82836 8.1499 6.95324 7.39631 6.82864 6.82244 6.54405 9.38175 6.50801 6.46376 6.27293 8.10921 8.84739 6.20058
threshold=0.19500000000000003 97.500000000000014 -0.15014999999999998 0.53500000000000014 58.500000000000007 42.500000000000007 -0.044549999999999992 258.50000000000006 4652.5000000000009 21555605.000000004 4118.5000000000009 -0.037849999999999995 -0.21499999999999997 283.50000000000006 197.50000000000003 9801212.0000000019 -0.39134999999999992 424.50000000000006 0.053950000000000005 2471.9000000000005 2376.8500000000008 202.50000000000003 1893.7 132.50000000000003 -0.024999999999999998 1495.5000000000002 6937.5000000000009 180.50000000000003 378.50000000000006 317.50000000000006
decision_type=2 2 2 2 2 2 2 2 2 2 2 2 2 2 2 2 2 2 2 2 2 2 2 2 2 2 2 2 2 2
left_child=1 4 9 13 5 21 29 8 11 -3 -5 12 20 14 -2 -16 17 -11 19 25 -4 -1 23 -6 26 -8 -9 28 -28 -7
right_child=3 2 7 10 22 6 18 24 -10 16 -12 -13 -14 -15 15 -17 -18 -19 -20 -21 -22 -23 -24 -25 -26 -27 27 -29 -30 -31
leaf_value=0.012551354886175739 -0.013881860079558253 -0.017309189881857701 0.041860815849674049 -0.028828843851120379 0.17598484181452775 0.021814056756585765 0.025537629927766571 0.0089695430735850026 -0.01813950099256707 -0.053675938045384314 -0.055244642050746064 0.031755434007631797 -0.013239129440447648 -0.038257188032865541 0.021362280653709782 0.24726595557476805 0.028168866190050136 0.015783476306794594 0.088663669471093332 -0.00072729613890162794 0.008117264584514599 -0.018567936240376531 -0.013587108853371221 0.0064931384322191492 0.01438772169835794 0.065079952281016151 -0.024591342594268348 0.042454594899200566 0.099166136976610947 -0.01974611424331673
leaf_weight=130.13958916068077 606.13138465583324 217.10179757326841 98.375637769699097 280.43969739973545 4.3556943386793163 64.72463022172451 104.05696257948875 34.573046162724495 64.873320311307907 29.682773858308792 197.63826508820057 417.89974066615105 101.0891043394804 136.17310746759176 8.2809394225478155 4.0212484598159781 119.66680192947388 39.202117457985878 23.057080239057541 55.469359934329987 153.62939488887787 153.59995086491108 448.95644617825747 13.051277279853819 72.865936681628227 68.586734101176262 6.4707224667072287 149.52295380830765 53.850362360477448 80.604996003210545
leaf_count=740 4154 1588 527 2168 26 422 530 151 329 230 1819 2010 574 942 55 25 679 206 113 297 826 923 2615 73 356 325 27 573 197 522
internal_value=0 0.0111349 0.0177358 -0.0255181 0.00216108 0.0113587 0.0225605 0.0251555 0.0192861 -0.00335627 -0.0397492 0.0224352 0.0114043 -0.0165021 -0.0117119 0.095204 0.0127094 -0.0141469 0.0363298 0.0310401 0.0212898 -0.0042948 -0.0112546 0.0489045 0.0406181 0.0412467 0.0484379 0.0549405 0.0858905 -0.0012367
internal_weight=0 2705.41 1558.8 1232.68 1146.6 680.239 396.5 1153.15 835.867 405.653 478.078 770.994 353.094 754.607 618.434 12.3022 188.552 68.8849 251.17 228.113 252.005 283.74 466.363 17.407 317.283 172.644 244.417 209.844 60.3211 145.33
internal_count=24022 14859 8273 9163 6586 3872 2209 5570 4266 2703 3987 3937 1927 5176 4234 80 1115 436 1265 1152 1353 1663 2714 99 1304 855 948 797 224 944
is_linear=0
shrinkage=0.1


Tree=24
num_leaves=31
num_cat=0
split_feature=9 16 16 9 14 11 4 9 10 17 1 8 14 16 15 12 13 5 6 16 12 10 9 11 5 2 11 14 7 6
split_gain=13.289 14.1371 11.1184 10.3548 11.5911 6.83176 5.86306 5.30916 7.00965 7.18106 4.74625 4.68326 4.6157 6.01715 4.50583 5.88586 5.56203 10.2925 7.89999 6.02541 5.9551 4.58967 4.44851 6.3612 8.11245 5.69982 5.41542 6.42333 7.58986 6.26146
threshold=-0.19599999999999998 0.74500000000000011 -0.53499999999999992 0.18675000000000003 2194.5000000000005 223.50000000000003 0.00025000000000000006 -0.10719999999999999 114.50000000000001 2325.0500000000006 2317.1000000000004 1916.4500000000003 1531.5000000000002 0.025000000000000005 1379.5000000000002 5651474.0000000009 4448084.5000000009 3352.5000000000005 9097213.7000000011 -0.074999999999999997 3106663.5000000005 44.500000000000007 0.039150000000000011 63.500000000000007 985.50000000000011 1865.7 72.500000000000014 775.50000000000011 170.50000000000003 3522133.0000000005
decision_type=2 2 2 2 2 2 2 2 2 2 2 2 2 2 2 2 2 2 2 2 2 2 2 2 2 2 2 2 2 2
left_child=2 3 -1 4 7 11 -4 8 9 10 12 -5 13 -2 15 22 17 20 -19 21 -16 -18 26 25 -25 -24 27 29 -29 -9
right_child=1 -3 6 5 -6 -7 -8 14 -10 -11 -12 -13 -14 -15 16 -17 19 18 -20 -21 -22 -23 23 24 -26 -27 -28 28 -30 -31
leaf_value=0.034936659611640726 0.016574159586917308 0.019120220337749069 0.0095077821522531556 -0.026737393371032449 -0.010125126437169896 -0.0027396812751315234 -0.032366730059345955 0.0019427245218847575 -0.017557263015626788 0.033264415807477382 -0.091904442998688066 0.025640939789865091 -0.045964975981657136 -0.073156851791163838 -0.015334453207596521 -0.094419146980549803 0.027130599125343921 -0.069744517175081552 0.012330557209276971 0.037128067410977482 0.022930726374305321 -0.006517622383313779 -0.036841383829187516 -0.094028947446420985 -0.002412027759951771 0.017375264477351295 0.0085865370611967282 -0.020555641361205888 0.022522224973530808 -0.030640223143466008
leaf_weight=192.58087128400803 134.87088051438332 333.62876184284687 252.9014651030302 18.268481001257896 1692.3978568762541 181.19040593504906 38.531080186367035 928.40045353770256 70.189877673983574 149.30007639527321 5.1130108237266532 260.30561213195324 15.433462888002394 7.9115698933601371 238.17486172914505 6.4616655707359305 43.87390972673893 53.8172267973423 14.995079815387724 38.046395510435104 49.045720756053925 533.07926082611084 20.331399068236351 10.301116257905958 156.50701548159122 419.13768234848976 420.18315167725086 338.35294663906097 46.524031788110733 62.979542821645737
leaf_count=978 558 1350 980 80 5477 670 121 3241 252 616 21 1136 54 27 810 22 162 176 50 127 164 1757 79 36 563 1617 1426 1105 152 215
internal_value=0 -0.000907602 0.016292 -0.00203721 -0.00325183 0.0123751 0.00397144 -0.00016061 0.0110008 0.0174125 0.00292219 0.022206 0.00598667 0.0116022 -0.00142467 0.000893244 -0.00717554 -0.0171225 -0.0518593 -0.00141707 -0.0088003 -0.00395887 0.00114957 0.0085563 -0.00806976 0.014867 -0.00135011 -0.00438386 -0.0153484 -0.000127177
internal_weight=0 6248.82 484.013 5915.19 5455.43 459.764 291.433 3763.03 382.819 312.629 163.329 278.574 158.216 142.782 3380.21 2409.18 971.032 356.033 68.8123 615 287.221 576.953 2402.72 606.277 166.808 439.469 1796.44 1376.26 384.877 991.38
internal_count=24022 21943 2079 20593 18707 1886 1101 13230 1528 1276 660 1216 639 585 11702 8456 3246 1200 226 2046 974 1919 8434 2295 599 1696 6139 4713 1257 3456
is_linear=0
shrinkage=0.1


Tree=25
num_leaves=31
num_cat=0
split_feature=16 16 9 11 9 14 6 9 9 15 15 15 1 16 16 16 10 9 15 5 9 11 13 11 9 11 10 13 12 10
split_gain=96.9987 16.3051 17.7832 14.0165 10.8909 7.14751 12.2183 8.84994 8.07078 7.05605 6.54848 8.05755 6.95883 6.39472 6.23495 6.17689 6.15555 6.59648 5.89126 5.57329 6.22829 5.41192 4.99383 4.95374 10.7165 8.42698 8.18926 6.57975 6.77271 8.7615
threshold=-0.39499999999999996 0.13500000000000004 0.032150000000000005 195.50000000000003 0.039150000000000011 2164.5000000000005 6363553.5000000009 0.049050000000000003 0.22530000000000003 3409.5000000000005 655.50000000000011 730.50000000000011 2632.1000000000004 -0.65499999999999992 -0.17499999999999996 0.64500000000000013 295.50000000000006 0.62430000000000019 3577.5000000000005 26905.000000000004 0.11645000000000001 5.5000000000000009 75971.500000000015 93.500000000000014 -0.10024999999999999 81.500000000000014 65.500000000000014 4268242.5000000009 2560180.5000000005 83.500000000000014
decision_type=2 2 2 2 2 2 2 2 2 2 2 2 2 2 2 2 2 2 2 2 2 2 2 2 2 2 2 2 2 2
left_child=3 4 10 13 14 -4 7 -7 9 -8 15 12 -12 -1 23 -3 -10 -18 -11 -6 -21 -17 -23 24 -2 -26 -27 -25 29 -29
right_child=1 2 5 -5 19 6 8 -9 16 18 11 -13 -14 -15 -16 21 17 -19 -20 20 -22 22 -24 27 25 26 -28 28 -30 -31
leaf_value=-0.041374239873619656 0.072631677466863373 0.0080279590317750057 -0.0075992741190383656 -0.056484094246655098 -0.022128712666323963 0.24991561355379521 0.008437777531366264 0.058650162720513183 -0.03615475947056742 0.13936828641883794 0.059595988354102437 0.029010765898914388 0.18190750170744341 -0.01693636927537635 0.0092098630379708318 0.12083213686786838 0.012667437069924493 -0.052145406418019985 0.032611865056855607 0.13669905456779474 0.0004362625847458407 -0.038411977021936577 0.036512178243622843 -0.051487459119377715 -0.011942913900942514 -0.02972137190650322 0.08920968199719137 0.19499720647321087 -0.011749306519301049 -0.0036285999943428461
leaf_weight=161.43002273887396 21.588915050029755 311.7385850250721 338.46270979195833 203.56079278886318 268.85395365208387 2.7362502366304424 397.5288288667798 20.876580499112606 61.31028625369072 5.4861817657947531 25.399514988064769 372.93657495081425 5.6944612711668006 318.01870782673359 687.60049271583557 6.9339933544397345 102.49090994149446 18.54461570084095 89.455342978239059 4.5643740743398693 12.653742045164107 9.7889399230480176 97.51156197488308 41.474429830908775 140.58007350564003 8.6509477645158785 17.504853770136833 3.6968500912189466 206.04970123618841 5.5620358288288116
leaf_count=1387 139 1549 2174 1963 1701 14 2235 139 481 28 113 1592 26 2304 3644 32 723 147 388 21 69 49 429 267 875 54 105 24 1314 36
internal_value=0 0.00691828 0.0130594 -0.0344989 -0.00116247 0.00432732 0.010107 0.080814 0.00763287 0.0142875 0.0239681 0.0330885 0.0819958 -0.0251646 0.00324058 0.0153174 -0.0103396 0.00273705 0.0387808 -0.0185965 0.0365584 0.03521 0.0296769 -0.00598074 0.00633792 -0.00224578 0.0498736 -0.0150152 -0.00798969 0.0756779
internal_weight=0 3285.68 1866.9 683.01 1418.78 1036.89 698.429 23.6128 674.816 492.47 830.004 404.031 31.094 479.449 1132.71 425.973 182.346 121.036 94.9415 286.072 17.2181 114.234 107.301 445.108 188.325 166.736 26.1558 256.783 215.309 9.25889
internal_count=24022 18368 10119 5654 8249 6329 4155 153 4002 2651 3790 1731 139 3691 6458 2059 1351 870 416 1791 90 510 478 2814 1173 1034 159 1641 1374 60
is_linear=0
shrinkage=0.1


Tree=26
num_leaves=31
num_cat=0
split_feature=16 16 11 9 10 16 9 11 15 9 7 5 9 1 9 5 12 13 10 11 6 9 10 10 11 4 7 14 0 16
split_gain=98.052 14.1442 13.3274 19.121 12.8855 10.7242 10.0077 8.66508 8.24829 8.07453 8.23267 7.84801 7.71671 7.62016 8.12409 8.22552 7.55792 8.9835 7.28795 11.6856 9.59575 7.25041 7.05865 7.04305 6.94279 5.23302 10.7827 9.28888 8.0012 7.96983
threshold=0.19500000000000003 0.53500000000000014 97.500000000000014 -0.12054999999999998 79.500000000000014 0.065000000000000016 -0.044549999999999992 47.500000000000007 8706.5000000000018 0.069950000000000026 187.50000000000003 4118.5000000000009 -0.39134999999999992 2525.1000000000004 0.056350000000000004 3140.5000000000005 393183.00000000006 336634.50000000006 283.50000000000006 197.50000000000003 29935784.000000004 0.047750000000000008 424.50000000000006 58.500000000000007 258.50000000000006 0.00015000000000000004 1010.5000000000001 6115.5000000000009 2552.1000000000004 -0.62499999999999989
decision_type=2 2 2 2 2 2 2 2 2 2 2 2 2 2 2 2 2 2 2 2 2 2 2 2 2 2 2 2 2 2
left_child=2 18 4 8 6 24 -1 16 -4 10 -7 -3 22 14 23 -16 17 21 19 -2 -21 -8 -10 -9 -5 26 -14 28 29 -27
right_child=1 11 3 5 -6 9 7 13 12 -11 -12 -13 25 -15 15 -17 -18 -19 -20 20 -22 -23 -24 -25 -26 27 -28 -29 -30 -31
leaf_value=-0.0094105711002380309 -0.01308874783550939 -0.02713306003286451 -0.011231998344933261 0.022483903160532406 -0.018524138504876473 0.13586127011925533 -0.032340058653713803 0.038576672630420875 -0.04985847124903061 0.027350072564697778 -0.025010581271645311 -0.053790856623471377 -0.0072178063034837071 0.0003353670644177572 0.060505403175918321 0.2067230347254824 -0.010227523208986417 0.042490999082602197 -0.036910777169964437 0.023686557784484766 0.20635081862509394 0.11679312813035254 0.01466884079336498 -0.00048564934009144312 0.042101039881594651 0.044339294808897978 0.063324334200904914 0.014765910247047126 0.018250020975828497 0.20171779208861165
leaf_weight=253.88885544240475 599.46277483552694 271.75810983031988 283.90099684894085 673.32405884563923 242.47281578183174 3.2979964017868033 33.413879171013832 156.67042976617813 29.656207285821438 61.660272046923637 89.767685607075691 186.03731032460928 70.104239471256733 93.027330249547958 26.896109104156498 4.4895851910114279 193.75925302505493 74.393583536148071 132.36749951541424 9.0316722020506841 4.2194540947675696 3.6124135702848426 39.574967548251152 65.436452627182007 246.44283644855022 4.9250653833150873 31.362235486507416 26.186021402478218 7.2825438752770415 9.2825562134385109
leaf_count=1646 4154 2168 2004 3222 1444 20 191 742 243 339 512 1819 398 503 131 20 1147 393 942 57 23 21 206 348 918 32 158 126 42 53
internal_value=0 -0.0241322 0.0101459 0.0161135 0.00194985 0.0236426 0.00743179 0.0139932 7.01163e-06 -0.000715194 -0.0193097 -0.0379662 0.0146185 0.0248145 0.0337979 0.0814212 0.00170614 0.0224588 -0.0156324 -0.0110355 0.0818509 -0.0177901 -0.0129724 0.0270683 0.0277401 0.027426 0.014586 0.0547527 0.103477 0.147163
internal_weight=0 1202.88 2724.83 1576.77 1148.06 1074.49 905.588 651.699 502.275 154.726 93.0657 457.795 218.374 346.52 253.493 31.3857 305.179 111.42 745.081 612.714 13.2511 37.0263 69.2312 222.107 919.767 149.143 101.466 47.6762 21.4902 14.2076
internal_count=24022 9163 14859 8273 6586 5011 5142 3496 3262 871 532 3987 1258 1744 1241 151 1752 605 5176 4234 80 212 449 1090 4140 809 556 253 127 85
is_linear=0
shrinkage=0.1


Tree=27
num_leaves=31
num_cat=0
split_feature=9 16 4 9 5 14 11 9 16 9 1 8 6 10 7 6 10 10 11 13 15 7 7 9 11 16 6 14 9 14
split_gain=10.709 11.938 9.73293 8.23454 9.36468 7.85114 6.05321 5.78813 7.85757 4.88275 4.77773 4.49377 4.1567 4.14967 4.08024 3.91144 6.53477 6.54708 7.3479 4.95107 5.35853 5.51798 6.8557 6.32831 6.78228 4.93187 4.91943 5.3863 4.77005 5.72112
threshold=-0.19599999999999998 0.74500000000000011 0.00025000000000000006 0.18175000000000002 7433.5000000000009 5834.5000000000009 223.50000000000003 -0.08614999999999999 -0.62499999999999989 -0.39134999999999992 2463.3000000000006 1916.4500000000003 15498471.000000002 731.50000000000011 1601.5000000000002 3522133.0000000005 112.50000000000001 87.500000000000014 80.500000000000014 1701686.5000000002 685.50000000000011 110.50000000000001 129.50000000000003 -0.021049999999999996 40.500000000000007 -0.25499999999999995 3376791.0000000005 569.50000000000011 0.039150000000000011 823.50000000000011
decision_type=2 2 2 2 2 2 2 2 2 2 2 2 2 2 2 2 2 2 2 2 2 2 2 2 2 2 2 2 2 2
left_child=2 3 5 4 7 9 11 8 -2 12 -10 -5 -1 -8 -15 16 17 19 26 20 28 23 -23 -22 -25 -26 27 -19 29 -9
right_child=1 -3 -4 6 -6 -7 13 15 10 -11 -12 -13 -14 14 -16 -17 -18 18 -20 -21 21 22 -24 24 25 -27 -28 -29 -30 -31
leaf_value=-0.030570807872756778 0.029868162358601069 0.01778559247196013 -0.030356924809757758 -0.026918826182180756 -0.011838976033558561 -0.0011079465646287319 -0.016590553129638495 0.00075107360408013964 -0.0069093429505978111 0.02305160372329847 0.014041968685965826 0.023273258036992275 0.070268334170997523 0.041464530582681292 -0.0045642303190942465 -0.0048757301011519705 0.043210871056234924 0.040874130056406673 -0.10733826595892899 0.016656987290293763 0.033976451181881043 -0.097483008505049248 -0.013805763206830808 -0.083555771701982223 -0.031670639082328748 0.077266242151920128 0.072016373116971469 -0.037894804076862611 0.013969344620685576 -0.027657027239078782
leaf_weight=4.5764554888010016 131.42525362968445 328.65449552237988 43.345169976353645 19.10682176053524 963.17655447125435 130.71814697980881 103.05843971669674 781.93927536904812 254.86620788276196 257.85163378715515 189.97179968655109 268.56197476387024 38.284298121929169 31.947034388780594 48.490020513534546 2386.0897896438837 36.856030836701393 10.500668436288832 10.106521323323248 201.13707107305527 25.637287378311157 17.84516641497612 21.694481581449509 14.427666336297987 11.22116583585739 6.600380182266238 5.8185046613216391 50.102348461747169 245.9143498390913 77.959900408983231
leaf_count=24 592 1350 143 83 2980 478 355 2709 940 1225 708 1195 209 135 188 8040 132 38 35 711 93 59 73 51 37 22 21 179 965 252
internal_value=0 -0.000764824 0.0148144 -0.00179563 -0.00289342 0.0193527 0.0108869 -0.000970221 0.00838514 0.0282468 0.00203809 0.0199395 0.0595012 -0.00330497 0.0137169 -0.0023512 0.00161763 0.00058248 -0.0279009 0.00213461 -0.000292991 -0.0227758 -0.0515713 -0.00310687 -0.0325871 0.00867518 -0.0158139 -0.0242465 0.00168782 -0.00182445
internal_weight=0 6243.11 474.776 5914.45 5443.29 431.431 471.164 4480.11 576.263 300.712 444.838 287.669 42.8608 183.495 80.4371 3903.85 1517.76 1480.9 76.528 1404.38 1203.24 97.4261 39.5396 57.8865 32.2492 17.8215 66.4215 60.603 1105.81 859.899
internal_count=24022 21943 2079 20593 18637 1936 1956 15657 2240 1458 1648 1278 233 678 323 13417 5377 5245 273 4972 4261 335 132 203 110 59 238 217 3926 2961
is_linear=0
shrinkage=0.1


Tree=28
num_leaves=31
num_cat=0
split_feature=16 11 16 9 9 12 10 11 9 11 10 10 9 6 10 11 9 2 6 2 2 10 7 5 16 7 12 5 9 11
split_gain=84.4263 13.6896 12.8335 14.1838 9.54046 8.05962 7.90329 8.10822 7.10014 6.16696 6.57205 5.9589 5.52097 5.47275 7.14083 5.31083 7.1763 5.13192 8.14884 6.42268 5.10821 6.78717 5.03992 5.00296 5.62511 4.97763 4.81974 6.27569 4.77333 4.74214
threshold=-0.37499999999999994 195.50000000000003 0.13500000000000004 0.090450000000000016 0.039150000000000011 4514410.5000000009 85.500000000000014 40.500000000000007 0.020950000000000003 85.500000000000014 40.500000000000007 70.500000000000014 0.62430000000000019 4147854.5000000005 103.50000000000001 45.500000000000007 -0.0081499999999999993 2587.1000000000004 4386070.0000000009 2632.9000000000005 2543.1000000000004 136.50000000000003 131.50000000000003 26905.000000000004 0.085000000000000006 86.500000000000014 2739080.9000000004 1720.5000000000002 0.15735000000000002 185.50000000000003
decision_type=2 2 2 2 2 2 2 2 2 2 2 2 2 2 2 2 2 2 2 2 2 2 2 2 2 2 2 2 2 2
left_child=1 5 4 6 -2 9 7 -4 -9 10 -1 -5 29 14 15 16 -8 25 -19 -20 21 -7 -18 -6 28 -12 -15 -28 -25 -13
right_child=2 -3 3 11 23 20 13 8 -10 -11 17 12 -14 26 -16 -17 22 18 19 -21 -22 -23 -24 24 -26 -27 27 -29 -30 -31
leaf_value=-0.027228626976151894 0.0033820633031077154 -0.053675867209107109 0.018147956425602504 -0.03378827002613969 -0.020847842468151797 0.018937998035933157 0.17314794803356992 0.0062532747781902931 -0.033877321933485693 -0.036604652523432611 0.10545600853081222 -0.000841366838210106 -0.051543125908326062 0.12148085261224234 -0.031412031821967563 -0.0070003719530876063 -0.0019596804572463845 -0.02386143391470457 0.19631703398413794 0.041141533283344654 -0.014304912500632509 0.19071429977226695 0.12329635652615832 0.08179089810129607 0.13820587046899196 -0.010898374083993722 0.14592805665931793 0.026314406071980736 -0.042082134075225069 0.021085090757721605
